        2592  1.000000000000000E-002
  -2.04036486456937     
   2.53340980991232     
  -2.70507542717649     
  -4.34140845262232     
   11.5244009896222     
  -2.18714052842167     
  -12.6692619023083     
  -1.11952198469455     
   7.35767163154296     
   5.99779237120322     
 -0.544766838369084     
  -2.66536456199384     
   2.52984808446002     
  -5.96224383971976     
  0.382075506732853     
   11.2465440207010     
   10.1420308794347     
  -10.5888518796336     
  -4.14476493017347     
 -0.445440111454640     
  -9.08220086335878     
   2.11721153005603     
  3.270729171071340E-002
 -2.399541841908259E-002
  -1.06856122775654     
  -2.91103737455740     
   3.29319250616536     
   1.39635913052213     
  -4.08467160498727     
  -1.45917504396742     
   2.71516572912614     
  -3.89226369037610     
  -4.41425396230197     
   4.48765051571106     
   1.91151087497364     
  -3.58074423195176     
   1.08561574127370     
  -2.61921364867997     
   2.35341702193635     
  0.190688977684257     
  -8.40689691843588     
  -4.23851074909868     
  -4.94003251743637     
  -10.5476186969431     
   4.81944767553672     
   3.01178288237668     
   2.26980679332089     
   3.58390791825658     
  0.335278726519522     
 -0.784731345027007     
   4.25703006899479     
   11.2347908090935     
  -4.45472993652742     
  -7.81592110497079     
  -3.32776072226346     
   4.11117554219827     
   1.84300230698087     
 -0.727738924191361     
   3.19425540621401     
  -1.75835905296873     
 -0.265920941610960     
  -2.08268563789101     
   1.91513665702205     
 -4.974644158172810E-002
  -3.39642320832673     
   4.77374384572494     
  -6.16556709811720     
  -6.41015256396724     
  -8.32185378969246     
  -2.58122683280826     
  0.755713325272234     
  -4.16726788874489     
 -7.583777753146617E-002
  -2.79893192600985     
  -1.10773453450796     
   17.9068677572082     
 -3.741496664526592E-002
  -15.1671281254071     
  -11.7428589981125     
  -8.28926081518583     
  -8.17105828137896     
   5.32670800802937     
  0.943276571244431     
 -4.530772226674340E-002
 -0.194206158274269     
 -0.949865133025057     
  -4.06689931303348     
   1.14974014409274     
  0.316548171704102     
  -7.24187757713645     
   9.24277477934436     
   31.1783125132419     
   2.79942186353733     
   7.83639732827328     
  -2.61547377448437     
  0.679067145820810     
  -1.05375825733030     
   1.38976494660487     
   1.21906820132344     
  -3.78704490975305     
  -1.38441468404590     
   5.22156676098173     
  -13.7778617217515     
  -33.7027959433866     
  -3.80398102041645     
   4.95439359866692     
  -2.77483831755985     
  -4.53255463774669     
  0.490444036222381     
   2.44835061630500     
   4.88813305916259     
   6.56274665878745     
  -10.6591640568637     
  -7.90980108063136     
  0.939906633839688     
   7.07143943574482     
  -2.85025983525853     
  -1.29725232800900     
   2.23049258624674     
   6.81033341211412     
  0.406878365061295     
  -6.77702015916256     
  0.364785781638198     
   7.48463781041585     
  -6.69761007653454     
   1.51849778377208     
  -26.8212276242626     
   1.68581970117344     
   2.42778119034942     
  0.643372009290330     
 -0.661306234208014     
   3.63296468472573     
  0.594827988714316     
  -1.67924897206114     
   5.27568948054764     
   3.19548750129855     
  -16.3659730703364     
  -2.98334666777671     
   15.9028064111072     
  -17.9457094770123     
  -8.53478197044641     
  0.684336935951773     
  -1.69581739177674     
  -3.14923168982722     
  -1.32191724565469     
  0.646144950481776     
   8.23112411535886     
  -17.3071916936691     
  -26.3337338259434     
  -30.9629380080718     
  -42.6273375722264     
  -8.98485687332579     
  -21.6898769226425     
   8.12559912276024     
  0.491087991401211     
  6.716866456073292E-002
  -1.46679246811167     
   6.69467121335231     
   4.86646750065184     
  -19.1795395946902     
   3.90039368422046     
   40.9949758051329     
   77.0085755329219     
   7.53842836050636     
  -4.75131344099890     
   8.16242162233023     
  -3.14881742510260     
   1.74572927743631     
  0.484426348742978     
  -5.11860795736435     
  -42.8735174972267     
  -13.7731022461052     
   60.5594558263069     
   12.9373763928187     
  -146.531494508920     
   122.943571106069     
  -25.3237909759791     
   25.2003176132506     
  -9.41167917628624     
   1.86426857199969     
   1.68664706095971     
  0.430074687217815     
   14.7191856423205     
   84.4729122522524     
   45.1110941863269     
   75.0458783411406     
   231.081376328298     
  -111.969484311925     
  -4.01795391946011     
  -20.4442062869852     
   1.31716743268793     
   1.41453650889677     
   5.36539883300792     
  -12.3550535268358     
   22.8115664003564     
  -74.4056973144595     
  -149.733964826309     
  -196.062291715580     
  -94.4239789762395     
  -40.1491914396271     
   33.1079546275278     
   3.27484916224230     
   8.15745790058727     
  -2.88459377812489     
  -8.44300914802757     
   5.78086416309157     
  -22.9294851385275     
   68.9957801867332     
   39.0822565804590     
   116.572731588781     
   42.3463100054297     
   27.9505047031514     
  -13.8526791779632     
  -3.43608765578491     
  -4.36260706877365     
  -2.29459396101900     
  -4.87777240091114     
   2.55111018303539     
   1.57902284468534     
   16.2194463093961     
  -26.3205553563660     
   13.0710420465915     
   46.1112435736464     
   16.4117814511984     
  -12.7245325355732     
  -15.2852987603400     
   7.34382499479210     
  0.528199860189029     
  -1.52801047271491     
   10.9735544775613     
  -1.41188118332328     
  -37.1614064126840     
  -34.7267303646672     
   15.8373566485343     
  -5.65831910414229     
  -15.1665748322816     
   12.5461594868825     
  -9.65567980813282     
  -4.83753794410496     
  9.054584247972430E-002
  -3.89956373044172     
   12.3615625612141     
  -12.0029920451054     
 -0.351363130297758     
   16.0638130451693     
   10.0536117094011     
   4.62122430391742     
   19.6958488010335     
   17.8308624185927     
  -11.3086740290675     
 -0.873845196930736     
   8.09824163614224     
  -2.19036427156501     
   6.86996063067181     
  -7.87628269446138     
 -0.298278976184354     
   17.7883404191148     
   5.23395029289772     
   9.09328556054989     
   24.1238368012280     
  -19.4159023282084     
  -8.64958646068212     
  -6.03979329459837     
  -11.2983029925400     
  -3.65008276749818     
   3.69622068435783     
  -10.9367157010762     
  -35.4873275838796     
   8.45299850635977     
   25.7608487404479     
   10.6638362440604     
  -6.38182079698665     
  0.389107679245063     
   1.03068759405988     
  -6.69335669661416     
   4.22682543271214     
 -0.552134901070792     
   6.97236257370382     
  -9.47280646500674     
   7.89100400498588     
   8.61230789885664     
  -8.04821805083540     
   20.5375907032686     
   4.11870018926404     
   19.8573220350180     
   6.57785273574977     
  -1.05661223226574     
   9.62583676087487     
  -1.38535269983952     
   8.02493849068023     
   1.86626894318793     
  -52.2750977683057     
  -2.63185044188695     
   29.9760831252041     
   25.4446890786362     
   46.9429661998542     
   17.7401847729102     
  -14.3937266378090     
 -0.454058845002460     
  -1.08019632418545     
  -1.22928436282503     
   2.79879656774716     
   7.77688272299396     
   2.23082162921365     
  -3.12327461519444     
   41.0613737398234     
  -4.13954852753182     
  -107.217949151895     
 -0.616619258224482     
  -22.5121430322666     
   9.07331332043322     
  -7.25788912245824     
  0.945213249979614     
   1.37912272924686     
  -7.24723441767110     
   5.91632606780890     
   3.26661976102045     
  -47.6148124844261     
   20.3715822359416     
   115.294886145600     
   2.06234761149894     
  -12.8806561362729     
   7.15905381923168     
   13.0494473589281     
  -2.37839362233777     
  -7.77995888455183     
  -11.9291636634565     
  -14.2831039772689     
   24.2047159025085     
   78.9212147473267     
   30.0409127377851     
  -31.1395560421471     
   11.1377399534417     
   5.04769312170721     
  -5.10538244441155     
  -19.0489495890256     
  -3.95936473844969     
   21.7214190520298     
  -3.16277282897594     
  -24.4489134175864     
   25.6846434448444     
  -81.6560305523496     
   16.3785830679001     
 -0.621139599957458     
  0.793749456402973     
  -9.29001174976122     
   6.01373381103476     
  -11.1471820619770     
  -2.82900293523155     
   1.55138101342661     
  -12.2652263705767     
   3.07105040853929     
   24.9010768786560     
   128.126756573521     
   68.7539165014430     
   54.7169511502280     
   7.48909757726044     
   12.3175755837889     
   1.43635291849084     
   9.07858497902668     
  2.470881780961764E-002
   5.02241110719095     
  -19.4842362766249     
   16.2270333613494     
   88.3099236421812     
  -98.3417016381882     
  -86.6957152625036     
   13.8604645913456     
   70.4712489706942     
  -43.5941574128182     
   4.84867948867519     
  -6.89826396721686     
   2.53645486004999     
  -13.2097811030588     
  -25.6628873599325     
   89.1731873822689     
  -72.8607211033437     
   211.047898796720     
   187.746725138667     
 -0.831543100073462     
   3.35559590424557     
   20.9500204949802     
   3.04715892052009     
  -1.16146474230493     
  0.636244753897644     
   5.62190867425174     
   114.366416399682     
  -15.4727279466490     
   148.758545355598     
  -378.071832857238     
  -239.153575129356     
  -178.613727046299     
   46.1995282222965     
  -103.922115020501     
   33.5624806680077     
  -11.3216131498547     
  -10.1922056942577     
   9.12789374293323     
  -39.8112581683949     
  -39.5723789983580     
  -601.092931245714     
   127.308680283344     
   150.671572270540     
   56.2107389918152     
   92.5047128991681     
   41.2389332739805     
 -0.541272904929327     
  -4.55920117428614     
 -0.818845582359965     
   15.2030029083280     
  -8.92398664235623     
  -94.8862282719150     
   730.815238172353     
   147.538278397665     
  -233.760014073772     
   120.328365351783     
  -79.0579596822814     
  -16.2956668323310     
  -6.90796045035696     
   8.69723830731114     
   3.75107263142045     
  -15.1697349915157     
   32.6854910262900     
   19.7909687843660     
  -258.708391016318     
  -105.685728579674     
   72.3723810601095     
  -40.8013109670955     
   18.4964819269527     
   11.0830537201210     
   4.08003883356662     
  -3.49265756328714     
   9.35954962317987     
   2.11239708332218     
   5.73590531241374     
  -54.8327347498475     
   75.1116355551964     
  -1.35495223249031     
  -55.9169055040750     
  -28.3571417700968     
   46.5684642726686     
   31.2188747646686     
  -19.9502603894291     
  -3.14460994743910     
   8.43733831801419     
  -31.3266285194474     
  -15.9703566498600     
   114.989050213049     
   104.783235758256     
  -27.1530642044459     
   13.7985483721296     
   69.7867251249606     
  -20.6655367912086     
   19.5228107341701     
   9.14959531566053     
   14.9606100977249     
   7.46227510697931     
  -24.3794643326121     
   33.5723152342761     
  -9.35688829832439     
  -64.7922247219637     
  -6.76874809222884     
   1.42117290567475     
  -53.2419626790705     
  -50.4660081671985     
   23.8511463289474     
  -1.32321773293310     
  -34.9859525323665     
   7.24197535179744     
  -16.8446494701569     
   10.0892543908540     
  -10.0790843792010     
  -29.9186273590049     
   29.8710405019017     
   14.1296585758872     
  -33.2897722874951     
   86.0136965950851     
   14.3502837495628     
   9.10874081703341     
   36.3696818021721     
   6.62632534683272     
  -3.22521728123402     
   7.73506695798488     
   124.072717053979     
   3.47896898526330     
  -52.8254982950893     
  -24.8605656758579     
  -5.41078975707026     
  -2.06094954143196     
   1.22984862951426     
   24.3909464134915     
  -21.4113331853343     
   3.34705988317771     
  -18.2180528655902     
   33.3498329558432     
  -70.9133526021147     
  -1.27982634497497     
   17.5283575417332     
  -19.5710568252244     
   120.856171975504     
  -54.9660376145084     
  -29.6371780847366     
  -8.20963893823700     
  -14.4695895634357     
   2.99970607443790     
  -16.9348845572994     
  -19.2380751899834     
   156.662455220406     
   9.15063240841728     
  -35.9850334178110     
  -31.6530779975323     
  -281.786690424499     
   1.10349528402101     
   41.5945363156573     
   8.24396919897571     
  -4.91123181545623     
   4.13253376218276     
   1.25101590531790     
  -11.4190221772535     
  -40.1613741258358     
   56.6670191884662     
  -108.211948614789     
   14.1348063658328     
   451.431392910322     
  -20.9290163586130     
   43.5519620395416     
  -37.6438960567048     
   39.6177115662268     
  -2.50312618345076     
  -18.1325578328443     
   8.30641699060373     
   6.19192202165964     
  -29.1855128740239     
   190.893744485707     
  -93.6078204276118     
  -442.596339638945     
   51.7094114977599     
   42.9866553916283     
  -2.98099955650244     
  -46.9645242731870     
 -0.451704939726274     
   41.2349451936885     
   30.5523623264450     
   33.0987637779669     
   2.10298188464409     
  -243.227139185114     
   69.4283473669859     
   247.933306118345     
  -47.3804668802950     
  -57.0808339457474     
   7.83959116226835     
   41.2334785199883     
   15.5954226312604     
  -70.6470785193138     
  -27.3510853251095     
   87.4732394179292     
  -107.733344883956     
   274.835816584606     
  -160.029289888592     
  -133.718725098499     
   8.63705425188457     
   104.034182234431     
  -16.3743748870862     
   16.1861185039917     
   3.22901089288886     
   16.0567197795227     
   64.3176605994541     
  -18.9293520805708     
   78.9085735383727     
  -272.756374481563     
   43.6303875163098     
   73.0945415248280     
   62.0691473987420     
  -186.013859054457     
   9.26037476911364     
  -30.3831017784040     
   2.86555744867015     
  -29.6299276984969     
  -32.7899804051956     
   26.8158268612297     
  -262.454663515390     
   121.270246087935     
   38.2151737074086     
  -244.505687890397     
  -192.234483866990     
   333.346757186582     
  -14.0228694031050     
   25.3802050569198     
   1.85065674068346     
   14.6581386890818     
   209.886905991870     
  -107.555907191567     
   291.948495198488     
  -136.185272369164     
  -259.892221531822     
   325.723751063496     
   15.9193828018924     
  -356.878139600287     
 -0.889709168898637     
  -1.55757137675732     
  -3.57876203873634     
  -7.70984679322945     
  -272.102671006437     
  -248.577387425643     
  -327.301972801010     
   19.5105165313276     
   287.366752920463     
  -261.099227646741     
  -38.6531150708094     
   480.129173364924     
  -79.6189900334040     
   24.0972608772700     
  -4.66980798975131     
   49.1105068688091     
   40.2354305923875     
   466.240464293606     
   326.488167167046     
   242.675285837361     
  -179.408259679882     
   338.793516098904     
  -183.872132603108     
  -281.136084032037     
   46.6410517057015     
  -14.8889940695622     
  -5.93983162292886     
   9.97748055795943     
  -118.217871984858     
  -200.445207337884     
  -65.5562049641313     
  -182.260046608861     
   362.786631626820     
  -427.056866112466     
   131.903416794255     
   162.089064974069     
  -32.0253700259999     
   10.1022384976852     
   3.11642338618477     
  -15.1426620780321     
   97.3088399559043     
   53.9241822394384     
  -93.7272311151447     
   10.5300553921996     
  -155.508224929356     
   152.587163512131     
  -8.96090684187647     
  -78.9679962389593     
   20.9489536713076     
  -6.71699567274389     
  -25.1646322829958     
   13.3707002777746     
  -23.7117081947575     
   207.991932241514     
  -229.805227728577     
   44.1449222923054     
  -188.990056306949     
   63.4157170195978     
  -134.422569341264     
   1.41336985068833     
   49.0270947795498     
  -8.94681711439607     
  -2.07317847689687     
   15.7195388999077     
   152.325549705462     
  -329.967923572187     
  -167.366409460031     
  -32.7969302987567     
   271.975654176353     
  -138.028990430866     
   60.6915005408475     
  -47.4347470873583     
  -3.04032545302160     
  -4.41304775651303     
  -30.3091487357244     
   71.1166339235202     
  -93.0260405203086     
   21.2387903523825     
   165.400755712178     
   24.6358937485458     
  -206.584708312489     
  -35.3993980311099     
   99.6876510125916     
  -18.4224751898678     
  -43.4995923871613     
   12.6553882213971     
  -12.3596810036525     
   24.6118146580624     
   5.74030122440003     
   102.134198656075     
   112.953735673267     
  -151.026432332793     
  -5.42938127370381     
   224.636147920434     
  -205.547153410477     
  -8.39714369178093     
   97.2442780314198     
   8.19047193584555     
  -4.32301473859131     
  -22.8521789762544     
   93.0625116242045     
  -397.687345297813     
  -111.218697082290     
   29.3150125418233     
   8.94563581715132     
  -64.9121805562111     
  -124.626473229989     
   2.62563078669986     
  -227.846983419171     
  -5.34838208286820     
  -23.8953438148423     
   65.3195287228773     
  -151.836516375950     
   323.466225957665     
  -2.21795004180161     
   21.4708277316556     
   166.380055692005     
  -429.748157486349     
   388.443844712856     
   51.3180915324101     
   234.380328764658     
   35.7121314060864     
  -18.9891706414519     
   70.0781285028596     
   59.1144439608333     
  -312.745339860832     
  -87.6009459592247     
   216.787137898786     
  -342.715359163410     
   636.223157664385     
  -264.298747866378     
  -85.1136686569706     
  -177.851875772073     
  -24.7818370439892     
  -5.64431416281790     
  -49.5530988959374     
   55.9429763307897     
   82.0917683919691     
  -101.428707812707     
  -148.654501304612     
   195.687357183711     
  -520.764161463731     
   30.1645368329291     
   62.2682144123967     
   160.143278247501     
 -2.335183224541752E-002
  -23.4997078324056     
   142.440764116769     
  -68.3387155763966     
   90.0517064109839     
  -52.4819250439469     
  -65.5235285731664     
   162.398851164897     
   280.108152417442     
  -145.240690154688     
  -169.722519596213     
  -56.2277929146205     
  -22.3603587188532     
   47.7305510793684     
  -217.319110338912     
   51.2330272056056     
  -199.943161974879     
   129.762236639779     
   210.226777704975     
  -248.937419020173     
  -136.036085063298     
   244.144386573671     
   156.272082634392     
   45.4930861609127     
   3.81108500956902     
  -79.8520175452487     
   262.786343429362     
   34.2103667664466     
  -88.6238977827034     
  -36.3476419623282     
  -382.959417238164     
   133.770681685661     
   201.243546823067     
  -252.517363273449     
  -188.193007444595     
  -18.9929043922357     
   3.81097966819006     
   12.5282452897909     
  -114.927863069959     
  -116.191548837426     
   36.8636827137454     
   94.6778467427233     
   401.797765253807     
   53.0620537526089     
  -185.911142313407     
  -84.7494809629823     
   419.657304318800     
   7.85494072334783     
  -15.4585857790484     
  -45.8598942395514     
   191.158739402461     
   47.7006532797784     
  -50.1038168115247     
  -214.918077057423     
  -152.646181071105     
  -164.022250816992     
   173.895010441118     
   416.690579515177     
  -639.539244159654     
   9.98153835101133     
   9.00525202019620     
   21.7638546623124     
  -129.703403776023     
  -205.508509799869     
   176.069461088636     
   248.602696391632     
   183.865602050207     
   156.919566999721     
  -31.9776842755112     
  -421.954849653347     
   653.752267535832     
  -71.0806893403648     
   22.4866833703274     
  -73.5411384467512     
   267.174136681932     
   54.7757445422511     
  -149.245115033964     
  -268.253407280294     
  -86.2638248049734     
  -200.258347860751     
  -8.70278974919321     
   238.956436321149     
  -325.066269561213     
  -2.81797970948426     
   6.98601330093266     
   59.0417139795453     
  -251.820668504949     
   69.5957610022009     
   198.061973422574     
   244.560017538661     
  -113.664908328033     
   164.327989423538     
   334.057480289697     
   2.06817299083811     
   1.49498166521884     
   50.9308012080864     
  -18.7158305381188     
   11.5009355137539     
   68.2622491858198     
 -0.974605695951643     
   63.8668431018529     
  -163.838611978439     
   235.141267799425     
  -47.1698938806272     
  -393.982607628060     
  -52.9590732241133     
   57.3287941969035     
  -27.4547831008516     
   10.4496081256757     
  -18.0083374657918     
   5.25522592088990     
  -36.1793391670045     
  -145.078528469683     
   35.8761489551999     
  -96.2992677301352     
  -95.6884520503396     
   201.095192002976     
   26.5825392462906     
  -28.3520823001714     
   10.9395009376149     
  -4.76415650864200     
  -42.5360465260825     
   245.214855204521     
  -314.344790744020     
  -140.080228032597     
   272.908038086099     
  -83.0756662088339     
   223.809557139486     
   69.6623790583076     
  -44.2977841935363     
   24.5625752860174     
  -150.733849737385     
   72.2684755409400     
   32.2514601784044     
  -147.555184781871     
  -35.9997646451343     
   433.377246143064     
  -88.5678803865467     
   126.405979339177     
  -210.320841876866     
   5.05485491237220     
   146.063288346828     
  -26.8965086134703     
   153.046387936461     
  -91.0346121923616     
   18.9378672568889     
   30.8796822609188     
  -90.0898635550171     
  -264.697099618947     
   62.8509032000044     
  -57.3930258909981     
   217.597164301672     
  -82.6448677918236     
   2.78174735408411     
  -182.658996089230     
   137.381581266855     
   24.1444655620048     
   18.0591344605569     
  -71.7075744742732     
   85.3665439959622     
   293.252573931002     
  -62.8337944509799     
   86.1090518644087     
  -10.8745603206437     
   8.53705570998905     
   108.363046750396     
   209.684395061583     
  -282.149522453186     
  -46.4180192740999     
  -44.9802774400989     
   199.392593546082     
  -332.356716284933     
  -176.584926892034     
   24.5554576434600     
   38.0686843820035     
  -14.1260880771871     
   37.0862527144619     
   54.1061195365844     
  -263.286086948686     
   461.198147409073     
  -11.0344307986413     
   62.9764613874734     
  -180.358619759494     
   306.774523277557     
   257.807560282593     
   79.6159806150629     
  -60.6358250430656     
   12.9861030355925     
   108.822201933820     
  -93.8728094226581     
   285.667585966503     
  -384.251057136999     
   58.5044407038432     
   41.2620439081279     
  -76.9178119226253     
  -48.6044178963367     
  -156.526427742977     
  -22.8178416622304     
  -1.46028898565955     
   57.8838740375303     
  -124.259421061691     
   2.89498181937343     
  -452.754439060387     
   172.332494255180     
  -50.0852135403542     
  -44.1888484278997     
   183.721876743902     
  -433.906472077305     
   290.092126319527     
   94.5199380660002     
   49.2986339825305     
  -33.1532591257442     
   112.874824538426     
   140.573091368460     
   425.522776034495     
   16.1545789748658     
  -3.34618875070475     
   53.6211762890534     
  -204.763301529598     
   380.822691019139     
  -203.571755307369     
   36.2119813428879     
   21.0711860020186     
  -87.1555072454496     
   41.1524724721699     
  -75.4585196797408     
  -335.061322642844     
  -86.0281446101662     
   30.4355340539288     
  -53.9778799449524     
   230.046345931061     
  -408.136007364027     
   207.273702197748     
  -32.9177522833789     
  -7.58617133310519     
   113.292488122074     
  -42.5035379997548     
   41.8018983423518     
   395.732262751586     
   45.7249614213011     
  -4.38036008555994     
   35.8234717744701     
  -103.836863274210     
   135.056790986811     
  -38.3681989526168     
   21.9535378701741     
   82.6693515882057     
  -37.5988390843745     
   19.0464448495370     
  -50.0159040590435     
  -381.177862999714     
  -69.7616803128850     
   16.1835088102805     
   52.1085212050550     
  -97.1497887980734     
   150.436090007240     
   66.0733212042613     
   68.1249437826595     
  -90.2734389365444     
   16.7574210073207     
  -26.4360327287397     
   195.638568407634     
   60.9041209706452     
   75.3128688564967     
  -11.5737486275701     
   16.0707540774003     
   25.8919259770843     
  -348.508568832379     
   57.2599508831724     
  -76.4575479777149     
  -30.6555445177906     
   51.0499677621766     
  -37.8756689438754     
   26.4755314194707     
  -147.734221258489     
   117.677672039042     
  -58.2044614495112     
   23.9634051889198     
  -28.0680508582750     
   171.130117356956     
   139.574966286444     
   7.97235414317194     
   120.980435605377     
  -5.88426345511917     
  -59.4342234223502     
  -130.228474690090     
  -17.1450853043443     
   31.0415747636167     
  -18.2381747126099     
   67.5698506765985     
  -207.581550146643     
  -22.6267453501926     
  -258.770182886310     
  -156.326002641662     
  -254.741099322786     
  -238.810146681684     
   154.748986108336     
   282.457557672239     
  -205.501372825698     
   43.3481193312700     
  -9.58310425210334     
  -71.2950456785500     
   201.050891324931     
   125.173103157411     
   493.220088404524     
   258.487352092187     
   428.826139256514     
   540.762754520967     
  -184.249775514334     
  -262.854503099588     
   157.104425064998     
   5.70637398031442     
  -7.71059905492044     
   40.1349853666222     
  -103.722561706385     
  -157.128587694766     
  -752.902475571547     
  -145.948221398118     
  -321.003053609513     
  -571.492538377817     
  -75.5806272559742     
   145.647791192942     
  -45.3602120257724     
  -17.1003370540896     
   10.3282093284523     
  -20.4596656837372     
   41.8523640673633     
   78.6737351363040     
   387.118004390695     
   39.4616071811579     
   38.6721246685664     
   277.298953291738     
   82.8688244506371     
  -48.3618320235195     
   10.3476098819517     
   4.88273129833826     
  -3.88875481599588     
   155.481627823580     
  -505.452000443978     
   352.335963041592     
   74.7227917998596     
  -133.836858991651     
   72.0182427711736     
  -142.448464891815     
   36.1332126392172     
  -179.820488939866     
   203.263170520767     
   133.468198984702     
  -59.2974094266754     
  -120.458834427746     
   396.290735602505     
   34.6140701714187     
  -190.180166250713     
   22.7084567132644     
  -79.5143680909543     
   77.1050680906861     
  -84.4732303155249     
   242.637265808050     
  -331.335202005305     
  -179.718188741447     
   83.9454882038967     
   34.2017499223434     
  -225.572758203102     
   84.5331932663953     
   54.3918009384455     
  -19.7163966998302     
   14.3904178314867     
  -63.8553484733758     
   11.2449977311001     
  -148.934215000564     
   215.015220942372     
   46.4175272740276     
  -38.7915903824387     
   8.34023261392284     
   119.970856856205     
   1.11841594022201     
  -32.7922180497519     
  -10.1373219648554     
  -38.3088006875260     
  -23.7156361104908     
  -19.3821826612845     
   121.319619854393     
  -168.396325236259     
   158.864211972526     
  -8.53216128977263     
   70.0556787589050     
  -331.013463668849     
   131.930472883102     
   24.1473442930215     
   9.42037256036440     
  -33.8432840088546     
   22.6087716317876     
  -41.1764310059748     
  -173.920115928695     
   139.477372251770     
  -348.572460236839     
   60.9001266092741     
  -38.0074283470165     
   198.307772361623     
   7.37577801366574     
  -113.677482091402     
  -38.6680369798122     
   35.5240599091565     
  -43.4439561700507     
  -4.14714604911654     
   99.5507066960685     
  -86.0775941508531     
   312.564394824959     
  -83.4831807338047     
  -19.4322215860628     
  -26.6813027042609     
  -94.3777147025204     
   70.5093913537883     
  -9.70412475623326     
  -32.2949447516900     
   5.69505261856143     
   33.0197254254632     
  -101.331340421176     
   455.068725426072     
  -240.385189244863     
   75.3005113374483     
   40.0969311354513     
  -147.630123703257     
   323.549039956619     
  -103.582195014836     
  -21.6693817602927     
   4.96182655105930     
  -6.56222610791293     
  -78.8664035337774     
   77.6935830129211     
  -484.632168223353     
   92.1527193235097     
  -26.3231614669146     
  -37.1221461696086     
   200.569764627426     
  -135.721054890680     
   47.4409567478279     
  -68.0041237818789     
  -10.8086250567254     
   17.4221193345493     
  -8.30166919530249     
  -92.6489374348641     
   358.258207713046     
  -54.5675133122650     
   19.4417201728432     
   66.0614238668622     
  -281.186935274894     
   189.371578082548     
  -42.3266440997080     
   50.8566075749822     
  -37.7175154910053     
  -23.3744928188221     
  -44.3459602871605     
   214.523718391206     
  -463.671218330143     
   34.1067504633560     
  -3.65193856784310     
   4.90411447807743     
   12.3713319888686     
   25.7424870668820     
  -41.8069455210768     
  -44.7612195050262     
  -10.7951528893659     
  -12.4862003010115     
   13.7724891421222     
  -157.871605373375     
   409.528528002887     
  -12.4784003214371     
  -1.70449896024743     
  -40.7004589642352     
   36.8548354384115     
   49.6519394382483     
  -55.6572888005226     
   33.8075019550619     
  -12.7243189244437     
   5.56287104146954     
  -31.4397649108671     
   25.9463808937181     
   112.416371876712     
  -132.928716908300     
   50.5170321658472     
   20.5902253366384     
  -83.6165001303640     
   121.236875763404     
  -51.5980421373272     
  -44.2584256455958     
   7.12838210478749     
  -15.3416839342419     
   75.2301160408713     
  -126.156843996950     
  -161.305238580985     
   22.0430886525057     
   5.52745036969014     
  -85.3444648649174     
   195.363601408210     
  -49.7360543560065     
   27.8733842294988     
   87.9320546262145     
  -42.8194836028052     
   53.4932407669125     
  -302.470417039665     
   295.715768716912     
   238.536775813168     
  -79.3778252304243     
   27.2215265859329     
   59.2022049988873     
  -167.308432876401     
   192.409227271610     
  -166.601129117828     
  -200.569440156319     
   13.7692379803019     
  -88.6296654901807     
   392.995678621168     
  -220.177958448197     
  -115.440191810653     
   17.5720307067766     
   2.92928411729543     
  -6.94871493082360     
   25.7340462568445     
  -208.487807997503     
   378.255600172743     
   351.281536682505     
   82.3113675784161     
   222.655137293383     
  -109.021522204907     
  -66.6356859593541     
   62.8563139773349     
  0.441987467413515     
  -4.63221378568302     
   8.05990694041277     
   11.1424240326532     
   121.720234788923     
  -359.187789761889     
  -255.233484073029     
  -139.336099946155     
  -310.110452803274     
  -11.8599252882067     
   124.417044378786     
  -19.3715766924932     
  -2.80691841264172     
   4.29342945906044     
  -7.87761668353255     
  -4.05685612251739     
  -45.4977063294798     
   149.843628142985     
   54.6364614782867     
   84.3115864320208     
   147.847913283490     
   24.9584874470186     
  -55.7034721968142     
   6.92754141703825     
 -0.311405812877654     
  -2.30366267131720     
  -43.8356126755909     
   296.237454393065     
  -373.044390661062     
   141.268468475005     
   22.5710821976742     
  -16.4250405069675     
   88.2103186776857     
  -45.7083626768417     
   312.756771804087     
  -335.695964548450     
  -39.5247352806117     
   19.4154739272635     
   62.6941456330000     
  -317.609233302458     
   170.633326928640     
  -37.0631787308064     
   15.5345111832059     
   4.86479872889856     
  -32.5321005571361     
   51.0175775301801     
  -278.324302406670     
   440.810159273823     
   62.4479773921355     
  -12.6532410141924     
   27.2900933989558     
   81.1452302436018     
  -112.631726305482     
  -9.68238372799029     
   5.44809816229686     
  -2.25537380210951     
   41.2527991046774     
  -1.64718920984926     
   64.0301248502096     
  -222.265852495081     
  -90.8429636266631     
   25.9537414654080     
  -65.2159805270334     
   85.8960695353124     
   7.39507211064096     
   17.9522491300662     
   1.01347690698614     
   4.68539073644335     
   13.0351305921351     
   21.0105376156048     
   25.3187412348594     
   106.383258524831     
  -20.5212190032113     
   26.1594605293599     
   56.0740276575826     
  -222.270445130340     
   75.6630690131442     
  -52.7895359759159     
   19.2494463507698     
   7.78238263021189     
   25.0964467723264     
  -31.2511383121432     
   33.6936897192694     
  -17.2262073930974     
  -29.5750804101342     
   20.0968703577440     
  -95.2170865498788     
   511.304398231761     
  -136.837078268346     
   68.2369877998673     
   19.8840492712530     
  -15.5362461541463     
   18.3794487202044     
  -5.02406535605103     
   85.1436069945937     
  -155.648436349494     
   84.9622303707842     
  -27.4760381372239     
   112.705468209542     
  -718.834985827353     
   197.894594072284     
  -32.4370118201962     
  -6.27706176691903     
   6.36080119575232     
   6.35003687779712     
   26.7471962644909     
  -132.065820484090     
   34.9936311405712     
  -143.239579895190     
   50.2845378657002     
  -136.940720821103     
   776.067726968699     
  -320.810461055415     
   39.3800251181396     
   10.1338605700939     
  -6.53790315181860     
  -14.7675714286844     
   24.5418880901979     
   37.8057506522754     
   80.1002820285188     
   37.6141427315612     
 -0.545122552794046     
   44.6186011738765     
  -448.522390831296     
   170.318696424106     
   2.41669952973460     
   23.9985792504092     
   8.67846687534917     
   28.9169245037709     
   7.53065240626033     
  -65.3827389938315     
  -4.53029349044232     
  -5.14594951823565     
  -17.1120947709526     
   48.8585310285654     
   56.6972012671077     
  -169.729539779911     
   19.8843937555773     
  -28.5955828272943     
   13.1999398771027     
   7.27176752567854     
   13.9958441010451     
   10.6474921257401     
   123.233921459521     
   30.7710310255761     
  -3.77802452100837     
  -162.826066325276     
   279.865052645005     
   78.0830446367877     
   2.56580957006307     
   34.5807971456222     
   57.6816893910684     
   4.47318258729644     
   78.0629201082072     
  -84.8703061864505     
  -70.5253215829694     
  -77.3993722962921     
   22.8617157037484     
   155.019046170466     
  -222.343644970902     
  -194.934285245176     
   47.2016360241162     
  -78.2962122280521     
  -65.3098640470644     
  -38.9418541604915     
  -57.8313998357734     
  -52.4725535832443     
  -90.6994048914866     
   82.5834947963507     
  -16.3774096798853     
  -64.4855233493339     
   68.1369131829182     
   146.553287928746     
   30.4214694381799     
   170.249915967503     
   143.212307771113     
   153.233986801006     
  -46.1945300031156     
   294.153548134003     
  -69.1229423964548     
   20.9651702369722     
  -14.3512883786782     
   102.395953820948     
  -195.018988017964     
  -175.359212903156     
  -184.670663855307     
  -222.080059071445     
  -269.580428504966     
  -281.181926777844     
  -30.8213123919517     
  -68.7400721392681     
  -257.515842535723     
   111.778174692351     
  -33.4033549851285     
  -23.4266048610769     
   56.6520112356179     
   264.785689981963     
   280.490800205781     
   347.313545484638     
   328.509237930496     
   389.673903759460     
   204.868150680504     
   142.068553834901     
   102.247840231331     
  -17.0135963656762     
  0.196611035317996     
 -5.282131076149665E-003
   16.7809960469281     
  -317.007500479414     
  -165.931043673912     
  -400.909814822178     
  -14.4082316258965     
  -451.628123155073     
  -281.660208085929     
  -221.058828015150     
   9.92732171987976     
  -8.46901703157707     
   4.49925722139234     
  -4.58922695577677     
   13.7842344334393     
   181.486856211754     
   51.5230273335684     
   198.147708155741     
  -257.867592212119     
   292.032821883045     
   118.657475451007     
   176.266042294878     
  -7.36711489846856     
   2.86890489826614     
 -3.824325172467624E-002
  -3.93825132127847     
   2.40653005031919     
  -69.1224360359423     
   2.98924826073904     
  -45.0287705597992     
   156.988449559393     
  -91.8782972526260     
  -20.4497733354974     
  -67.4644664242998     
   1.82287046819252     
 -0.758114343657404     
 -0.876645033391600     
  -80.9580977058752     
   27.8585087802624     
   232.622650111051     
  -158.031908376548     
  -27.4317715031263     
   48.3240100155845     
  -92.9539119018494     
   53.1504398970978     
  -171.115802735649     
  -84.6673978373990     
   82.9558733128339     
  -9.29044849108187     
   36.6093726858769     
  -39.7510018535410     
   81.4940602425691     
  -15.1894639717082     
   6.31648727666026     
  -47.2912540214696     
   67.9168391659234     
  -165.623219690297     
   255.506512596931     
   172.727822849776     
  -126.101215036602     
   19.5158207643184     
  -40.3129858260240     
   5.75213262294765     
  -102.136183648488     
   17.5475468028462     
   23.3545107597678     
   34.4079366445254     
  -56.7996645592002     
   26.5532963656273     
   5.64162107316966     
  -227.584694914630     
   147.213735047279     
  -28.3934181220285     
   1.56725521003062     
   66.5476337773865     
   199.455901028612     
  -82.7891858176171     
   14.5938590373903     
  -36.7215474655118     
   44.4561656919587     
  -112.249182466644     
   59.2873608476144     
  -81.8125566291733     
  -76.2638213224833     
   13.3341147766330     
   95.9726239224130     
  -282.622833822968     
  -48.7279363953582     
   9.67021079399371     
   25.2696463266800     
  -29.9823081366741     
  -1.22617608901521     
  0.705938268432227     
  -48.2707593808181     
   276.122963594698     
   119.490185680698     
  -38.5539608765540     
  -83.8348916567046     
   201.313073550941     
  -48.7078547317004     
  -55.6880352840643     
  -25.2924480296098     
   2.30534829192820     
  -7.87116296368318     
  -39.4718568844988     
   122.047016826598     
  -390.359022560642     
  -90.8772466653388     
   23.0127499259869     
   23.8625331874237     
  -55.4871867661780     
   114.223318617819     
  -6.50519758823458     
   46.4467106560347     
  -3.10157274229242     
   12.6844885201191     
  -71.4103445024171     
  -21.2304844007180     
   455.525313268383     
   87.2927571742948     
  -18.5898548426691     
   83.2570151497490     
  -204.490752724101     
   91.7112989859976     
  -32.4658395997327     
  -26.7831137000421     
   15.5628676499960     
  -9.41996818226746     
   5.84940325291669     
   136.323481149676     
  -439.819877174676     
  -57.3861862204049     
   19.5608636715300     
  -11.4529888467810     
  -29.8227860266566     
   32.8849190275942     
  -73.9902322736474     
   42.9622074413749     
   8.90452683822109     
  0.190271059749514     
  -69.5881373701054     
   104.464627917378     
   241.012748818323     
   28.2588055555305     
   2.27955835718321     
   5.31536393948957     
   100.569307477835     
  -22.7714370050030     
   91.6921534926108     
  -79.2245443438030     
  -62.6344007529851     
  -49.7157201694074     
  -78.2941393759269     
   190.258455702228     
  -470.202045518235     
   45.5575793884680     
  -17.2025093518256     
   84.9723393577213     
  -165.813983515058     
   202.182738116474     
  -119.705744108881     
   73.5295108640927     
   58.2553426645658     
   14.4524112807681     
  -15.5210088409442     
  -139.576519831304     
   220.512858450013     
   50.0331964882091     
  -15.0758237581930     
  -12.6569116562205     
  -97.3614698720308     
  -14.1310933532221     
 -0.134217707066405     
  -64.4435913078483     
  -44.8921413639309     
  -48.4335731506536     
  -55.1536069043417     
   461.087024993687     
  -208.287881765396     
   9.27786162867552     
  -6.82973577715940     
   25.6838231799338     
   25.2101205483845     
   86.9355659489869     
  -85.5574878571292     
   67.1824745258679     
  -55.5388564186602     
  -20.7319500654688     
   206.634717441365     
  -496.074432943234     
   173.785872223496     
  -12.4339385892156     
   6.45750542643021     
   10.9078241151149     
  -70.8013515199311     
   322.266869704192     
   155.712514065092     
  -347.930284345902     
   51.5223272477470     
  -139.824498997796     
  -12.6852509867720     
   187.841398361807     
   83.4859894426785     
  -40.5584409213510     
   9.40526933415126     
  -21.7573716983842     
   95.5961333575112     
  -495.411037060137     
   25.0214800660743     
   538.945957636114     
   84.4087350553904     
   527.085066093180     
  -103.478351683243     
  -253.500134184565     
  -31.5504834845060     
   9.53479793883777     
  0.186406849694843     
  -9.83511731080158     
  -6.27594293052201     
   276.071108254670     
  -247.747174162673     
  -363.521837908995     
  -367.995636296696     
  -453.557824997442     
  -16.8699140028399     
   203.533798467697     
   27.7558062707317     
  -10.1883781437529     
   1.23103935669840     
   9.26316897203537     
  -10.6274958824211     
  -70.9292339592754     
   172.781931010093     
   129.319545423344     
   313.711290075313     
   239.212104240372     
   87.6145015350116     
  -85.1083944700845     
  -24.8113591554368     
   7.36868492421699     
 -0.317688031438906     
  -5.49449828705885     
   3.74165914499650     
   19.7942956394630     
  -53.9372922745032     
  -17.1319202217682     
  -99.9443271430498     
  -81.6291082283901     
  -35.3363874778428     
   27.0102131142626     
   9.77848904759328     
  -3.27889639264469     
 -0.827275907477695     
   54.1503233069742     
  -36.2096081178165     
  -475.970875326999     
   387.227165267626     
   34.5977847166129     
  -56.8042689139385     
  -22.2166637164833     
   322.737479189365     
  -84.3367072664857     
  0.924109639275823     
   20.2378325397345     
  -8.89212237710831     
  -12.4454021650373     
   36.6573798606176     
   353.888490996100     
  -101.755314080774     
  -122.750710535440     
   114.332348831876     
  -78.3835473781177     
  -141.922357650022     
   50.7101455765588     
  -65.0903085241363     
   28.5508991641369     
  -5.72517220389490     
   22.3344537517490     
   4.46336016716470     
  -416.710083616757     
   165.269897961534     
  -63.8430624385889     
  -79.6269268353270     
   67.2261187682876     
   224.268692948286     
  -220.753597396696     
   25.0598972183914     
   5.09581035366661     
  -9.52655851603967     
   21.7917387352868     
  -81.2534899698611     
   238.063474766421     
  -14.0156717903125     
  -4.93844861092600     
   41.3562062883486     
  -85.4675774038865     
  -29.7298682584908     
   189.154671131913     
  -19.0484910633131     
   35.8874061184352     
  -6.33376983262018     
   24.1987852884264     
   54.9013979750646     
  -103.304329891572     
   42.8559088804943     
  -67.2433429422475     
   55.8257763717586     
   46.5126568530528     
   91.0132795863396     
   21.8096623885928     
  -139.273891762219     
  -1.91912523469173     
  -2.22512987468563     
   69.7133981304558     
  -238.954644988651     
   201.546717667582     
   35.1801679279116     
   37.2317130306363     
  -8.08672244227716     
  -109.486784636211     
   27.0690529780345     
  -214.784467173175     
   90.2299941700243     
   36.2675561395314     
  -8.26282706511798     
  -72.2160539260896     
   228.534270983907     
  -201.127389358502     
   8.29114918466201     
  -102.862727834075     
   62.0627343253496     
   6.14457367132807     
   254.299777455493     
   174.560947561165     
  -187.529715236524     
   35.2439358302291     
  -19.0807290046630     
   29.2027459363138     
  -69.7836443303757     
   5.95652519517910     
   61.5088779700237     
   47.5998191232041     
  -132.395819681498     
  -7.90619035774329     
  -206.592656717855     
  -217.742464097845     
   64.9240015031747     
  -2.03036550602718     
   2.85299955786516     
   20.8907326209655     
  -44.5832369510076     
   166.470023098832     
  -13.0419452447551     
  -118.664748120447     
   95.6510457383096     
  -21.8588950647174     
   416.929316151377     
  -289.726625793061     
   188.448417740093     
  -12.7711202756296     
  0.438062908958250     
  -8.14069667113954     
   24.6942111278509     
  -128.941162380262     
   67.5471475150001     
   111.180940167266     
   15.7263355500177     
   47.9936734196874     
  -207.734523047530     
   44.1520261413243     
  -27.9107047329984     
  -8.16456691098809     
   1.26455553712561     
  -9.52122668240064     
  -46.3771869456151     
  -119.232334366504     
  -55.7904903856444     
  -116.293552334149     
  -38.2213396903697     
  -6.30797890361439     
   434.535740961250     
  -119.376336617654     
   98.9336245880353     
   5.75400799249972     
  -5.63389890363491     
  -47.3743018538494     
   224.162145431964     
  -54.2091181007722     
   432.622557598765     
  -106.438960918101     
   93.3100659332685     
  -122.439723571110     
  -307.151009808690     
  -133.608168966358     
   2.77664253167032     
  -31.3000478759548     
   12.4209970195005     
   15.8267324670976     
  -91.0461374059526     
  -182.527243392480     
  -209.894338098346     
   67.5154661827694     
   93.3579642273705     
   229.525676354441     
   319.744027465779     
  -40.8408873498611     
   25.1659104474180     
  -1.14840909884365     
   3.35178063331329     
  -31.8708048079194     
   124.736568238509     
  -159.288106564999     
   169.750721396526     
   155.203735712379     
   4.08222960614772     
   127.093967575444     
  -473.956506974514     
   81.4773068663682     
  -49.2279331645780     
   2.62953430216719     
 -0.425511446138465     
   4.42504048838940     
  -42.2766700913449     
   148.898856443181     
  -248.667345422696     
   76.3947176417103     
  -206.978039478859     
  -368.940248087842     
   185.669889482001     
   102.224356257449     
  0.424213174529227     
   8.67545159214708     
  -2.82113044261608     
   1.32103347910076     
   7.20665053925675     
  -6.49573902845530     
   142.638213212403     
  -219.986912691400     
   84.8118270762701     
   264.103793746560     
  -24.7046589129242     
  -52.4812179226739     
  -9.33013561796588     
  -1.03354986415548     
 -0.659861846029496     
   3.99236727871635     
  -6.71781782856698     
  -16.8974517250576     
  -20.0207451204973     
   196.083921149753     
   13.6484913110736     
  -105.130662833931     
  -4.98150211626944     
   12.5378363190918     
   6.39511588339503     
   1.57299497777280     
  0.972255607100649     
  -3.25713350455993     
   5.27808992110249     
   1.71517802175087     
   2.62115831989362     
  -77.4486120283920     
  -16.3564789813399     
   41.0691516413387     
   1.54360459552081     
  -4.03280905924586     
  -2.67197605499846     
 -0.517083858940898     
 -0.221565514642108     
  0.321198809670641     
   9.56022844553038     
   176.704155136556     
  -179.418315012236     
  -199.531979994603     
   223.724357358947     
   231.952781647312     
  -536.015358809185     
   51.7698206550081     
   33.7428891626718     
  -10.8424011680340     
   5.45949113241899     
  -3.73716655467497     
  -21.5953408603137     
  -3.25793355192168     
  -37.2886358294326     
   412.621923654586     
  -367.823030794591     
  -53.6311844195492     
   613.178457744447     
  -232.578834137090     
   94.9610549522911     
  -34.0377059558594     
   7.04805535757258     
  -35.2828934090137     
   88.8292354157328     
  -172.591241475075     
   5.15039750667973     
  -162.608671409091     
   281.021701807607     
   23.3024850026659     
  -661.860828378815     
   373.825147056662     
  -81.7955849876748     
   22.4444820507723     
  -5.42678641235541     
  -17.2477529544814     
   51.3203186935597     
   76.8879596443652     
   68.8828079716393     
   115.030487794691     
  -106.713395883468     
   106.225328574692     
   262.303578818128     
  -350.669970469872     
   85.3579955775311     
  -25.1128669376984     
   5.01828401418181     
  -11.9247676438761     
  -25.6907663563603     
  -174.480704473880     
  -33.1706863144443     
   28.8241862345731     
  -39.1959935639936     
   2.83623624536981     
  -225.361191434050     
   113.799519438609     
   56.5949558012415     
  -3.52743280927872     
   2.78367858302771     
  -46.9186128955683     
   177.015909160470     
  -20.9029512654772     
   15.2688161219875     
 -0.399856761849360     
  -67.0349854352601     
   122.062292343957     
  -39.9233801037987     
  -13.4187262177483     
  -4.03941191093174     
  -16.0225283700866     
   2.61449434542725     
   57.7711673914728     
  -221.115570882362     
   245.993448076830     
  -125.327225068818     
   148.132131723126     
  -10.9618653973553     
  -7.10639889002451     
   85.0748295790784     
  -87.4450216454364     
   129.397150683208     
  -25.4113654424266     
   9.91380522607377     
  -41.3843300588890     
   161.902991149143     
  -324.566292122750     
   140.694265811202     
  -110.593821864760     
   160.814142750170     
   12.3606892635290     
  -311.893850571353     
   115.864313893206     
  -31.3777146209878     
  -9.60666578479928     
   3.23412645739706     
  -22.7866587188333     
   21.6788388425340     
   36.2266393490707     
  -169.310392873926     
   326.449544897286     
  -83.6988307935920     
   92.9573652416077     
   364.255017286279     
  -35.0761452756432     
  -16.4146924608098     
  -2.63426455441542     
 -0.400383279439655     
  -6.17390225625131     
   40.6629924349081     
  -86.6266785193269     
   229.369741761092     
  -360.776389365722     
  -27.4688851086115     
  -276.147709026762     
  -621.571059975809     
   310.323149608394     
  -77.5181407168258     
   18.4910529126576     
  -5.15944033093933     
  -11.5843739670521     
   51.1634802208891     
   13.2706257085916     
  -192.069188395035     
   398.205794868045     
  -24.0339985559819     
   499.816202762073     
   173.574250542476     
  -104.533037183034     
  -35.1297103718530     
 -0.517617522667435     
  0.887598859124137     
   10.4674130304864     
  -64.9133047730818     
   74.0050696307982     
  -182.860637262975     
  -46.4703294416196     
   38.1209467584558     
  -281.156766809625     
  -71.5374595357113     
   99.7027493087825     
   28.8028135123703     
  -2.99532899903361     
   1.65143585930759     
   5.70729169772594     
  -6.71764671385947     
   126.397295808197     
  -45.1003542320534     
   153.509309287595     
  -245.851648577457     
   30.2277938209178     
  -96.7087419742369     
   17.2055435302217     
  -9.56525267682965     
   3.01399283118426     
  -2.52509970481123     
  -13.3033148294666     
   29.5008365219002     
  -42.1846540277241     
   111.869216965930     
  -270.594216356318     
   55.8520777788338     
  -150.011171704604     
   173.784184788404     
   7.37581521395041     
   10.7512469675297     
  0.725354158834347     
  -1.99832570011138     
   7.46863984205887     
  -25.7668438511429     
   50.8533573732414     
  -93.6766333258976     
  -5.30980971824026     
   131.011541544763     
   119.594395775676     
  -1.67973055745264     
  -56.7817885287548     
  -2.08720917724724     
 -0.909466367635684     
 -4.686598020473554E-004
  -3.26616809723642     
   8.86984488497294     
  -45.8145979902473     
   96.5580309542280     
   74.8163625357171     
  -51.7748841063567     
  -33.7298718433041     
  -11.9033136825627     
   14.1034509534558     
   4.02562683492219     
  -1.63385320074673     
 -0.339817966190449     
   1.76748107742277     
  -1.08586789628678     
   21.9059558733509     
  -68.1307107173347     
  -50.7023558171541     
   14.8065928964532     
  0.541295473563671     
   5.90007466268231     
 -0.966543606628606     
  -1.39585398546232     
  0.815739808444668     
   1.02633778367601     
  -4.12499831601646     
   1.37865786296000     
  -9.09223719767646     
   26.0745434220713     
   18.1694245368913     
  -1.34510818791458     
  -2.57771700778925     
  -3.03057552467549     
 -0.367670696765444     
 -0.543420099236410     
 -0.338817501218983     
  -2.14285635659243     
   6.86624816316653     
   3.74295620713989     
  -41.3667759671638     
   24.8464673747146     
   38.1648844514170     
  -17.2082469766474     
  -330.026113982837     
   124.263706926364     
   52.3233803747026     
  -9.23114122155196     
   4.32542776489174     
   4.66740699317220     
  -2.63935347591488     
   2.67036112057498     
  -3.24780635725844     
   16.0072558936078     
  -321.950132646216     
   297.272859024918     
   132.031058167949     
   120.225804551934     
  -7.39055469281589     
  -20.5806603525917     
  -2.22955628420847     
  -2.07616457508984     
   9.83254950165726     
  -22.6835346986689     
   112.447397984266     
  -66.5079357838468     
   408.709740497669     
  -436.220735735812     
  -218.147951339344     
  -282.762613010709     
  -9.04333281868269     
  0.588680516190558     
   5.98706326492736     
 -1.236637947075608E-002
  0.107359147873880     
   2.18552028810170     
  -68.7944272869623     
   7.71882483633202     
  -446.557828915621     
   395.851861753943     
   137.129571188784     
   474.524830697865     
   46.9388190894790     
  -15.0429467766292     
   1.47217675731572     
  0.308235312530293     
   5.37509412733181     
   3.15533476838645     
   125.399619628706     
   12.5022705589036     
   275.675897444500     
  -296.711002818360     
  -270.955544424434     
  -244.313913138537     
   32.3096253629807     
  -34.6462594196008     
   4.31909794198227     
 -0.695647969440949     
   3.66314384308104     
  -25.2339039389579     
  -82.7252260441201     
  -132.152756104809     
  -468.612947180778     
   517.636262549390     
   204.842462553560     
   64.2502203537645     
   28.4478795413248     
  -7.79529629071783     
   4.09399930301174     
  0.512481334085803     
   8.12346919837800     
   16.7320586645316     
   30.4606551532465     
   70.5811571312373     
   680.062496727164     
  -571.820335401190     
  -269.434027303193     
   89.4851778880625     
  -28.5641553702986     
  -29.8925544671200     
   2.09847656608924     
 -0.279304187580079     
   2.81539508158937     
  -16.7027451954422     
   46.3013106951285     
   103.714652723147     
  -745.508779144495     
   382.726601179372     
   191.983923590329     
  -120.334594534205     
   91.0066110049221     
  -20.9294838228616     
   13.4369584976732     
  -3.63912289749262     
   6.42394735914342     
  -15.1889802504452     
   46.8240534143666     
  -168.406658666983     
   302.238443196642     
  -408.398656472712     
  -149.907107404361     
   98.7890763717069     
  -94.9700486310767     
   21.3077427470941     
  0.328702002100514     
  0.287297535379143     
   1.53780675886229     
  -9.45181175287352     
   26.3235003484619     
   59.0619648882500     
   18.2595384657616     
   327.721981111792     
   244.055863602504     
   43.9055080811780     
  -29.3541126910432     
   16.6661605150332     
  -1.11832938018806     
  0.461537883259726     
   2.40617194904452     
  -18.1713236136891     
   22.4522770320509     
  -35.8815739349224     
  -214.444257854104     
  -45.4948114078921     
  -419.068716238055     
   66.1056129044448     
  -10.7955926296069     
   26.1373867876293     
  3.999028202115373E-002
 -7.641896571285678E-002
   4.89889174274218     
   6.04943292157323     
  -6.67641565380785     
   115.890465203292     
   41.9992388272634     
  -103.630229067647     
   204.435951127898     
  -8.84242419442196     
  -8.86870747911085     
  -17.8219714304387     
   2.54497515857716     
 -0.765739276817520     
  0.526743867926093     
   1.83304721996760     
  -44.9460594904172     
  -3.19765324600249     
  -92.2936725066170     
   143.546339967006     
  -12.8933101464477     
   46.9821544860724     
  -8.17487832635122     
  -1.18068557859808     
  0.298850655493021     
  0.518773111816655     
   1.56156104978578     
  -5.01926158699395     
  -2.52443989926125     
   4.27921553107336     
   105.321846901747     
  -29.5663648387645     
   70.0467265873010     
  -46.0621943771339     
  -7.52348568088779     
  -2.24249767297874     
  -1.04939430794117     
   1.51643509429682     
   1.69854933801357     
   2.75302231212562     
  -4.05692199450226     
   12.8507837287191     
   23.6675935485137     
  -28.5147650492463     
  -35.5189476031307     
  -14.6080250670794     
   16.8372817191530     
   2.70941512995602     
 -0.526276589499059     
  0.968217914734268     
 -0.726137026805888     
   1.88829496203435     
   4.59586806624562     
  -14.6120165249006     
  -22.7712804349431     
  -1.04317685734513     
   6.44327052983689     
   6.05093181340499     
  0.488463421285373     
  -1.35367821053428     
  0.501316792554075     
  0.700893854871211     
   1.99827759958012     
  -2.94329539890791     
  0.259125274436601     
   9.97261860258743     
   10.8279055630460     
   4.28069678337286     
   1.43604265307617     
  -2.45664769270514     
  -2.16322103647838     
  8.098637294802202E-003
 -0.302663596976654     
  0.321614253941732     
   2.06865921835088     
   2.55085395434410     
 -0.993305383100858     
  -2.98988542060831     
  -2.75220830280183     
  -1.90827918285311     
   1.07242837213952     
   1.69571137550631     
   1.51270888875866     
  0.989595484726340     
   1.19186748425824     
   1.85744422839093     
  -16.3315838839861     
   5.35192725652481     
   7.57088089671981     
   2.97045200455496     
   32.2113569366541     
  -60.5226896473080     
   146.836003046254     
  -39.1509401035123     
  -20.6797087310043     
   5.69945348150830     
   1.52584784597237     
  -8.73286813967369     
   12.8675435325773     
  -1.51692821799718     
  -3.55747206465880     
   39.6519437027769     
 -0.303078425810878     
  -25.2309032730286     
  -41.5745526079838     
  -17.7736778092048     
   1.12349493930314     
   5.72267592100606     
  -1.49736409867395     
   7.49971978345615     
  -8.74102384433934     
  -4.56106417232290     
  -17.9047823839426     
  -39.3484218054335     
  -9.46408351316920     
   40.9694898073570     
   113.757608593874     
   47.6973331417548     
   2.55967406348830     
   1.06907586731817     
  -2.04812767321821     
  -6.08594908197146     
   3.44269094889770     
   3.15493412373817     
   12.1084847865636     
   22.4765638818179     
   98.7835431650673     
  -51.3683337859448     
  -77.0899943228624     
  -98.2096482694041     
  -21.6042526687672     
   3.70975382937854     
   1.54052920854995     
   1.56818845637683     
  -6.57103066044997     
 -0.998015862558314     
  -44.4016937226034     
   23.8809747838560     
  -78.0886274801317     
  -9.99466323850883     
   109.668909129071     
   37.9029633333085     
  -13.1241172705851     
   10.0647937055620     
  9.109062262132361E-002
  -2.95958879827127     
  -2.05836739908005     
   12.2777424308782     
   26.9419515078212     
   81.8741973297834     
   72.2678360435715     
  -5.12807490693164     
  -78.3755323264107     
   5.39010731899447     
  -4.25379033013782     
   3.41022372863849     
  -1.51384964087166     
 -3.815662824596511E-002
  -5.37835667268560     
  -5.02696897408162     
  -2.28043300586866     
  -82.6524634561889     
  -131.133632168911     
   22.5675375208295     
   70.6539105193631     
  -20.5147352784129     
  -3.29364206017617     
   13.7590554052498     
  -1.73508735898544     
 -0.718401544781169     
  -2.13332124480543     
   7.40504985437211     
  -27.2225810300159     
  -6.70953874036151     
   173.746013792209     
   11.6045586354272     
  -11.7159827051805     
   30.6784927228866     
  -20.6836927809940     
  0.902183324947980     
  -2.22548168940726     
 -7.372609677763087E-002
  -2.78665000343850     
   5.98443145153647     
  -10.8622946801121     
   54.3090031181908     
  -21.0828696405310     
   33.2181378714837     
  -13.0425861915938     
  -22.5058062608505     
   27.6395784952686     
  -5.04372645398741     
 -0.933517619087264     
 -0.242761932437432     
  -1.59595674080167     
   5.00275250096820     
  -16.3109751943349     
  2.884677282524905E-002
  -80.5719952890228     
  -41.2554913398043     
  -10.7080581505951     
  -34.6972457876676     
   20.6608994074499     
  -11.7121999940131     
   1.26929421312657     
 -0.277500355912774     
  -1.41404534798737     
   7.19165964356526     
  -11.2094715796008     
   15.3733209650425     
   93.2136604854304     
  -25.5008963921085     
   84.1852918378740     
   3.90507979813949     
  -4.75330449429950     
  -8.25485349127320     
 -0.587236729051959     
  6.707038337492222E-002
  -3.94409742051679     
 -0.339006823984433     
 -1.007841358035236E-002
  -35.9427577118525     
   2.18564219493544     
   52.6287589249689     
  -4.64852115319068     
  -13.1524341472453     
   5.28814269578952     
   5.23379074028101     
 -0.484511579470595     
 -0.315004327331526     
  -1.25358231681736     
   1.06854313985182     
   13.8460942021064     
  -1.22308855487000     
   25.2548238438243     
  -39.6721123865993     
  -38.1465542722228     
  -11.3565696482181     
   2.38130208424371     
   1.25262613323100     
  0.398388756237099     
 -0.388518922282600     
  -2.58394152120463     
   1.60844616859097     
   4.26084520799884     
  -3.12963940149373     
  -27.6100634024630     
   2.75471489515234     
  -6.70062006711504     
   12.8870345803060     
   2.29917676496197     
 -0.379590107930603     
  0.285900218486573     
  -1.57734239966358     
   1.52433616826122     
 -0.416999275489395     
 -0.931173946062060     
  -4.80275212195023     
  -15.1111423077706     
   14.9550009837786     
   3.34847204702059     
   7.58507815340036     
  -5.00174360278111     
  -1.09458011384254     
   1.31897820898716     
  0.478717425258054     
  -6.05659704932896     
  0.446903446769868     
  -2.56501967498322     
   4.69723698805801     
   7.71873168020504     
 -2.356712473746025E-002
   1.13044158240074     
  -3.38045883155274     
  -2.76534295849491     
 -0.932402719147366     
 -0.769372923810238     
  -3.23944338326862     
   8.27088513102174     
  0.800457461356144     
   1.15364692977149     
  -1.08555733486519     
  -1.85253593222727     
 -0.902340057104760     
  -1.76764652804742     
   2.05248509160118     
   3.29476479666535     
   1.94807070541317     
   1.93355710798949     
   4.48953225292792     
  -11.1989378103229     
   3.30992857371596     
  -2.84197378411571     
 -5.335909632303348E-002
  -1.40079406293482     
 -0.271093920111361     
  -1.00702309670518     
  -1.97710956761150     
  -1.77283722508056     
  -2.48143856180678     
  0.195621488819825     
  -6.75091968809784     
