        3600   1.0000000000000000     
   1426.4989768846099     
   924.87457437270223     
  -500.09686012236574     
   721.13926981995428     
   130.22760377261770     
  -1746.3687828638260     
  -1600.7067495475774     
   1030.6399113346006     
  -1705.6265474768893     
   1588.9184895702103     
   1495.9017836282194     
   1555.2052382374363     
  -1198.9884760610814     
   2477.5824737523731     
  -3463.3246760421021     
  -1054.9237562803726     
  -1436.1246072716856     
   855.10700067844971     
  -2538.4287305082116     
   4470.3266040803028     
   476.56868823932751     
   1278.1969553796000     
   428.30413578467505     
   1233.4433084318537     
  -2242.9367292408269     
  -83.845755396647462     
  -671.64838472898168     
  -1635.5727847905284     
   105.85067336742014     
   1430.6977265927717     
  -25.882219094334069     
   52.244525258790787     
   2225.1549052143905     
  -1049.7077334195101     
  -1053.9816954146820     
   26.354687704094285     
   453.30450324658011     
  -1764.0387038735371     
   1020.0134390208411     
   727.30899696775271     
   271.42420049978182     
  -667.07079656419182     
   577.91600084878576     
  -47.952904165444259     
  -298.27943102860019     
   209.07828528420021     
  -158.60784424169904     
   323.60455046472987     
  -513.98649704111222     
   74.937611142967143     
  -21.006103089942169     
   512.09905133491770     
  -257.79122039650889     
   449.40881997971627     
   308.43619244105849     
   58.628561415022240     
  -80.389883984055430     
  -110.80485202561992     
  -74.516473203600356     
  -268.55087278321139     
  -2052.0193170232828     
   244.08039767594531     
  -487.49849552526587     
   523.13969092937214     
   55.788607572611348     
   1656.1367759476689     
   80.920620392913293     
   426.23318567880119     
  -669.94683435488230     
  -295.83339094977680     
  -383.10619681687388     
  -394.98267438314792     
  -31.054728871999949     
   522.56021909549850     
  -1394.0879050339108     
   255.27335504112017     
   425.39708326873040     
  -184.06579067487883     
  -102.08451140656921     
   2079.1998388789270     
  -188.76025234104677     
  -142.91910588050908     
   28.430410615270571     
  -69.316465473156356     
  -1694.7869211034526     
   120.41717313978280     
   60.380689700688158     
   60.986742197606290     
   118.96200019905545     
   884.89162704901207     
   10.720317472409993     
  -48.483793217378583     
  -70.211211952184414     
  -33.383234986792495     
  -565.77306871597068     
  -250.04383543310789     
   116.87045229136496     
  -10.671959412014790     
  -119.95437188316536     
   343.27281638520589     
   68.244359071906587     
  -128.61639752621974     
   92.833476688117941     
   95.367046374304550     
  -248.37513073721470     
   61.690692870524011     
   19.575726905645670     
  -122.63938760009452     
   109.36196219966834     
  -60.389430892822489     
  -23.504925096891441     
   173.99618482588144     
   185.93078196233731     
  -147.64366365256100     
   229.07946853515671     
   76.079082353961795     
  -143.38456906030825     
  -118.04768754778050     
   153.87374252881608     
  -206.00960559786327     
   620.33113564709265     
  0.31899057402700448     
   141.82375918432319     
  -183.04268953997368     
   204.58755194854501     
  -107.85894280595147     
   60.153453864247069     
  -139.32928786365866     
   259.69063784482415     
  -145.93064455209154     
  -22.904872218994395     
  -24.453511045020250     
   82.989431376776736     
  -198.94837463002699     
  -85.080940338618717     
  -495.72629562885629     
  -7.1605611177276556     
   27.043735835206213     
   183.29086222622558     
   95.224365349127140     
   778.88131026794281     
   66.949221228719495     
  -26.819796350282296     
  -445.76861751133987     
   97.675877019499197     
  -1493.8279740024127     
  -51.993113407500445     
   12.838028142904500     
   647.49686960353461     
  -45.954859085149018     
   1970.5159610181890     
   93.605788580774700     
   33.403913381077665     
  -678.45884643371119     
  -590.87965860881241     
  -2008.5221921627751     
  -154.52401942042937     
   16.817281345025702     
   569.71595548168045     
   1669.1340807090489     
   1966.2449715408070     
   244.36094335507678     
  -14.763040669336219     
  -336.94945407935938     
  -2328.0410400864189     
  -1552.9230193982580     
  -151.35850147109207     
  -72.745205739716781     
   168.11924470834566     
   2201.3339693717608     
   1082.8625097500897     
  -8.3360689750661905     
   28.701417710594470     
  -141.73560529396298     
  -1853.4595569946887     
  -425.46836479007715     
   45.630710380031644     
  -39.015594190006297     
   68.051366814666082     
   911.41545765478634     
  -330.50951373758971     
  -239.12857919605185     
  -189.88712633709071     
  -272.61932937563586     
  -5.3779049223321111     
   232.00612049074508     
   151.69980870134216     
  -30.210078855492899     
  -52.336840367077563     
   221.63845231278771     
   552.01814496724944     
  -106.46384916349911     
   382.74170746346243     
   30.343790059320973     
  -195.76270757233530     
  -576.21775013515594     
   243.88749514768182     
  -735.34125315569929     
  -84.616546465778413     
   134.57113936626433     
   1008.0804347032470     
  -993.61894902629672     
   1041.2663671289265     
   401.29746529167875     
  -50.445238055601259     
  -1463.5245382690098     
   1591.6819188541153     
  -1032.8424338486077     
  -667.67794844219407     
   96.194783179704459     
   988.67475775086280     
  -1481.0934389336103     
   744.35001623087771     
   824.37803672951179     
   398.15452638294647     
  -440.23758517567524     
   825.98780981268203     
  -234.82876179334937     
  -943.06271785432421     
  -1401.7661511426268     
   30.889612143821740     
  -423.10235715540728     
  -283.11336273437541     
   793.08757750752216     
   2597.6121844524218     
   197.57646759738051     
   247.16075116828722     
   486.50647750952947     
  -616.54305660599687     
  -2700.9228616887872     
  -86.558087017294270     
  -402.94078032114413     
  -516.90170668052031     
   415.19244666070080     
   2214.0800885408889     
   80.928276053300024     
   314.33321863970764     
   247.45331076660182     
  -122.17859886802722     
  -922.98897738906464     
  -3190.2726251985860     
   1125.0906951040595     
  -177.26446686902682     
   2384.0198678645297     
  -1190.1951062758396     
   3290.1749292767477     
   25.835661353217759     
   379.81615840111908     
  -2946.1290745682059     
   1170.8722444993421     
  -2827.6179721286394     
  -460.59720518637437     
  -394.38298706751800     
   1727.7580889157764     
   74.318485582236548     
   1285.9544132440842     
   196.25678198055192     
   513.16186662231587     
   123.34182893071818     
  -478.21635284941891     
  -107.39285327079546     
   1117.4452126973868     
  -1007.7520653361372     
  -2011.1587662327222     
   1082.1220190590577     
  -718.23431773364905     
  -807.25088269144169     
   86.789932481438711     
   2550.1674312447280     
  -423.30577378419719     
   98.245983861949995     
   1090.6735681354369     
   558.82852905626896     
  -3099.5401062267269     
  -1214.3655670865926     
  -48.578882674155651     
  -506.19988766384608     
  -1230.1554892810718     
   2988.7878181782280     
   2279.0061815193658     
  -911.51736421421560     
  -42.469969595309912     
   1504.3407304305038     
  -2412.3091186135375     
  -3688.8712760570875     
   793.82585448669909     
   323.43538248127970     
  -956.01082523065497     
   1597.2484546671010     
   5590.8751519468951     
  -543.91167086908979     
  -495.03367626339582     
   532.83482050764280     
  -662.63671153250209     
  -5088.8198849432338     
  -240.42951514364984     
   108.08316960402334     
  -125.15114157465534     
  -212.24608661191144     
   1868.6404982658337     
  -2921.9021200219649     
  -1330.3854505576016     
   1324.2193595385409     
  -1557.2496811568260     
  -74.121174197906370     
   3334.2886042496593     
   1848.9807707205680     
  -3041.0834967820765     
   2410.9501834930365     
  -4725.8713480605384     
  -3282.0359848006256     
  -1605.1879950526106     
   3893.8388149519451     
  -2818.2729796162039     
   9432.8341995375449     
   2109.2171809231136     
   2077.8399674917891     
  -3711.0505797153778     
   2050.9144189230406     
  -12049.811314909353     
  -921.50754663053522     
  -2876.2752900217456     
   1746.1079262600870     
   134.42222966550685     
   6109.6193581712068     
   181.74512765980094     
   2350.1161197465053     
  -47.605742688029231     
  -2115.7183311046751     
  -2629.8661804267658     
  -41.666865377059700     
  -1575.9509181798880     
  -1253.6702250242167     
   3494.6576253679837     
   401.73383484541108     
   23.796169294367811     
   863.71085487401660     
   1191.4530859574238     
  -3808.5112481810506     
   1194.2730734154336     
  -1419.0338576570136     
  -195.94750177644744     
  -15.567973445898188     
   1877.6465552125226     
  -2250.5177312215351     
   1178.9653975399688     
   600.50473893580124     
  -1282.0974432143664     
  -255.36775805295841     
   1661.6210606446027     
  -1615.9235621378016     
  -362.21654052823158     
   1240.0430961144314     
  -557.78196206270843     
  -1277.0484615263417     
   103.21783589098264     
  -357.68124442706250     
  -270.80908211722311     
   230.86560815672422     
   542.90681250334751     
   2564.0133158930039     
  -224.35916955159718     
   477.93480231965219     
  -479.66393104839653     
  -553.85694984354973     
  -1703.7103640670355     
   77.611634157412752     
  -301.16227648254886     
   479.11018200399820     
   1925.6614020668187     
   356.52505260036236     
   9.8869983578319118     
  -134.36007687968475     
  -222.52255651354122     
   82.765371078881671     
  -594.78053562429420     
  -220.69103315396038     
   390.56771002240390     
  -120.54822004423926     
  -602.97077128818535     
   647.64879166904359     
   21.355833984697952     
  -139.02595787828307     
   231.77565491068523     
   404.18762833246541     
  -931.98434867765934     
  -64.129093910558467     
   24.151324508362549     
  -184.41987144387286     
  -16.719054261240284     
   667.26576949618777     
   80.696940168930325     
  -1.8339296569542616     
   57.330556385491732     
   110.74164423616401     
   112.54230863375652     
  -92.418317394808938     
   117.70402924285733     
   303.29927237234682     
  -403.12964332381972     
  -65.675895336791896     
  -1.6757220358431240     
  -192.20316791618717     
  -415.91242798434320     
   654.34910476872381     
   36.319327454057884     
   141.24155602690146     
   267.82665865694918     
   253.19881866568900     
  -122.81450421769860     
  -489.53094516051374     
  -139.26712581651924     
  -266.40315895762325     
  -35.906754503162063     
  -230.10395551316830     
   29.628956829557399     
   60.161219328576159     
   125.23157953023653     
  -255.61230982471420     
   265.32152997553311     
  -749.04306011159531     
   83.071397374057938     
  -81.813747897410167     
   199.69510152544822     
   90.468786199052957     
  -291.01946583700476     
  -192.37500051105599     
   67.454428795044436     
  -90.468279817971677     
  -554.24556471285678     
   869.95907401635714     
   117.47199904465128     
  -44.512590745627797     
  -54.957073820313973     
   1083.9308157146820     
  -736.68542329278876     
  -38.767156118363260     
  -43.571666664826111     
   6.8282377087360002     
  -1025.7909461602073     
   859.75868251721715     
   6.3500280487275562     
   13.696112008593213     
   286.34152945377969     
   487.65813182806750     
  -55.262202185370022     
  -52.673983343762188     
  0.47519621314321786     
  -432.15435312978661     
  -193.80151795332543     
  -76.975818842190193     
  -44.151402460152880     
  -60.987524814027658     
   483.66789589212294     
   726.36259875707879     
  -18.615877570628196     
   164.74201762576152     
   33.366035739045408     
  -644.88893158251756     
  -1842.7700699754835     
  -614.55954035085358     
  -237.72164124837690     
  -70.878268427401608     
   679.28567474347665     
   2053.4187357469109     
   903.77182283952038     
   169.80567228471472     
   308.16161780246148     
  -485.05047049789010     
  -1515.7453001381059     
  -1091.7222738353521     
  -35.627824937881378     
  -207.97786649264910     
   276.67352865249910     
   1462.9474174383201     
   551.64063541022563     
  -131.08237194546879     
   158.08808486492904     
  -97.289810864562554     
  -898.14885523846237     
  -390.86592365599319     
   348.43688757972700     
   393.83768181176760     
   176.84122198042030     
  -297.38843932899726     
   1422.3989582644037     
  -528.92179373186934     
  -7.6478828968211854     
   612.14564913690754     
   183.32846412559309     
  -2336.6154009191114     
   685.12732238915885     
  -620.70215420484669     
  -489.96951535261150     
  -310.78695525794654     
   1209.6967159315609     
  -750.06792622054536     
   991.31584124797860     
   439.98116764550031     
   297.64759940748638     
  -574.43493627875455     
   1326.7659735976672     
  -1361.2282033276863     
  -732.41360730188615     
  -302.34597844938878     
   961.42887140448181     
  -1719.2289367763365     
   1488.0596160694777     
   667.46891326415516     
  -5.7930005087001213     
  -399.57333164495600     
   1437.3207015945563     
  -1343.1861496159383     
  -552.92884966705242     
  -408.81879183778972     
   76.706200002570782     
  -949.15743512282438     
   1167.4397784916723     
   620.75805195129055     
   832.83692654241054     
   464.09202234692629     
   953.57128174304182     
  -1070.6966697935677     
  -503.28296363636287     
  -1401.8516822167144     
  -622.04049511598305     
  -933.32767346430387     
   761.75745688318796     
   346.51150966724168     
   899.87609665543664     
   334.63618215176427     
   1093.4045065168318     
  -107.50849653926110     
  -121.45383272371767     
  -573.66292670449673     
  -315.01652339729486     
  -579.02980060401137     
  -180.06460733508732     
  -64.446031960262360     
   152.34660632430030     
   4351.6851810453809     
   1065.5544080408256     
  -1862.7872133513995     
  -2083.9459164953623     
   422.27630768674283     
  -2952.0226445030880     
  -4046.2100732260960     
   2225.0874636803919     
   1564.7183245838194     
  -777.30418155188784     
   3010.5918414028920     
   3226.6422542826117     
  -1918.1926395230280     
   470.46306171495036     
   68.722431383887368     
  -566.24202897844407     
  -2446.1743186202466     
   1341.7087840706647     
  -3182.7516994285279     
  -918.67450144952761     
  -279.42054051275539     
  -956.23260999897650     
   278.64083738109429     
   6382.0451910461752     
  -758.62209635038698     
   1715.4495826559512     
   1314.4275453326884     
   813.19630409938964     
  -6331.6929044386616     
   1899.9041656622330     
  -1802.4236030913667     
  -2255.2316708258968     
  -928.82693200328833     
   6164.6709049125220     
  -2613.1510525668136     
   3115.7622135505485     
   427.81518084172433     
   2039.2476412502190     
  -4168.5936838619828     
   4340.8776273648846     
  -583.79783289616228     
   871.88800233763118     
  -2487.9012237390275     
   2763.8971014074095     
  -5679.3976693498553     
   455.32666108343722     
  -1733.0790958356063     
   1686.7887370961403     
  -1399.0435305079236     
   3407.6189533539432     
   244.93308835978615     
   2040.1283298502583     
  -1285.5002202331223     
   296.85979476348996     
  -1112.4548489917615     
   1554.8796236475805     
  -739.89482308130277     
   694.68249292688154     
   839.78219845855688     
   228.54441378411715     
   3906.8968134641159     
   1453.7626597909166     
  -2044.6025769108148     
   1416.5379639504370     
   1133.5538431526677     
  -3684.2689985960542     
  -2349.5633446804268     
   4203.2413331723046     
  -1559.6286115354208     
   2593.0155396660880     
   3946.1165732720551     
   1962.2812591543841     
  -4468.8417873173812     
   2073.9937007389321     
  -6718.5381762290135     
  -1997.7186143389597     
  -2433.5320257310091     
   3412.0173370592561     
  -921.35399594379737     
   10107.550921700851     
   1078.8912390243568     
   2785.4692833015897     
  -1083.4500560165168     
  -1037.2621556576514     
  -3692.1130850785539     
  -216.27878990696365     
  -1461.5970173822013     
  -103.00203847742442     
   2610.9243325035054     
  -26.539843938133622     
  -303.98270623616190     
   405.95964505248025     
   1462.0763799422737     
  -3349.8074766837708     
   2156.8856684569105     
   869.07258010909823     
   101.39197922774134     
  -1425.6316384368249     
   3461.4437686874030     
  -3595.3523023283515     
   695.84568257728938     
  -160.64563420627206     
   338.97008692861749     
  -1291.3313957628757     
   4468.6045727118462     
  -54.860119332298211     
  -215.38626043831650     
   583.35156370827883     
  -25.125084542577117     
  -2881.2836600806613     
   27.775215303351917     
  -209.21294952495364     
  -614.98141580919582     
   558.19893641889416     
   1717.6554384540964     
   2482.1830983055097     
   878.82744960995649     
   240.54194407890395     
  -219.35840067860374     
  -490.93718253902256     
  -1914.2660558325420     
  -18.068137540399100     
  -206.11427647517712     
   364.08321631992249     
   95.158215326228984     
   903.68612540236450     
  -31.192581353660721     
   41.262744554179633     
  -397.48576626681773     
  -1364.0311363180567     
  -129.31277054889566     
   196.71218329477330     
   222.12310803558177     
   176.38586037962634     
  -318.61363289169657     
   443.00076517742309     
   133.80508051939228     
  -444.97282673900855     
   180.83433847344878     
   427.46019328175157     
  -310.92334405732839     
   37.154423161999780     
   165.78379605476331     
  -320.28964004908761     
  -287.01729005391786     
   636.46497640714858     
   1.5444446811054535     
  -31.607533898103437     
   279.81947293718861     
   506.83171534607931     
  -334.39069280859661     
  -119.35684685313788     
  -40.981336038091825     
  -199.81286394712924     
  -621.57972561231998     
  -212.17046866836753     
   83.574294294515354     
   5.1913833140099035     
  -14.439519873575527     
   791.59344937609694     
  -14.044286515188904     
  -33.765237208752026     
  -81.964014135433473     
   23.531135174130416     
  -833.23763180725928     
  -241.35758699103033     
  -179.63211602520957     
   109.35061145864262     
   179.51881010416892     
   343.96095653524191     
   1469.0792053797056     
   187.11446283378692     
  -69.674028514560931     
  -188.90393765283576     
  -175.15067183719012     
  -387.70559364702405     
  -54.622361594346977     
   23.514493702582897     
   311.06167533281899     
   94.887741773787596     
   1074.4017353809675     
  -10.173754495354066     
   17.526911194025505     
  -198.51864585519417     
  -61.098832496729244     
   178.10831969012958     
  -1.2279520474962937     
   12.033911765060482     
  -57.372830767467796     
   610.52645754070068     
  -859.20688042104689     
   29.040781973380739     
  -13.602363049677900     
   232.95482227545781     
  -1078.0635931003283     
   830.35155201832299     
  -44.751703922130297     
   79.982057937225974     
  -154.37697522866091     
   1089.1484848060902     
  -750.30853280961458     
   1.2425930331164237     
  -50.603937764301207     
  -30.874906796146231     
  -884.92004475419481     
  -167.14859113874166     
   100.24775589193945     
   20.775104478883371     
   197.91257501794681     
   709.35806650545032     
   297.38490512917491     
  -3.9729280653948411     
   59.559651454231755     
  -246.67556881897289     
  -1173.6882094164641     
  -304.81485365920690     
  -54.133872997817789     
  -100.58313817211382     
   457.41275640158256     
   2398.6859580653090     
   814.91845536646690     
   42.392700543844015     
   138.33122685642556     
  -639.35952953876449     
  -2507.3145596231752     
  -636.48396482020235     
   98.598608517022896     
  -226.19913348581454     
   350.50651843306019     
   1365.2114521100400     
   461.99942767340406     
  -108.18744251816078     
  -119.22040288141797     
  -162.00294255688195     
  -811.15837445996601     
  -150.71238190696232     
   175.69808906831270     
   45.246039501531669     
   113.85972985708868     
   208.71774033154887     
   658.49980632625261     
  -363.25274051030328     
  -355.22503169285523     
  -170.98208674246123     
   293.06824152012814     
  -2266.8598514144910     
   731.63856639625192     
  -27.783117133805611     
  -668.77954526351948     
  -408.00502438446404     
   2131.9684848547995     
  -862.97982921674691     
   557.68823567965649     
   684.83715563695125     
   589.65057992705090     
  -207.49914765374373     
   823.47865314775822     
  -684.95355646401242     
  -793.54600691075814     
  -195.82767212096019     
  -1492.4857828059844     
  -1147.5017655396557     
   961.71496142116371     
   967.37030526079593     
  -112.68958486352290     
   841.06764600186818     
   1287.9868337771768     
  -995.86483938993410     
  -532.87174284460230     
   763.92275577251110     
  -971.93234311806521     
  -984.44350289689976     
   439.20565061040435     
   167.27097781968928     
  -581.20161809148055     
   719.82504262566943     
   782.74629800557273     
  -166.97998597207862     
  -180.21293163108854     
   1044.1370491405289     
  -1279.4107859679552     
  -944.11871634768499     
   427.02303845479531     
   144.01904529565235     
  -765.66507719463937     
   994.44976590664760     
   919.78032486899974     
  -455.71978817248373     
   106.52647300804141     
   823.59188020620263     
  -447.83440250886008     
  -1058.9533971657156     
  -99.555820041308380     
  -235.85399307608975     
  -394.96240624783104     
   438.31053466549645     
   443.16499885570511     
   451.57921153921450     
   126.57925550518345     
   188.30019401879721     
  -2049.2795096257410     
  -4279.6411024078216     
   2963.7265325046114     
   666.52276042536153     
   2118.8629488396241     
  -754.92551345297511     
   7995.3497442352091     
  -2431.4078414374521     
  -71.213157436300236     
  -1639.0925005291522     
   257.62754834540868     
  -6247.6023875576420     
   670.07778291260377     
  -1529.3504036522870     
   1585.2253591074584     
  -2208.6879287993356     
   5149.8827134482117     
   1660.5839554213499     
   3112.0049185676653     
   1119.4346415575442     
   1264.6251946773004     
  -178.35366368534372     
  -4915.6562389512528     
  -5398.6887585182412     
  -1068.0679560316137     
  -1569.0166263983722     
  -1164.1806276714626     
   3993.0395172314243     
   4413.6904945827246     
   1168.0985974033895     
   932.82214240822589     
   2901.7975630979245     
  -3738.0271877142400     
  -4300.6343395552403     
  -154.94410688641958     
  -1162.6383001448471     
  -1797.6422809298831     
   1171.3731342517619     
   1871.8014714823964     
  -1488.7930335651361     
  -2532.2571657113672     
   1820.7859037385124     
   367.17610643228744     
  -1648.1106868401548     
   4245.8659143363639     
   1912.5863558706103     
  -555.39125666111147     
  -651.93714771990528     
   784.70209956149188     
  -3130.8339714804879     
  -2846.6817860453639     
  -673.27593264106599     
   1401.6176230065796     
  -357.97439705564955     
   1569.7420185430610     
  -1966.9918819157201     
   386.01061682446652     
  -1457.2510706192941     
  -620.21100356499505     
  -154.26117680264673     
  -4543.3271012255236     
  -1822.7254195953140     
   2028.3865917869971     
  -897.10595517237800     
  -113.75181450105811     
   3233.1109813977332     
   3507.0495997449329     
  -3512.5585643529730     
   274.86851344021090     
  -2528.5451056894021     
  -3437.3165106168676     
  -2921.5085683618267     
   3151.6318360382397     
  -876.73747067370175     
   5247.3225895165497     
   1051.1549974991785     
   3045.5976858444615     
  -1382.9363562511389     
  -126.80448602768990     
  -8198.7075337584884     
  -913.15587689995539     
  -1867.0195639464412     
  -1197.5640947231482     
   1357.5990150663151     
   3061.4017118087550     
  -68.490079715236533     
  -617.00594455405860     
   1933.3152729745982     
  -2274.9633600498382     
  -459.08718434690718     
   800.55369333990313     
   2136.0034966686458     
  -2821.1922830190019     
   2359.6814489292087     
  -844.18129350924494     
  -1275.8954724915138     
  -3070.5876029241058     
   2300.1206183006166     
  -1877.2892900905526     
   1640.8739372145249     
   345.80526442635897     
   2523.4618919155414     
  -742.55838662137069     
  -105.80629798280277     
  -2629.0964815261109     
  -2854.2404972310474     
  -1716.7226120215673     
  -337.72366390475139     
   258.97819648681207     
   1588.2355997092750     
   4422.5985868283769     
   1189.3696144611233     
   679.93014238921569     
   164.54726145508667     
  -1138.6697047928994     
  -7653.0401602211459     
  -1050.8898013093392     
  -692.08210960598853     
  -30.722160175134949     
   51.318363941163419     
   849.82172353374676     
   233.63587682412873     
   116.96120035691902     
  -156.15865571877012     
   267.94327566938603     
   1152.0985217005430     
   30.738959198749555     
  -54.436687573946998     
   361.63085847587075     
   415.73915939031491     
  -1633.3334836343452     
  -384.89745181695332     
  -71.490045017638451     
  -411.80291369107374     
   865.45510913596036     
   656.93522568287551     
   154.21238339455488     
   258.47268888317615     
   97.278702953174701     
  -628.66065848249036     
  -369.06902543762209     
  -342.59211799896065     
  -59.761838655305560     
   12.653199261407785     
   166.05963731256992     
  -200.69359922994701     
   316.03810295339963     
  -62.602729424215823     
   19.288333393950928     
  -657.73234138099338     
  -235.32960610798162     
  -97.938847357810630     
   116.20555709200704     
  -85.014996619963185     
   771.18682281505028     
   729.64476490811342     
   185.62998961447749     
  -82.760548012957358     
   54.075105523169860     
  -780.13644771228383     
  -567.60131242058651     
  -105.17004561499564     
   90.155116179835431     
  -4.6106438563567620     
   835.06014036522708     
   1194.6494396452479     
   94.095420431011263     
  -183.82117818840612     
   95.266047991861683     
  -406.89358584718360     
  -2541.0299801204783     
   117.37758565472457     
   288.38909408065757     
  -352.72995211314532     
   392.66007298056775     
   604.17098777545152     
  -137.49511193342695     
  -185.75627081378980     
   4.5808657645180091     
  -384.71678422260379     
  -1246.7324227103866     
   71.549585056252425     
 -0.52772721263752109     
   158.01196181946935     
  -428.56130334883221     
  -89.763672272025744     
  -37.634352069627646     
  -27.782410660617472     
   123.31018572574081     
   27.949398781933592     
   519.28726978883276     
   31.982048472153988     
   35.188123020288110     
  -233.01587388995003     
   126.60170627204724     
  -538.82241696127312     
   8.0265066007014720     
  -85.535371804474750     
   196.20584620320861     
  -12.431589222195687     
   530.04212231212784     
  -19.246433130844569     
   54.313922735177755     
  -141.59192677716212     
  -89.492194520296977     
   176.11493951993563     
  -22.292335441726536     
  -9.0006899015469379     
  -90.972923007976760     
   117.38510951107470     
  -520.71507381645722     
  -58.200230984022504     
  -66.651275494651046     
   185.35664226140756     
   290.16626482299273     
   747.76961115842710     
   78.520933120299745     
   94.575407648032254     
  -201.12122375902229     
  -1714.7569550631918     
  -976.45835580115738     
  -93.255772678735852     
  -148.16801486695175     
   284.58451396160928     
   2217.2426053592621     
   326.32804439553757     
   122.12236582896564     
   319.74832348993175     
   65.433916305406115     
  -1057.1209164991742     
   289.74341052236883     
  -239.35829632983746     
   46.598206217140785     
  -287.98502404784904     
  -40.297100646401070     
  -323.25575751024286     
   48.581168887427346     
  -152.84259041952123     
   106.40203146134448     
   869.09274772872141     
   381.79973566218763     
   136.93951305671891     
   254.49027639372756     
   325.64485877995804     
   253.79208810620653     
   1477.4547843861315     
  -400.25773213073569     
  -100.13575188636710     
   287.07258762110803     
   227.62125177248566     
  -1090.3619886735089     
   455.48654627449605     
  -233.95214187790907     
  -637.43852702220590     
  -766.30891928558503     
  -177.98398908165504     
  -402.13756208322712     
   157.19033204805740     
   976.26641867988906     
   218.50809082120986     
   2039.7018809413485     
   591.62748442834322     
  -230.17663223678980     
  -981.84513601524566     
   200.23255044056148     
  -988.34179147454518     
  -746.43930820014168     
   264.53830839879913     
   379.04543766941526     
  -492.05738546871873     
   829.27577871343703     
   609.70834442240243     
   355.14091333376962     
  -27.471392618977905     
  -51.648189876616840     
  -390.98293029772424     
  -566.66094028876455     
  -469.74187813942757     
  -202.75368779393011     
  -1043.5572369066003     
   1117.2822117605886     
   648.51931092210771     
   83.383627422072806     
   57.211963486717245     
   1351.9076223521201     
  -653.35664922545743     
  -691.16174727339012     
   16.312372006171785     
  -324.74368047944813     
  -982.58501230195429     
   64.695765313374068     
   761.83362941956534     
   393.32979814713900     
   404.46623383659528     
   290.13734755971029     
  -210.42109898104476     
  -196.59083809315669     
  -589.17779012511733     
  -144.41947030511011     
  -93.117016199783407     
   1474.1103572961094     
   4622.5924571465439     
  -2496.7947614601617     
   271.79665933735544     
  -2101.6152871339091     
  -691.47938769659311     
  -7166.2452311987354     
   1188.2393912887578     
  -943.46850162953876     
   1250.8346847356365     
   2254.1663391492712     
   4914.0820241239971     
   1270.3796672305837     
   2385.6797759991409     
  -2120.3167398308387     
  -841.13913513739919     
  -3726.9975840917159     
  -4119.5606292550228     
  -2737.4093763415904     
  -17.191782800911007     
   1347.5945444968161     
  -1097.5923432383820     
   6681.3692309610842     
   3886.6960465831262     
  -101.90798673391247     
  -91.969722241217909     
   1952.6802764101358     
  -5308.2607581650509     
  -2081.0538326461442     
   140.72379925106102     
  -389.47445932076113     
  -3210.4633625102533     
   5220.9586537510559     
   1230.0582617220623     
  -1539.4524504813126     
   1008.8593141528720     
   1637.9939641272983     
  -2771.3311124603797     
   2017.5581917414615     
   1696.9448786270655     
   2251.4877621168380     
  -1951.9832087375946     
   1362.9200609505713     
  -868.14573049697719     
  -3598.7791801258932     
  -3159.7172977648129     
   308.68947506196582     
  -478.11372048941547     
   579.35280603437184     
   2426.6862365293227     
   6223.6331612692784     
   658.37917353956607     
  -946.72000780518579     
   281.50648773849144     
  -1222.3753331919977     
   930.67629677333309     
  -461.44226753150838     
   1491.3455101123454     
   126.56027727518006     
  -172.76505982059672     
   5451.6300966592589     
   1280.6390315552935     
  -938.86282687920482     
   205.58596636012413     
   9.2072047326996973     
  -4817.7979221578307     
  -2935.0573146161760     
   830.80412704210642     
   515.45365807422263     
   510.06962981251490     
   4645.7123066376880     
   2008.5423451517663     
   15.162833469443262     
   202.87305209297412     
  -1256.5479537335204     
  -1487.5805490200416     
  -1682.8662499560025     
  -1929.3480555228532     
   250.74300290851531     
   2683.6896933519720     
   1194.7907029252410     
  -733.74116389451956     
   3874.4635783345448     
  -702.56530442115911     
   763.49491839483244     
   16.820262861676483     
   3143.7492167458722     
  -3476.1227702372694     
   1139.7989131659879     
  -1563.3410421998083     
  -277.42944316829949     
  -4005.5283493316360     
   2820.8251167549811     
  -838.87976295841474     
   1702.3177754261910     
   255.45736819575535     
   4459.0417267362391     
  -1463.3782542691968     
   3.4700818774711748     
  -1182.6916749059412     
  -67.042763548879805     
  -2901.4255848017792     
  -252.44268076522542     
   936.41977182814537     
   1300.8510170368766     
   4445.8853376288753     
   1498.9533814372805     
   1075.5318494580777     
  -321.37512097249123     
  -238.82740726029522     
  -7521.7499576791997     
  -551.24612532428898     
  -1164.6960984740629     
  -606.81765151040236     
   63.391316357962907     
   11908.438131717450     
   506.30406553299684     
   1272.4900683333203     
   25.805617935579122     
   950.76000418470232     
  -754.83224501298821     
  -503.02706749154589     
  -102.67842655911440     
  -153.76011915278147     
  -464.11605886573773     
  -1278.9981644490715     
   218.42217554728185     
   173.52872910703721     
   19.472535356940348     
   286.73110986669349     
   1786.3656098662620     
   210.98354388061077     
  -186.19948932002899     
   190.82894162600135     
  -1123.4971036611701     
  -989.14838831734119     
  -172.29005846289959     
   16.489462365012546     
  -56.958793393246658     
   770.23588297908816     
   1209.9816395902124     
   215.86835847996937     
  -7.0855087931098826     
   42.406407823712350     
   38.936142502254540     
  -432.75033821864344     
  -108.77601296159062     
   24.244351269791885     
  -135.66938324645608     
   322.53269204183954     
   338.13313209774901     
  -21.799995684760017     
  -91.372506240986468     
   263.21153822325772     
  -214.63921381119701     
  -673.31384050420604     
  -104.09028913559055     
   88.224787510226946     
  -86.993456787425771     
  -55.776200583957547     
   559.25848250840284     
  -90.001677309434939     
  -91.964800792266985     
  -103.44242782202494     
  -43.178996619510102     
  -1089.1638766601272     
   163.92043532619132     
   148.66360205633720     
  -96.336963043787307     
  -96.128670367094827     
   1534.1257902399741     
  -255.70736486497651     
  -186.34173044327497     
   550.00791312804472     
  -224.14557133476137     
   531.05235285195306     
   101.73693599365146     
   157.99992731329874     
  -210.79839969878626     
   490.16955129350310     
   1336.0382821705909     
  -32.475170321776851     
   20.418278700754712     
  -143.68289841000967     
   673.80568914180731     
  -363.92417985772255     
   12.498132368796199     
  -28.271396489358946     
   17.890226440858005     
  -274.02804191985376     
   324.43953666017313     
  -29.345462724118356     
  -1.7420963285739968     
   15.948516802169694     
   40.335779822310627     
  -257.20212708357315     
   42.948184703052583     
   54.997000568110117     
   16.355093145172816     
  -75.002951061902678     
   109.44583296209500     
  -11.313499625739325     
  -54.871673803398494     
   92.205081195356570     
  -63.540344129979147     
  -652.86892351675726     
   23.412368087894286     
   55.437654964803777     
   41.908050103948938     
   382.70698761899126     
   1307.3100094725855     
   8.4112070051955072     
  -28.678249575126234     
  -109.97346689954388     
  -748.84857919315812     
  -1738.5898065995957     
   78.944381861024226     
   23.022743120021524     
   62.974119472859634     
   1663.4125251533394     
   1756.8222913073027     
  -126.71961533298143     
  -53.203794829618786     
   3.4182230270386071     
  -2182.3556427276221     
  -723.24652326062642     
   173.24772736125141     
   19.520340742849864     
  -276.71431423996825     
   1043.3110081821189     
  -418.95048261700697     
  -10.882701133187231     
  -344.54026554267858     
   482.73909017752982     
   476.18497376511289     
   449.94948840371586     
  -10.202095488868654     
   412.74885886173752     
  -254.75436019616680     
  -1486.4095862855004     
  -1918.5779903965717     
   22.112357997280956     
  -58.655273335825370     
  -466.88342231486644     
  -1154.9817089240928     
   264.35780463316269     
   127.69281528265363     
   108.52998943765397     
   252.83859802010383     
   957.69998474522720     
  -356.94667014448879     
  -241.41852849950385     
   102.00883047323848     
  -64.130037361912628     
   331.33317468964009     
   784.20484468274503     
   130.08411802841508     
   35.525870645248460     
  -272.34729212623546     
  -94.674988105691185     
  -2291.1282869108463     
  -151.89422105285351     
  -100.28944564903327     
   119.90234406615255     
  -22.854481869095224     
   969.06180008686090     
   349.74354437865827     
  -2.3865231045697310     
   163.42062610098938     
  -667.53015200399454     
  -756.84069667160054     
  -342.18174374650704     
  -453.59025811200729     
  -88.550544364926921     
   2287.1415341163420     
   536.38307564762249     
   194.62875381067957     
   577.39312585989671     
   354.98161681394885     
  -1036.5412859843079     
  -1486.3872640535099     
  -108.97056848313223     
  -288.43427387595602     
  -100.93066385608080     
  -47.839283819839004     
   754.53482502569977     
   58.389733901385299     
   154.28489433848424     
   190.56218096820828     
   22.104124156594878     
   164.04214357671981     
  -134.57445103043761     
  -472.25419642867388     
  -193.56785287408016     
   131.99207709014689     
  -143.92452735483874     
  -68.582077045442787     
   552.07963580209491     
   44.583336108554384     
  -98.210430116089782     
  -1164.4026378217495     
  -3381.8571855588848     
   1335.0229931085746     
  -682.17128403975812     
   467.15000415043733     
   1205.6141772512856     
   4579.3319549833286     
   486.79348207463414     
   1210.9224987473826     
   130.77198813491961     
  -2957.1782188624547     
  -2316.9155676560335     
  -2920.3044985709935     
  -1884.2098827897623     
   1571.0850873923707     
   2529.7490189267251     
   1390.7525866920864     
   5028.4513369076285     
   1240.5532063803000     
  -89.823459976073607     
  -3703.6858233408943     
   2300.1736543649426     
  -5307.2555979072977     
  -1781.9012366753536     
   367.82299783900254     
   2784.7917784107667     
  -1783.2747125934741     
   2913.8987350133470     
  -163.34736367258444     
  -422.48623448765352     
  -2569.5266604291041     
   2327.1216328917621     
  -2133.4249286272002     
   1352.6977363035423     
   812.01142570581919     
   2332.1278135950351     
  -248.65786221861475     
   348.20753061933465     
  -4601.5387185290265     
   306.30193367198086     
  -5556.9892923817079     
   1513.9161568913671     
  -222.45995152914207     
   2924.9110264928649     
   284.48886323430753     
   7252.9189195248437     
  -333.16562332615138     
   155.12047070955202     
  -1969.3408321649813     
   312.40553354463435     
  -9313.0542089589762     
  -305.78789659812884     
   612.62948821923430     
   501.71485394256405     
  -282.39949255791873     
   493.87832071369007     
   262.32146244687482     
  -792.19721502525454     
  -401.37342550816447     
   616.38692500695640     
  -2699.8631470603586     
  -498.56802345951655     
   102.05129943465931     
  -512.55160321717256     
  -232.75419535866405     
   1522.0782436275931     
   1803.0465588275702     
   1044.9486691779018     
   859.97058364225791     
   8.4655156916716869     
  -1058.1741100894001     
  -664.31465074592575     
  -2103.9420877626098     
  -1044.4678421883571     
   23.462828143452494     
  -1132.7952706977742     
   279.75753164343251     
   3616.0394252576784     
   702.94391913503148     
   377.82601880204010     
   282.94892558929553     
   2734.2204078683312     
  -3917.9383219984834     
  -409.57697281000287     
  -2881.4769322637026     
  -479.04602184686712     
  -4778.8017793114577     
   2267.7593057344297     
  -50.783772783681854     
   2487.1921401455111     
  -132.86505231286409     
   5439.3255337902474     
  -691.46613300553815     
   181.77068282737176     
  -2055.9132469340411     
   295.83992254380883     
  -5516.4072741976843     
   75.708097963293881     
  -135.80269001956307     
   912.92378962246278     
   233.27758104932869     
   3658.9245178024562     
   1189.7322627984795     
   813.11257670716020     
  -388.04244629441712     
  -5426.0425057516750     
  -1884.5960954681982     
  -2342.3308346853087     
  -1157.6216835927528     
  -588.49069457623148     
   8651.1467364638029     
   441.26722680801794     
   2240.1401198840235     
   1690.1634285854734     
   662.76336275973449     
  -12620.254879126514     
  -128.67089325924240     
  -1849.5590217218228     
  -308.93161840143506     
  -1713.9099065732471     
   461.36847716019332     
   401.33846055443689     
   8.2750733781785684     
   436.68153446191411     
   256.31364017750576     
   583.18362221443226     
  -139.61447160125439     
  -34.992678163598292     
  -345.29893290242956     
  -42.213562166217116     
  -863.52862672011270     
  -90.422162852247951     
   188.33207185266255     
   31.786695377194000     
   292.57100335652638     
   913.77276576210147     
   19.853697740288169     
  -189.54259622648200     
  -85.639622288944494     
   264.55104270216015     
  -2347.8784393988149     
  -10.109216892771901     
   173.35950969023460     
   22.653285642006928     
  -1059.0210365122387     
   1808.3078875407009     
  -149.46275032779400     
  -18.866613741356122     
   73.114138237338153     
   628.38932003544164     
  -1321.9801206263767     
   90.064036378872814     
  -70.092948001601684     
  -202.80616418284527     
  -630.76295710852378     
   1379.1187848071233     
   28.208097968271268     
   211.45503232807010     
  -52.295479739017921     
   1046.6639989923594     
  -819.58907690024921     
   176.28424419946504     
  -266.97168659772262     
   234.23160571858153     
  -1169.3182961697005     
   451.66998781094401     
  -307.46202306790207     
   183.93635720045827     
   110.96769306409682     
   933.29543268534337     
   354.13861415938032     
   412.77501332495166     
  -34.672555181810061     
  -565.30598485297901     
  -210.07254326618599     
  -2137.0078841942213     
  -123.97943418196729     
  -128.49895756693724     
   210.22887760532217     
  -514.96018480437704     
  -1195.2567562884651     
   32.283074747218791     
 -0.78857499250868290     
   36.616748916489946     
   40.570205438691076     
   714.87350639607735     
  -50.411983322845984     
   10.345778098911293     
   17.643381202532026     
  -395.93975572383448     
  -712.59024938258528     
   47.652538747547794     
  -7.3372996738435559     
  -39.806204985184223     
   490.07044172423883     
   267.42061399438654     
  -59.067930338541068     
  -16.110952019158866     
   27.263035234168498     
  -169.91249836140898     
   187.03602958867839     
   31.457794827428575     
  -22.781343305771962     
  -120.37479237222793     
   120.40624233437649     
   264.31410494514944     
   7.6531325228690716E-002
   33.002281608812375     
   14.527627711746019     
  -476.25023439698390     
  -1092.4827434518265     
  -1.7105352542048509     
  -78.607031189900255     
   83.584751754713139     
   636.62717474766487     
   1393.2122148697511     
  -30.431654648405956     
   92.278387686420345     
  -9.9233097283138534     
  -827.41987288131224     
  -1186.1861563573518     
  -61.774979735658384     
  -93.942303660009173     
  -149.40061747770324     
   1293.8781976793714     
   546.61318189304257     
   138.92921490298528     
   142.59613561961390     
   409.02579260061776     
  -709.50795751333578     
   178.04598514389085     
  -222.69725767549218     
   259.36655779177698     
  -584.83150155102294     
  -418.54061284259745     
  -190.96024048761564     
   187.76817325307064     
  -606.18976595354900     
   351.60570321414650     
   1260.3658530048533     
   2069.7198280440225     
  -77.579635043253816     
  -67.686756122177854     
   432.24971231987683     
   589.34331318039699     
  -834.50320462900254     
   79.391635587920902     
  -2.6292742964257680     
  -544.97287052513161     
  -626.02694597689128     
   836.86992532220427     
   116.04032949480674     
  -111.79011017149361     
   595.88585148572065     
  -800.39217382780544     
  -1120.1752014480771     
  -77.664859104869095     
  -5.9782583694788816     
  -252.54178946440999     
   94.721367235962632     
   2025.1642085124738     
   22.592760822895237     
   198.58582752775820     
   380.73111611076331     
   291.84799599886958     
  -633.26033735663952     
  -139.52503708359279     
  -89.813050875162531     
  -529.46659881519076     
   1175.8370847626534     
   372.75430614976170     
   143.18498248890893     
   278.02386914806561     
   250.57142668770229     
  -3207.7643933011746     
  -517.85034390703674     
  -76.054693405844858     
  -263.76816451370001     
  -441.70116006958057     
   1543.2504067621965     
   1950.0204170631530     
   192.49037131316513     
   71.957435950432725     
   89.542843032068816     
   179.17750908024311     
  -1280.0865759114574     
  -302.62363854144718     
  -25.466205269308354     
   1.3798183360832654     
  -184.66538127327209     
   211.45059657481383     
   201.69434008570951     
   310.01063735704309     
  -1.7198427662156703     
   196.91267926423896     
   184.55668974139965     
  -19.644716983288777     
  -340.82408542162233     
   26.700340136223375     
   20.640518324063166     
   768.77112106623929     
   2870.4109486235479     
  -1838.5725371375993     
   1185.6041928933478     
   1029.8509577771690     
   1045.6516962094677     
  -4804.6709261334599     
   1669.9744662520527     
  -1803.2502455035997     
  -2399.7630500265054     
  -2063.9782582551848     
   4203.5818903071277     
  -1813.3928135764779     
   2786.4364990570680     
   1420.2153832071124     
   3564.7586697011893     
  -4360.7442348679506     
   2734.5783641433645     
  -2918.6941310353141     
  -2860.7510940723419     
  -2001.3913544249351     
   2132.4061480158866     
  -5122.7470440213820     
   3956.4677289945885     
   2680.9766403246990     
   1361.6737402505514     
  -3267.7040657108955     
   6798.1216911607426     
  -2396.9779213979473     
  -2491.9733349244202     
   229.15802803327452     
   2403.2687255795186     
  -6220.1562849073516     
   1779.3405975685673     
   1402.6630794090704     
  -692.95085509075307     
  -3106.7082042182924     
   4176.9154942357545     
   744.55324390616715     
  -318.56760492511739     
   1892.5570176034389     
  -431.83374541991083     
  -1141.9421525129255     
   46.538186208754794     
  -395.35410380768860     
  -1417.5724006410062     
   477.38648426234158     
  -617.73419586824093     
   76.142779364201871     
  -157.44190198254807     
   3101.7089641588614     
  -60.728474440581941     
   625.17654498445586     
   161.19210113413050     
   410.46971154161952     
   824.45640408197687     
   174.48000178213010     
  -417.07529331286094     
   432.54538995552912     
  -704.39939156022513     
  -1084.6768154672029     
   771.54870210990612     
  -705.72030844976030     
   1214.2159602787294     
   484.77372414959081     
   2021.2683535993722     
  -3121.8609769698260     
   379.95627297506934     
  -3522.8152530333105     
   201.75619299647713     
  -1320.9174191644938     
   2917.0680961858948     
  -1143.1968829871328     
   4125.7046406492273     
  -771.59499624316163     
   1542.4640163449844     
  -3395.8248924220738     
   2117.7805837377909     
  -4662.0964609490720     
   691.64780523561808     
   368.90546283505228     
   822.09935739246714     
  -3922.4005724897834     
   4001.6499834985593     
  -386.45750603091443     
  -479.26721792845052     
   432.39337419135558     
   5067.6686083468030     
  -2324.9266275848704     
   1668.1186663146987     
   791.51368357220974     
  -1174.3929737958988     
  -5034.7805413135820     
   454.00875321853567     
  -1350.6349228383483     
  -798.15889595630108     
   1867.1375199684092     
   2369.4419374465756     
   1269.2508515225443     
   745.19359276210139     
   779.79889073777281     
  -1640.2577029834945     
  -1692.4180718067091     
  -3414.5269495146354     
   123.62332137942666     
   2048.6061267910786     
   932.15611710952624     
   2013.7044048890959     
   3182.1882774968549     
  -285.36804467450207     
  -3955.0725734147941     
  -131.23998100700402     
  -1387.1464236648781     
  -3037.5949812003601     
   500.51057457489532     
   7564.9981624297297     
   215.53537750682963     
   1084.3057037381714     
   961.65463101242403     
   1101.9971060704663     
  -206.76020242861679     
   44.821751112330887     
  -92.497860621944781     
  -485.14437266450528     
  -227.88751319549741     
   112.74828944597076     
  -15.246440654264516     
  -15.893280244158369     
   449.65283127808988     
   73.469921841411079     
  -468.00987475499187     
  -50.250719922734554     
  -117.60896257600753     
  -117.48025937496648     
  -250.28811358061307     
   524.96379320379117     
   73.323348937358332     
   176.07364899405096     
   130.43973074665797     
  -95.702278897182637     
   1000.3992410796849     
   40.317845554154616     
  -149.65373539165947     
  -51.928116412541122     
   635.69572982398404     
  -855.82624699463395     
   170.67177505840669     
  -32.334821377292094     
  -71.193301832910038     
  -434.74449708834646     
   595.24675116232868     
  -56.766364691095291     
   127.16997022372649     
   173.94722436217728     
   515.83509285620028     
  -310.18018761246691     
  -15.965266148270665     
  -215.40414777781621     
   56.092729146083407     
  -704.26190699642814     
  -903.92550622129113     
  -154.98410187701421     
   163.51021012580480     
  -307.08018790809666     
   962.10540727122395     
   1706.4863004861686     
   242.35644964493778     
  -141.12509665305348     
   47.761960857956922     
  -641.41841108622930     
  -2345.0463757168900     
  -193.17181486444986     
   77.701625138215178     
   470.00345658477147     
  -211.31444440077030     
   3323.2862396440910     
  -87.116666866924362     
   230.79814456071651     
  -194.32621663764795     
   899.57219626770348     
   1130.4925643950294     
  -8.7380631516274256     
   20.002368645336187     
   76.432259185746219     
  -918.25152286769310     
  -936.64850614467946     
  -10.707852725114968     
  -32.513535102756975     
  -102.48091812138452     
   1196.0789888424633     
   853.33047471953500     
   12.939335123521268     
   27.291362934837384     
   114.31578410649415     
  -1056.6845751910973     
  -171.50618737065028     
   12.139707271957445     
  -7.2022820975968083     
  -69.469975664717524     
   378.99816143964489     
  -298.10766373542242     
  -32.567846326529029     
   11.690439537387707     
   124.71391092109646     
   4.1417544463358551     
  -160.04672696908113     
   22.492778098503919     
  -5.1114666155134625     
  -18.397578294111742     
   283.79625224141358     
   957.45248300448679     
  -77.145467071831646     
   9.3085816285851966     
  -15.709882995780786     
  -386.29737262093209     
  -1127.8973501722539     
   136.11507639785094     
   21.763468420035071     
  -33.431152485030708     
   139.44253361869218     
   1014.5876079610138     
  -180.32265816115697     
  -94.343430255344941     
   59.502772013308757     
  -332.50534222784535     
  -863.43338328980190     
   294.75792479876259     
   201.42226800493088     
  -39.270793567404105     
   471.17724093890899     
   517.55182127804494     
  -264.33093333878315     
  -560.43407142110220     
  -108.29179031087264     
  -50.820906606644087     
  -314.16851739033405     
  -55.321914052060009     
   793.39604397176163     
   45.300180985717482     
  -546.18924834759423     
  -1011.0960486974851     
   21.683395052195802     
   32.188297660129550     
   7.7960608389408992E-002
  -289.16318131899334     
   172.88096246756496     
  -88.334214163831319     
   24.678343097321026     
   214.57958541916003     
   1614.7773943512914     
  -472.50527377835198     
  -83.459043833181468     
   27.443302651113537     
  -592.17143848323212     
  -1074.6167374177526     
   1204.9537466662687     
   113.63808909865870     
 -0.25614224317333040     
   270.70822685275431     
   1835.7708976037209     
  -1869.1497128046226     
  -39.154979397947180     
  -51.364753741898923     
  -403.74217934981147     
  -2516.6224593994580     
   1053.8422889301069     
   19.515750021570561     
  -37.554359626720867     
   689.37498329141454     
   1402.8478381563320     
  -633.67755448709124     
   72.629733765333796     
  -18.911013980978527     
  -748.91345766358393     
   280.67696832826169     
   485.39440491190550     
  -71.484982317375938     
  -7.4258228075152832     
   878.96891226476339     
   685.72058984657122     
  -1937.5876621525426     
  -3.6799774345951626     
   123.50123502318586     
  -501.85325666004286     
  -2172.2866656147671     
   1286.0379647098025     
   269.97101327566702     
  -27.796858829411473     
   140.35124738857618     
   1550.4714218385718     
  -383.14872623002645     
  -252.77867343063082     
  -317.61185669431825     
   74.124061956810891     
  -1159.7886987732256     
  -111.61326613566042     
   145.40499370844293     
   346.67747199781928     
  -61.224883239078778     
   236.25265791995889     
  -2098.2214858982115     
  -1450.6829583169167     
   2332.5477804319203     
  -1473.2364455409293     
  -372.61680531594129     
   1143.1708221867393     
   2347.9557039337392     
  -2434.6365240943273     
   1643.3084556863359     
   2140.0814828065459     
   884.72157156827939     
  -2376.9154303514943     
   2193.2946388723622     
  -2019.8285091289056     
  -1373.8342212971288     
  -2016.7004624830713     
   3161.9333522059846     
  -1968.6969166065749     
   1878.4397078428829     
   1887.1042902707534     
   529.56053164009415     
  -2068.8371263852655     
   2472.5885916364673     
  -2614.2552050263666     
  -539.68496344418679     
  -327.87601937204198     
   2809.8740758922213     
  -1884.2624880631181     
   1234.0889638007006     
  -19.294458783806366     
  -513.85164314811425     
  -1720.5665464470678     
   1259.7240178074894     
  -680.01863905113998     
   174.07311495579239     
   522.61108503511969     
   1623.2673486531994     
   798.75901320577964     
  -800.04256364395349     
  -550.77261288026500     
   1468.3029362054829     
   1623.0019025824022     
  -1981.9588721563912     
  -125.27754938150440     
   637.29075362176468     
  -3550.4468026063637     
  -1445.9958515550366     
   2248.8006152305161     
  -25.354855243212711     
   198.36241741868201     
   744.20096546813090     
   862.72060874364513     
  -1327.3475010336181     
  -66.615521479015285     
  -614.39393557162259     
  -228.74453901841093     
  -753.68894413440114     
   695.83747309986916     
  -384.47106600408313     
   761.99784186331863     
   3500.6499685773761     
  -1552.1654679594537     
   2195.3548155447379     
  -636.29637898936380     
  -99.242421756305163     
  -2621.7967589495115     
   4193.6951040467702     
  -1494.9102229036696     
   2399.3393999804230     
  -420.57267316518028     
   139.08496732252169     
  -4118.3659994733152     
   1859.2462081428198     
  -1769.8316022455563     
  -14.822970954426133     
   607.18875730483182     
   4629.1447570407390     
  -2330.9214025084616     
   2558.7751422485408     
   1096.4014945596728     
  -1877.5387103127916     
  -2047.7301649519520     
   2721.3137542791565     
  -2335.6895896621886     
  -616.55651171077022     
   1047.4028083511123     
   754.31369283390450     
  -1870.5959289994964     
   1290.5589931665747     
  -845.41415053918308     
  -420.78877786554744     
   146.11462008990534     
   1329.0043286317591     
   22.067216267868034     
   443.86052914107478     
   404.52850397491227     
  -846.96367323016739     
   1422.7268132634206     
  -537.45650107679796     
   32.234874744169460     
   12.736300018692100     
   848.55309740507630     
  -454.21228398741255     
   1621.2177983634324     
  -654.97586085565922     
  -704.76093144344190     
  -796.17535261700607     
  -837.31276276289282     
  -999.88457552349632     
   1271.0020673148847     
   1911.7971547719551     
   326.49740433987193     
   945.86520342028439     
   1018.0596723897946     
  -1725.8194851922547     
  -3508.6723500007370     
  -354.73088786753920     
  -761.67342854191463     
  -224.75332647596554     
  -255.78238497472825     
  -140.26074946223449     
  -239.17009017368440     
   95.028843556547059     
   342.60341764047195     
   199.02359969884603     
   56.194157823946433     
   56.794922371318634     
   131.01812878352831     
  -245.32879968701849     
  -246.18184202427588     
   233.72386140125312     
   97.146698544309118     
   50.338487864547901     
  -84.087596117942965     
   577.22741788170561     
  -255.67429924797386     
   69.070714713435692     
  -252.25980050079170     
   94.202070314109790     
  -550.11133923362934     
  -665.83871068865380     
  -159.40830721134191     
   186.74203639560344     
  -49.544561987668047     
   252.97425320983649     
   448.48691256561233     
  -122.47804584504598     
  -28.218202816007452     
   54.949474161237553     
  -4.7148102017119653     
  -590.66084512511782     
 -0.61872565520905543     
  -28.656135367224785     
  -89.194610895887777     
  -183.72939985732035     
   803.90864191936703     
   75.807032428288068     
   105.05347044087438     
  -14.421804036840344     
   94.372824619179340     
  -117.22789431300772     
   44.339181764945245     
  -57.356030501310499     
   159.40706861810639     
  -321.06552225742342     
  -598.22178011999529     
  -135.51239368643863     
  -27.559062027342833     
   78.249702460397600     
  -62.392042968744249     
   1037.9415378010121     
   68.953690845373131     
   166.12054889016648     
  -441.44453481580268     
   815.70048989489305     
  -2270.7803999097587     
   112.09440039853564     
  -432.06298887169800     
   183.67360497017361     
  -1214.6473506495079     
  -839.39420968711863     
  -44.800750528467006     
  -3.2735547595690910     
  -86.764610199590379     
   1210.3967205362699     
   699.69584911365644     
   84.605502990760556     
   14.887096551949238     
   69.714311009016555     
  -1339.4406785323283     
  -702.50597723190810     
  -58.662145140325954     
  -37.155475338800429     
  -51.465722360427350     
   1090.9531083998133     
   5.6465520736150339     
   33.287868649276000     
   34.068883790538251     
   23.406448291036146     
  -516.60699324331517     
   358.23034843595377     
  -2.8754617647376852     
  -16.484251965901180     
  -99.652642027827540     
  -25.518903619178690     
   191.89895778316514     
   11.493501980706545     
 -0.97435073796433003     
   39.149079070484738     
  -239.62521174050269     
  -1049.6309565118884     
   12.211564923561532     
  -25.706185963793004     
   1.4746464775968964     
   177.59745061575416     
   1514.7702130104924     
   26.462084602247547     
   10.044163593937091     
   34.623572776949594     
   380.30824121559436     
  -2003.1472550619064     
  -58.832807698045173     
  -65.341768221181809     
  -55.421007413823105     
  -380.82118289291100     
   2264.2886362830363     
   32.702594352841544     
   94.488694832987264     
   123.56239281852460     
  -311.71611085337815     
  -1878.0086795956008     
   109.69276205999643     
   257.47307429808956     
  -32.883062554867173     
   588.33237349290380     
   856.68696633535444     
   112.62847162413817     
  -766.46987475644619     
   49.016286939184674     
  -153.94755060119979     
  -8.6492476999335128     
  -28.085907971031535     
  -16.432158382713606     
  -305.00651237061709     
  -407.47346866633990     
   747.09955817131151     
   88.209062811934359     
   29.266089211156871     
   167.11184017584742     
  -570.18148309915352     
  -285.83809046918833     
   33.237074811741955     
  -40.954142438909599     
   353.60832051004996     
   292.67879768200720     
  -662.88871417397957     
  -116.72172136530233     
   10.126632867563870     
  -130.57404965577584     
  -606.70787456238577     
   990.68819603364261     
   140.60287845150253     
  -29.462940468178434     
   334.87684081902415     
   1382.6874617956112     
  -660.72693769175817     
  -115.67043459175805     
   62.692803610772451     
  -494.22712118247449     
  -1295.0548268572231     
  -97.329830114354351     
   84.402257705190195     
  -52.312932170071058     
   486.95722689624932     
   980.60461134135380     
   751.25611823769304     
  -185.76111627901713     
   89.318309914496567     
  -416.01643958878191     
  -2300.2718826447303     
   488.31485165829702     
   129.26383566160686     
  -59.406153267065029     
   508.59196428847366     
   4404.9880759535008     
  -310.95624743543016     
  -235.81627433716460     
  -287.25394650401216     
  -485.42649840541776     
  -3648.6932391970972     
   6.1524960805379196     
   134.35714473687582     
   510.95402473457273     
   165.85466381385831     
   2808.6047381070598     
   231.13818222647305     
  -175.32775363185820     
  -345.91839315979865     
  -37.803651423468438     
  -815.38066355066542     
   1366.9930643298321     
   905.66654377033649     
  -1955.4830418872400     
   988.18471539784935     
  -1029.4039431410927     
  -431.09460203435492     
  -1125.2693590193121     
   1779.0401245689097     
  -814.96734781992700     
  -578.60821795651691     
  -1537.0012956906237     
   1271.0909960409392     
  -1222.3023891963387     
   542.59765187644496     
   95.979173855606973     
  -905.92147816847853     
  -1850.7803756790204     
   812.18917118436298     
   146.21477951173480     
  -768.05836029729107     
   6169.3026661973418     
   1151.3351518143118     
  -444.73467992607038     
  -21.370592184624517     
  -629.87545519999276     
  -8974.8972942231194     
  -1383.8749306168152     
  -1064.6254289681367     
   766.29169354491751     
   1499.3553063056434     
   10801.184033659172     
   630.93688534941680     
   1817.4224256160021     
  -892.36896336246195     
  -1500.7218430556375     
  -10874.112930314266     
  -62.014413430069460     
  -3499.6032741721497     
   658.52782055362832     
   2146.5299825382258     
   4259.6145596296292     
  -2469.6340919084901     
   2808.7108168364525     
   1013.1897307442695     
  -3288.2436419832979     
   1206.3041799390785     
   1699.5450723343381     
  -2058.8779881623564     
  -689.06624263172148     
   2035.2832841929112     
   803.15958096782038     
  -929.21783276329506     
   832.97196190071463     
   744.12127000260352     
  -928.06538932215904     
  -2156.9646501832767     
   794.86920349770298     
  -268.78470572958349     
  -289.99721884648761     
  -127.63666222804241     
  -5244.7038561245909     
   2354.1636563358943     
  -4538.2258304774305     
   870.89801435715071     
  -2248.3757057522562     
   2855.4467097601910     
  -4814.6232535917507     
   3123.7296398222661     
  -2721.0531438343128     
   4118.9821009096313     
   936.64001349602631     
   4698.0031077577669     
  -1968.3701911263847     
   1152.1663662401947     
  -3053.6788046352144     
  -1890.5734513995483     
  -4655.4748624352433     
   683.64473752750087     
  -1166.9930825055271     
   409.28330524376759     
   2257.1874538254865     
   1892.4331255140821     
   1347.7253614110432     
   487.55480975154478     
  -289.23594799141284     
  -945.02384625516731     
  -255.98808246138847     
  -4211.9829371230026     
  -61.129801263268504     
   1642.7687894320575     
   587.33989936100784     
  -642.00393475576436     
   5271.2781726897156     
  -722.70886238285402     
  -1287.5445282968822     
  -2439.2821419370566     
   1155.6718216902620     
  -7240.9579722045719     
   226.06500013210518     
   1430.4399646584088     
   2490.7001896068741     
  -469.59193769300339     
   3392.2394882101316     
  -183.81005309798766     
  -1691.2068291612929     
  -3359.5824134149675     
   578.10924485722410     
  -737.45039473060342     
  -815.20828786942843     
   735.99505803543354     
   652.79548192148559     
  -360.00315925560062     
  -564.68543946176635     
   1105.4047214410950     
   483.80969469018294     
   989.73497185332462     
   318.92303051899529     
   917.26531974553689     
  -722.80960410938007     
   483.74853293334070     
   446.91387595552277     
  -18.759631759515198     
  -148.05876864363916     
  -115.95652230144609     
   238.76178029253924     
  -368.81595871466857     
  0.92493802610275599     
  -59.886040904861922     
   118.78822776240854     
  -314.98867147994503     
   281.45252124815886     
   6.1465807080373320     
  -65.823443680605678     
   124.49224702039231     
  -110.95447459833507     
  -385.93630154840213     
  -349.43772533613310     
   224.54631591037676     
  -184.76538441705549     
   563.40731138521141     
   576.31212418808411     
   176.86503523893387     
  -1.5643721017904990     
   155.44385302137854     
  -707.33389589360672     
  -255.96071764113617     
   307.64565095032629     
  -50.816341276537841     
  -28.463697661114587     
  -50.892515672010816     
   609.94459806214934     
  -255.16135575190751     
   35.162142510912183     
  -81.040678011977363     
   502.83947321227686     
  -1235.8493708905739     
   173.48401300995005     
  -30.153126085069719     
   179.24923615646514     
  -435.61141720083231     
   1230.5955009020859     
  -254.22856566610261     
   12.364458002932791     
  -313.44137089515664     
   196.97157023130194     
  -233.85340314061153     
   128.22407678040673     
  -13.925814713397966     
   231.96421240248623     
   712.47033259809200     
  -249.86807055022072     
   232.98034977589970     
   22.111171768687640     
   88.710211581963108     
  -1384.6151428213034     
   1214.5314763047386     
  -266.75633659118159     
   182.24292195134944     
  -189.49945980472580     
   1394.4116943821996     
   697.63359108668567     
   120.13197573598077     
   22.977939792958455     
   106.83620523854187     
  -878.80906144305732     
  -852.91169719606262     
  -102.94841809848650     
  -50.900203849774641     
  -107.81219886723251     
   768.25368082171246     
   1291.7575251225483     
   19.336849282872620     
   37.410685058058235     
   89.755629373258188     
  -378.97727103530787     
  -663.01955561707462     
   43.118534626147614     
  -19.206309058322969     
  -57.466536359631498     
  -298.66431899568477     
  -94.857050030140272     
  -28.866198106158489     
  -28.136476614632091     
   81.586568278374145     
   1253.8235382928522     
  -11.354537471635716     
   13.953379483689769     
   30.160618968873916     
  -52.829783484096062     
  -940.60566342816583     
   699.83599759170352     
  -61.845015059091565     
   12.854380075321515     
   39.116918679429453     
   1082.4264900910459     
  -1391.4943123295272     
   94.147896343247638     
  -27.293998080224462     
  -63.353611953211114     
  -1744.7545364547193     
   2323.5483493821880     
  -165.78989482566510     
   74.498901902773738     
   35.476071835625106     
   1525.1153842553601     
  -2629.9452336178933     
   268.30577856125859     
  -175.32524005648798     
   76.083524324643406     
  -278.40310529390104     
   2221.6813530445174     
  -442.97324929790636     
   70.389597013783430     
  -132.27282625966623     
  -1033.8811732972365     
  -896.24837626797830     
   19.815831948765489     
   634.08363559839768     
  -47.395754446843561     
   755.53241793316226     
   66.391786085706954     
   90.855707730454469     
  -30.255587829016196     
   294.23841462005691     
   593.95467050270645     
  -727.13650379025967     
  -105.81761717747794     
   50.530441878023140     
  -372.53175772572598     
   139.43692368840425     
   179.83483479861712     
   18.193096865719443     
  -62.413454432117142     
   1.6111062813627131     
  -327.81589941073787     
   661.38571143567094     
   65.918934157792648     
   105.44783842672442     
  -203.19590443897377     
   634.54926987217232     
  -914.52009201164014     
  -79.058593868097532     
  -72.993138012933727     
   59.467555224203103     
  -1451.5913276940616     
   1025.8763964633272     
   58.227181949608443     
   49.098884450619089     
   92.463570310878950     
   1333.1991273103899     
  -135.72443208478930     
  -113.26198673172462     
  -34.302945773082733     
  -111.19528079033303     
  -1220.0443117877624     
  -965.70317589112562     
   280.94474273604743     
   3.6419431684287136     
  -36.128916668999686     
   1813.0149869282693     
   630.00733070079377     
  -279.61214713192419     
   49.736811189234487     
  -265.15110143062327     
  -3371.5010230069911     
  -754.31209780913173     
   471.32526469295397     
   256.90954499927909     
   303.67345326097080     
   2822.4054996261434     
   507.20356972718588     
  -457.91899907106068     
  -464.70588577759224     
  -6.5275345181175304     
  -2124.8644990965468     
  -324.74376274110961     
   453.27056236073736     
   241.76525697738830     
  -44.226149820793452     
   446.96217313448358     
   467.43397900303546     
  -688.93755133286641     
   1275.8698469612077     
  -409.72178795337567     
   767.88166451513973     
  -353.91724176548144     
   676.71727974251326     
  -1256.7838893019257     
   362.34051212929592     
   1062.8556217150317     
   1286.1010101962443     
  -557.40397819087491     
   880.66112089500984     
  -114.56384961252479     
  -959.29931729273085     
   1904.8473786100985     
   519.52769732797879     
  -953.83570769331754     
  -72.102214127035808     
   1839.9056760862948     
  -6485.1176349983562     
   40.025691186641112     
   853.68164867983307     
  -351.05448356302804     
  -295.87925617994830     
   7587.5978838722722     
   30.423599797515674     
   205.97912131975175     
  -3.9543935390375200     
  -733.99586127230282     
  -8531.1505965816850     
   91.961423585669934     
  -767.85513432876655     
   429.35605055773743     
   732.65314393798644     
   9560.8786404182356     
  -774.28869283829476     
   2160.5037030620774     
   387.80248817075829     
  -1601.1544431284997     
  -3603.7660634008707     
   3262.5168148487614     
  -1399.4959607109763     
  -2354.3891943966323     
   3949.4057250127025     
  -583.52730578125352     
  -2487.9109972486071     
   1047.2329186577199     
   1908.6277107083217     
  -2781.3456966848435     
  -1049.2884808853826     
   1429.4885923549430     
  -243.61462523242830     
  -1843.3631875210544     
   1632.9562092605129     
   2445.4240190948171     
  -817.77293200019017     
  -13.000949396202401     
   1058.3792588120764     
  -197.48224618113264     
   5946.3657842121829     
  -1431.7741785835076     
   5204.3042374531615     
  -408.58336392232292     
   3318.1295999834865     
  -4525.8013951199955     
   1957.5061339904510     
  -2961.9881295785790     
   1288.1426416557374     
  -5091.5526644382926     
   2003.9131759988952     
  -1614.6283547689077     
   1036.4211223426039     
   766.44667923084091     
   3755.1521454966046     
  -2258.2908665909476     
   1858.0736280074188     
   778.92435548319565     
  -1515.0565371435114     
  -1102.3199154560625     
   3019.1080464305865     
  -505.57435944210590     
  -3255.0670147184287     
   2782.1884088843890     
   486.95542010398407     
  -4151.6846726535659     
  -307.41653610752337     
   5642.3996416005093     
  -1995.3991933134639     
  -1517.6943672060456     
   3331.7391143300988     
   967.84321151065944     
  -6443.4908850529682     
   1529.5530160094049     
   1001.2218765093686     
   704.51654297036623     
  -1812.5490203817171     
   8102.1929474375711     
  -519.05806726030198     
  -906.17381455684642     
  -1963.6061891743097     
   1428.2302864837934     
  -3588.1932815563141     
   82.913464256422230     
   1777.2771029628586     
   4129.9222277187919     
  -1760.3420569856203     
   985.84216615408207     
   983.33549177253212     
  -957.90385424516955     
  -1053.8067784070897     
   1139.4137817389390     
   595.76146271135769     
  -1739.3370453173932     
   341.44977203958734     
  -293.39545226598875     
  -368.73197684223595     
  -1212.9568257124972     
   1019.9895830738483     
  -967.62159867439618     
  -671.14483959289646     
   260.46078711115013     
   257.57644692528345     
  -231.95401351369588     
  -729.89230936439128     
   493.31760507023466     
  -179.44895917212023     
  -22.622273234847452     
  -38.521917110616634     
   1020.7897921472589     
  -430.89606430913159     
   318.13641513772103     
   5.8976893133954533     
  -32.154676947252938     
  -692.35348514627856     
   709.95422421718933     
   219.97868886679646     
  -134.47272797931936     
   72.717980041199269     
   197.94042191368635     
  -533.78393121196495     
  -323.67176970646813     
  -134.28710301266912     
  -200.68522169109093     
   283.09818049406675     
   230.10909989389774     
  -113.04608838343893     
   163.31254995508709     
   121.49945298771594     
   111.75165263829830     
  -589.37103860574439     
   149.30176116380255     
  -176.69707522229487     
  -67.958758607962196     
  -206.18704641342580     
   1199.4308044852094     
  -192.94767303555474     
   135.13562815085913     
   46.049271508118863     
   87.166015846620027     
  -1853.3566706682552     
   373.72384109778051     
  -84.042163560783919     
   13.062332745749220     
   341.95945695450268     
   688.53407370638058     
  -289.38494316077549     
  -94.369655880635108     
  -160.77485405817777     
  -1133.6624938981299     
  -329.07260041962559     
  -40.558982168023462     
   102.87544822658030     
   126.41038120958163     
   1358.4938964673486     
  -273.92127342959793     
   101.47512781213021     
   17.781561857703579     
   156.37462566902386     
  -1093.8578612904735     
  -400.94179943167387     
  -105.50172550659651     
  -51.169802200421941     
  -38.465685869550782     
   604.70392804289281     
   407.64223027438561     
   90.658987156178242     
   68.416352861856183     
   49.320134220333443     
  -546.72545300214233     
  -820.88257215384454     
  -56.485076166186417     
  -58.141212817076706     
  -41.824961595522282     
   504.94107136902119     
   273.40327703359242     
  -6.0779861582769676     
   47.220338931007014     
   45.658996402357985     
  -61.143822697680321     
   739.20707380908812     
  -29.956864058686424     
  -3.2513953453778242     
  -53.790292144623990     
  -873.79134734292734     
  -905.05235580030615     
   52.717445390759103     
   20.678990123626598     
   47.906085758210629     
   343.99904688659507     
   477.24187062100287     
   8.3664270328262855     
  -102.19105227335817     
  -50.962476301762678     
  -152.68564723623504     
   112.37781024220563     
  -6.5504745695053304     
   173.17265336326349     
   93.817754074981394     
   662.06230758766503     
  -1258.2077241025797     
  -13.483908115550019     
  -338.03035051985603     
  -145.93749003670089     
  -353.96747195904209     
   1689.5383416943669     
   49.241538996696988     
   550.98863384846243     
   231.52418233248088     
  -750.72106815115490     
  -1493.2341145112205     
   179.43577082248163     
  -453.81884696863091     
  -400.75889902430646     
   2295.7671558275206     
   453.90410956485204     
   61.586555726836551     
  -438.47587543792554     
   420.33295119734703     
  -1580.6687648291374     
   314.83737747209653     
  -120.52554526039754     
   13.550880738696167     
  -68.989569208547209     
  -821.48655271562188     
   236.15917571506671     
   89.277603643053197     
   1.1780816087744406     
   252.53960309679263     
   543.39267743164942     
   164.20412171880992     
  -14.508754752507310     
  -5.9738920909819644     
  -40.339475042494520     
  -634.96025351638662     
  -520.03315231375814     
  -72.036147219512387     
  -31.728311244970296     
   159.16709600225749     
   523.25931262415361     
   686.84428453846078     
   41.761020015788077     
   12.766875849933992     
  -17.430001970464190     
   301.17033625079603     
  -974.53406121599767     
   9.1344613720892482     
  -22.055914341196143     
  -146.71541123090904     
   96.055244218309653     
   285.08096438258707     
   40.938513372577042     
   24.327066503418418     
   216.22299949813063     
  -202.25345625367530     
   581.60785956007157     
  -129.10452600952075     
  -15.246197301882141     
  -161.24284206046303     
   138.84075539046623     
  -557.54927112178893     
   47.036685818347408     
  -77.444365790445346     
   573.19239726058652     
   563.68984380945983     
   583.43036682663512     
  -111.21212664910372     
  -4.5961391982248188     
  -670.61579274780524     
  -574.35391021207113     
  -265.84501282041390     
   100.16614717094556     
   167.65574875038260     
   281.05486935160195     
   399.39447841414335     
   151.34204758823901     
  -340.49219801628101     
  -19.947191523776226     
  -44.792077252609772     
   313.78124984371914     
  -2332.4005865971226     
   77.865071494518901     
  -511.43085696695408     
   405.52236057253083     
  -112.91811786857245     
   1684.9458882135050     
  -31.195425970171986     
   313.98250590394747     
  -761.18719770254381     
  -846.90693475734179     
  -1005.0800971969140     
   42.836496738621356     
   226.95303519861392     
   396.38649804702493     
   461.34549729480875     
  -2546.1314408108533     
  -119.67884626107792     
  -12.886392367664913     
  -90.364582545970848     
  -1529.2446543802466     
   6660.1556561325142     
   69.190775346542722     
  -120.08675643266324     
   52.362030287309800     
   235.70866284898563     
  -7138.5515144790797     
  -44.260939932391629     
  -250.82641935465978     
   357.52196311806227     
   638.66565670106570     
   7769.1271247184013     
  -64.166266171239741     
   572.63173900953541     
  -933.79901845362099     
  -583.74159349385286     
  -8524.1522042067172     
   558.10364014574941     
  -1322.7297123110052     
   28.679624654981723     
   1232.2778335002581     
   4197.0501840964444     
  -2552.3928448907368     
   626.21968970092780     
   1755.9713105059529     
  -3691.4396724641147     
  -1535.1256308400273     
   1994.6107808882130     
  -721.65115303371454     
  -1061.5408893777314     
   2587.7076841627331     
   1233.0746015403745     
  -1036.6491807088451     
   369.08739121884287     
   1001.1527234979468     
  -1498.4638277198578     
  -1393.4921775752307     
   548.29821906984114     
  -237.07212498117650     
  -638.56676749230019     
   85.325539972180991     
  -3430.3502937851854     
   1225.6332021025667     
  -4540.4295025218826     
   473.16275885391786     
  -2739.5590124302862     
   1484.6542734344769     
  -1569.8905406934982     
   3023.6985222826652     
  -1271.8083582316649     
   3961.3812525072767     
   1271.2716750023310     
   1437.8743616059219     
  -1108.6293714347114     
   493.27216746184837     
  -3174.5696956145821     
  -1618.4109284969666     
  -1347.3834554865423     
  -781.35106446660086     
   11.941322361300909     
   1672.4466906164607     
   1800.6167324205446     
   361.21113577137555     
   3198.9707930379632     
  -1650.3439346276562     
  -677.89878001178693     
  -1694.4051678784401     
   186.20401228488336     
  -4938.5680752417893     
   1269.6885269419747     
   464.62774135129325     
   1948.6544488440175     
  -516.15421984545696     
   5720.7858766225609     
  -852.70787807911847     
   1202.5592028989843     
  -3708.8870010049600     
   836.25508429966908     
  -6843.9329748397713     
   106.84306274427486     
  -2276.6230974551577     
   3378.6155121756619     
  -97.573120184749754     
   3091.3014806663145     
   454.23528805409342     
   509.01530478039973     
  -4178.0667741994212     
   145.26211242528291     
  -1006.6246061711477     
  -891.72854903241523     
   455.71661036270228     
   1022.0313277320457     
   61.014376085064598     
  -428.36508466770414     
   1307.9454983293629     
  -2222.4478204912812     
   223.44575112802289     
  -179.31486289070207     
   1244.1213574628027     
  -883.75204580416153     
   2741.0398307891292     
   562.61481726160468     
  -109.19786319664961     
  -79.503619629127655     
   479.80921533530955     
   375.66132810357624     
  -103.14825061395413     
  -70.315980080662740     
  -135.62814588307364     
  -95.865970172876700     
  -266.31594126369902     
   30.740977816073197     
  -133.77203869884187     
   183.80054202999870     
   30.620211400701915     
  -157.69540017904646     
  -660.45766342284207     
  -512.13275033879779     
   38.290444613321476     
  -49.123383506100204     
   691.76828162174900     
   379.55836775662613     
   1021.5483732267576     
   13.341260470855843     
   190.74659684425973     
  -1059.4331861635421     
  -45.524944277818321     
  -441.94059104763380     
  -44.149682995460587     
  -145.73185802314345     
   691.53812109558305     
   320.37295919817717     
   77.116302393601046     
   135.45922634600450     
   204.03134607606771     
  -568.74799063390424     
  -336.54916346037430     
   107.74386687504243     
  -133.36785458195695     
  -175.91779175636296     
   536.37849790217172     
   445.20499913739815     
  -168.95731923630726     
   180.91792196944851     
   83.818792306312076     
  -530.10203101475770     
   550.72628453133177     
  -59.167251173532904     
  -124.22792036076044     
   57.433179698971244     
   686.08434163907873     
  -97.228819796442920     
   378.86734446477061     
   169.72539634245794     
   22.406684503414070     
  -448.27510789855728     
  -21.247912576862216     
  -236.97494282574633     
  -287.58828047393030     
  -255.42737426951879     
   38.607958742544270     
   164.24672116048822     
   65.134497023985190     
   42.461244934625505     
  -29.305961862777369     
  -117.03509903241770     
  -518.44690008689793     
  -35.925318158963712     
  -69.272540993758028     
  -34.890333742424509     
   112.87354033631254     
   1236.7745364140180     
   47.356906366285251     
   38.128001317512364     
   31.100734285473358     
  -484.40928418230175     
  -835.05993522572805     
   37.921912584184824     
  -26.898584409928688     
  -5.5868615825512489     
   363.85766685036350     
  -327.20817761265403     
  -51.946005255781571     
  -19.166969837290807     
  -15.002804396929172     
   376.70782983832538     
   665.24371932864744     
   16.903298705931437     
   22.859550220752009     
   43.769556419325340     
  -30.219609773497247     
  -529.87182251674699     
  -91.839754696643112     
  -11.238212839487169     
  -39.743902801798818     
  -276.87428370032200     
   315.20126166491758     
   93.358423779532743     
   46.009938595792747     
   3.8346288530549271     
   54.720109718503466     
   692.00726985562153     
  -169.84769292113182     
  -49.011748647047419     
   35.405047120444493     
  -492.41018292256160     
  -1056.8278037273467     
   210.00565664253870     
  -60.210830931924470     
  -164.81903916741439     
   1660.0368144904151     
   1004.5977753384828     
  -442.94977175336805     
   138.61656081538317     
   495.89322267577819     
  -3322.3302980876952     
  -288.47784901749907     
   122.64423793539618     
   275.61937826621795     
  -523.34431236705666     
   2307.2410601395522     
   86.692165621818845     
   82.504102951324796     
  -73.247353804642017     
  -16.814824272453173     
   238.18867563759156     
  -415.05179482374200     
  -129.82945527497333     
   76.638693289738825     
  -109.56194564325068     
  -3.0836260280439625     
  -402.47141272779254     
   118.05475939838696     
  -32.295210347930286     
  -13.934913621845737     
   442.60913641683788     
   834.66904458226918     
  0.89467076528047951     
   35.417959419691130     
  -57.895259609350838     
  -603.62658792622460     
  -1056.1288085817741     
   7.5948508250925775     
  -14.158379151253497     
   49.275438201144695     
  -301.10377210108948     
   1261.3933449614929     
   10.825649546008890     
   13.938692229779706     
   2.4860592096229661     
   41.477875764640892     
  -923.45852330526725     
  -66.569365781852838     
   5.2949087058136746     
  -25.855090790628282     
  -38.289357293793607     
   598.34092438190203     
   148.95445221288281     
  -23.679754333377605     
   76.819774073501506     
  -271.83583667644842     
  -648.76847401472037     
  -97.298887129349851     
   7.4077561995784222     
  -396.70356228043102     
   202.02983715022518     
   279.11174977800283     
   161.46142059669091     
   166.12288917095520     
   555.52329099303654     
   75.379271646829039     
  -164.54311238214859     
  -112.42962767630679     
  -455.74363308009936     
  -324.13326693944168     
   245.89267978899477     
   22.157845505468227     
   281.71222439949821     
   163.28708503340675     
   85.434793875294588     
  -754.33397578122754     
   1274.0082001848739     
   442.45180076422139     
   521.23350113438414     
  -425.72178994117456     
   551.45653842331592     
  -439.52122051667430     
  -114.17859951755143     
  -825.57179051607318     
   602.42304627209830     
  -807.22516558263283     
   304.08208612026732     
  -525.37173220149111     
   562.23303580751201     
  -349.33703585679939     
   1443.9541062870831     
   915.20316141979470     
   801.86155144945883     
  -618.48298127682961     
   11.789941191648001     
  -188.78339803526913     
  -2260.6232134735401     
  -744.26612753045526     
   425.41548838425967     
   169.91191567389248     
   753.27465128284905     
   1370.6000380979037     
   163.79014418626747     
   125.09199031422756     
  -250.57692064239319     
  -1215.4493484417176     
  -811.28016387830075     
   361.90734981373481     
  -911.52715593530411     
   502.27639306624371     
   848.65854180354120     
   351.00684964161826     
  -810.36289677555692     
   1397.4256306203072     
   387.95260686293841     
  -985.58215031251109     
   1452.5930770748853     
   2138.7222998548332     
  -721.86015280721472     
  -2039.1838848471848     
   2968.3550762014343     
  -1082.8413784667512     
  -1889.2649974060971     
   818.55333473758571     
   1219.3807560666203     
  -2189.6647194676680     
   456.77978934505381     
   1015.8845693506795     
  -575.91808333582219     
  -664.72816676494722     
   939.09276337931260     
   109.28647103071000     
  -535.36947960567989     
   443.54830526883472     
   216.67915320992438     
   298.74021366390048     
   1382.1763245591701     
  -340.48927387634001     
   1522.1105435346681     
  -65.819512896552737     
   1184.4351832634206     
  -1194.0123890851594     
   242.45779818732831     
  -770.42536154405843     
   82.770736281684009     
  -1679.7684350571587     
   691.02771920789326     
  -283.10426289782833     
   116.99467012655700     
   129.40322134012209     
   1179.1554423046696     
  -1280.8334080198142     
   444.63039366327888     
   136.08858654347884     
  -126.80323608827771     
  -363.49237240599564     
   1478.5793610214703     
  -186.96211467362011     
  -651.76488385410880     
   552.08771166322344     
  -422.08893933360361     
  -1211.6257778033739     
   46.149145289240948     
   978.96406740982354     
  -243.62356492655192     
   1159.3638783520444     
   598.80327410206564     
   93.187112492195865     
  -1320.6234264614368     
   110.47848797101167     
  -3000.4511884491158     
   592.28145901274490     
  -362.89010771802407     
   2038.2201023298410     
  -235.50424293090853     
   4639.3345772412349     
  -996.31939268461019     
   309.92385933690082     
  -904.68814131498084     
   297.04780537760735     
  -3593.4422874144993     
   1665.7954097471713     
  -652.00839043224255     
   198.47296899222789     
  -422.28319152282933     
   1352.5812971429559     
  -486.76044751524819     
   487.80618866001186     
   492.60224616572492     
  -37.571027661707959     
   2064.6313518503944     
  -76.820031647950060     
  -15.553867254710452     
  -849.08657182250431     
   495.90398369174517     
  -2723.9436308453969     
  -586.99779389261187     
  -111.99139526353649     
  -122.28430885295023     
  -345.94625582635115     
  -147.93003225425500     
   374.97567730797311     
   417.93764840045583     
   365.99597166889089     
   93.136601175319939     
   105.34708615841944     
  -254.61580207964843     
  -541.89456886197218     
  -420.26758449452274     
   195.56539469654243     
  -14.765256079552733     
   778.13307920623777     
   1203.7059382838959     
   200.31189525906800     
  -377.60471087734271     
  -269.48037719013348     
  -659.24994636895906     
  -1797.5703168799741     
  -25.027970851744133     
   370.93580330432241     
   504.39771367103049     
   495.89087067368263     
   1189.1783309891273     
   23.096543626952553     
  -253.61919802596557     
  -379.40163826907877     
  -697.60593349351188     
  -440.57473124799429     
  -81.107084157006994     
  -6.4659226851282892     
   229.29167460962319     
   474.73022439049208     
   5.5810168144692289     
   44.012499742319378     
   129.12444493079119     
  -174.26984932038118     
   18.783359579404181     
  -1.9843220784743427     
   6.0809957328844533     
  -154.28515392499622     
   60.071210615092937     
  -715.44114442687885     
   173.71667215981952     
  -170.63001992940488     
   203.61899267545965     
  -45.329354113024365     
   216.49796278753860     
  -255.89363945112621     
   207.37938711179041     
  -263.53394815258935     
  -399.99462480724429     
   54.757890885049122     
   120.41012858570966     
   61.957308453006647     
   171.49187331897321     
   717.08372306440208     
   45.574116834965103     
  -73.802022411281683     
   20.185942485710047     
   68.562542211216353     
  -34.687151035464467     
   470.87380793056826     
   77.881135744114147     
  -10.948733344580194     
  -27.043002998747831     
   140.29508718105700     
  -1216.4367344959783     
  -71.319986686985544     
   13.129778312522889     
  -2.8361512143783809     
  -62.979268886749068     
   975.38277169436719     
  -21.494108052556278     
   3.8978694724232010     
  -8.9651088465780795     
   253.34151640078284     
  -151.52280659904230     
   96.213141603417597     
   1.3250177516317636     
   6.7524156290801454     
  -668.14316650975854     
  -136.06677874488503     
  -57.290483239043418     
  -3.3266653521831824     
  -38.950796042349886     
   600.94107588926636     
   152.33663448200886     
   102.59280460462999     
  -5.3271508305136717     
   33.174560480458950     
  -408.85939597390927     
  -67.662763249621861     
  -76.720857950754706     
   6.9927207811567769     
   18.239359816144486     
   505.15874391595264     
  -757.69571720569218     
   144.42383238667077     
  -63.440171293611563     
  -177.93847488334413     
  -406.12673805716827     
   1195.9746176068152     
  -209.48404137128381     
   48.726860248874523     
   435.64040741011780     
  -74.411434939893979     
  -1081.5944325013947     
   475.65855206109859     
   42.735177805138377     
  -553.71534208002242     
   1175.9097831440442     
   410.09335214890694     
  -248.68943260673473     
  -169.17455819080837     
   347.85124518791969     
  -1139.8648973780182     
  -291.81463619857311     
   37.419899093415658     
   43.625416530888501     
   41.978514800770014     
   150.67982067248045     
   350.40011680204333     
   42.475561601289485     
  -69.088792624597275     
  -10.273162173255917     
  -373.84415645577423     
   370.92278984023511     
  -98.220793791269799     
   17.970320142938675     
   85.924848739831603     
   106.95268090927699     
  -849.93397847415804     
   58.358459252532086     
  -12.886581931749362     
  -77.612747888808201     
   7.3246283303350257     
   1127.5066068665956     
  -88.514433741929324     
   5.2937023972527317     
   45.155207469110117     
   568.37476558403421     
  -1243.5471574547739     
   76.412942995410305     
  -2.3294903601612589     
  -13.487266230097564     
  -581.20706131059239     
   1132.3758531089993     
  -86.814702922167683     
  -14.123083910294657     
  -3.9310278914174113     
   455.52770371540686     
  -1232.7184349831236     
   87.801010511365831     
  -4.0114260050543713     
  -53.889731714715353     
   41.570766960346177     
   1516.1959490670413     
  -170.02255090813961     
  -23.810663026288406     
   321.72638559659686     
  -219.25391239403939     
  -1002.8481984395388     
   195.69782494129353     
   193.68100149054058     
  -528.63710143417507     
  -121.69448024601655     
   364.16926595871405     
  -135.08751349278290     
  -148.63831164457241     
   400.76634241369845     
  -213.29302601416185     
  -31.392152115337787     
  -121.78933532422823     
   117.57957588550966     
  -172.12009742371356     
   618.56714350336483     
   102.22048759948171     
  -536.67517025059647     
  -124.39442948851017     
   238.52155636835792     
  -1054.0688226434545     
  -524.59857746405532     
   372.86987845419435     
   245.58883312228758     
  -155.51813545640584     
   2377.2832728717171     
   286.27483057751880     
   236.38641155278367     
  -142.61399212975641     
  -180.81514477738313     
  -3161.3043485669568     
  -518.98334527759971     
  -621.40716425137555     
   230.99258735496520     
   607.81489924013886     
   2293.0054807283682     
   825.32862223209793     
   739.48506781100218     
  -241.73003851227412     
  -667.14888835231318     
  -2115.1155118900970     
  -289.41110826884744     
  -538.59643767963598     
   107.42371440534153     
   371.76939654031190     
   1907.4421581253464     
  -258.48517772239950     
   483.75402250142668     
   169.76514545275285     
  -280.96185668613401     
  -793.81394953860888     
   1126.4676006141249     
  -307.56455930338910     
  -116.67625544560811     
  -257.36176023997962     
  -120.26525595959816     
  -2075.7437100199122     
  -600.62557022321596     
  -65.355178785326913     
   1117.4607830560944     
  -398.11960367543657     
   1502.0104824374200     
   1053.0992629931584     
  -497.12841094558837     
  -623.44224148004821     
   218.17914981714350     
  -765.30075192463585     
  -805.80507486797478     
   630.09535028111168     
   91.438273210401576     
   390.90633922788049     
   227.10809633312641     
   462.74030396348360     
  -432.78870177627806     
   139.80859062820764     
  -640.73741148067347     
