        2400   1.0000000000000000     
   52.400528259653072     
   87.169691645785392     
   20.777299448679067     
  -56.843151503668885     
  -99.310167990048683     
  -53.266346766892269     
   131.36167590426376     
  -258.99353425162377     
   351.58460286256229     
  -126.47716872933515     
  -11.282608404804623     
   56.782293291075767     
   39.281827573806900     
   106.46173068111779     
  -136.40937481886957     
   29.071817747465900     
  -2.9464652971569363     
   46.658687674511292     
  -106.62672628841777     
  -38.708110807474867     
  -58.118559733246968     
   20.525918524005085     
  -41.196093639421242     
   105.04251211657284     
   91.164689404054087     
  -71.058829705470856     
   47.798336033560993     
   111.86878515106224     
  -166.14180919232990     
  -41.559083868136014     
  -40.080515807614461     
  -309.20457440120146     
  -59.753091226174753     
  -200.78545659026275     
  -182.23473981672748     
   31.274986253087231     
  -18.502817433717897     
  -211.76288946092794     
  -152.09987784677867     
   118.19478146029851     
  -9.4111976072566197     
  -1.5578573538575780     
  -18.442282051937621     
  -27.723503559088673     
   58.147746798706237     
  -207.56656420760319     
   43.492636449006888     
  -3.7312733200099446     
  -31.988786369813702     
   127.17255570413521     
   12.096161806596797     
   9.5776273283903031     
   55.924965051764360     
  -40.345419572106941     
  -82.419765431486553     
   82.427273904756774     
  -458.51595833127135     
  -121.57029173114034     
  -84.110378955105602     
  -176.05935397021736     
   45.798006536065998     
   127.22631940611492     
  -48.275068619225010     
  -201.55024169419502     
  -21.154622997302102     
  -319.58856437877927     
   142.76954957552869     
   9.5426773182061257     
  -151.32111103669527     
  -17.230551521850899     
  -11.097413065815175     
   6.3981929580394086     
  -853.41963566145319     
  -349.92786701508533     
   28.346263471415440     
  -125.96177257817318     
   289.55004330076201     
   96.370175699362321     
   98.819080921167071     
   109.06511329804582     
   148.20830269809949     
  -8.0497500542101452     
  -31.217544090576489     
  -42.812619704504222     
   22.368073520692111     
  -138.40389372192561     
  -16.757030739534908     
   46.745789342637202     
   164.82707197443173     
  -25.454527073054475     
   16.076145945649881     
   15.697296681844799     
   52.325372792410064     
  -9.3167918636967375     
   25.596436273144683     
   16.085851232643272     
   22.613256841788196     
  -58.238143237491037     
  -387.74860176833266     
   13.383450457001038     
  -98.962002485572782     
  -106.82445529001163     
  -70.744761521458202     
   6.7805900102216174     
  -14.954696653388019     
  -85.221291649243867     
   194.41217727255861     
  -116.94128544948057     
   63.768407258053593     
   50.478229793062255     
  -87.289118946302935     
  -241.34738880719954     
  -3.6834514842071746     
  0.95923724420265866     
  -114.18192536423287     
   14.599692309942295     
  -19.156711858149965     
  -90.682349907614039     
  -8.4686408965126816     
   6.6015056146351760     
   34.343563180138084     
  -2.1505408543830424     
  -94.899673974712798     
  -44.560555453212032     
  -42.494178943841227     
  -112.41091180243868     
   24.893838478454651     
   103.20124512297213     
  -106.29117945088350     
   56.806340639247196     
   94.263780184131861     
   8.5278110157490659     
  -22.176288548010930     
  -18.467494777371229     
   200.65511269425852     
   128.94577544841371     
  -613.48283213552884     
  -41.315801025646387     
  -144.42554939227946     
   27.499028842681568     
   45.819041089001090     
  -40.801600199531187     
  -276.28389137711315     
  -11.081470911506356     
  -35.856958169490206     
   278.00290480908654     
   112.96581761351949     
  -78.891018350698403     
   236.66664349100228     
   11.770301304918407     
   13.629871219289404     
  -80.442717266501589     
   5.4922973171352618     
   279.47426187340000     
  -138.29881429037621     
  -7.4583883852310082     
  -22.398007305974854     
   44.328904811777932     
  -118.18706308439118     
  -27.807732789658019     
  -431.37714398997787     
   19.707614763419844     
  -333.55270396283834     
   23.386524072812637     
  -63.319668902546844     
  -136.59321627417546     
  -1.4644979094569948     
   121.93474651997833     
   3.8496335409256801     
   85.435613849829991     
  -139.24273424037423     
   86.821357114118442     
  -21.169414933060207     
   211.35758296638005     
  -77.894865054443827     
   58.309481410284057     
   22.943944845150309     
   48.546471301843525     
   106.67805724039212     
   39.730624341769925     
   91.654107385518714     
   120.12987236321450     
   16.607049886603743     
   90.257145214586188     
   3.9679134233368685     
  -97.412831296688310     
   671.07263635203287     
  -35.442603620185864     
   86.067001238211063     
   28.519304744395853     
   241.70270789237483     
  -15.248081845145879     
  -166.04229322336624     
   66.748069113949086     
  -102.02692431547952     
   23.812328447661923     
   429.20887422986056     
   13.200864856030702     
   1.8517039267449749     
   171.65080923958197     
  -140.90305191268376     
  -148.26838150689181     
  -34.876532089820032     
   61.541090890237349     
  -21.190649762174274     
  -62.182210973748987     
  -28.677564946408484     
   137.78902856608050     
   135.53117245940822     
  -202.38571554254625     
  -54.838801346229076     
  -85.453974053154198     
   14.579865459734460     
   95.642478543997811     
   25.658050069644350     
  -49.065855648858900     
   104.27425231157257     
   46.082044667118097     
  -381.25630355228185     
   63.291197106506338     
  -40.583285641400110     
  -83.040862425347896     
   148.85512206822898     
  -230.24014001146261     
  -62.667365348792607     
  -13.286824317010321     
  -5.9844968793099413     
  0.25028940913135928     
  -7.4068565691492774     
   65.494884066831190     
   181.70477796780060     
   131.34246100613089     
   24.424528533863604     
   115.16285434601967     
  -238.54658587156246     
  -2.3104159020408277     
   15.137634749776520     
  -124.97524621227669     
   519.65977492923059     
  -51.656329506502118     
   148.95954927418873     
   12.879543383856829     
  -10.734525114864516     
   76.443754232041059     
   147.31111911549280     
   122.78865291649322     
   15.970741910132659     
  -27.016004774105365     
   133.82044604895691     
  -133.70491782363013     
   37.777028409888771     
   306.28741159588276     
   67.569239708858149     
  -216.08686588121901     
   43.653458908229105     
   93.070955382987165     
  -49.005726134629079     
   299.67872157882152     
  -151.39172810673952     
   117.87270654775502     
  -79.092296473931412     
   36.964195145332674     
  -337.96916895367929     
   76.358374746861784     
  -127.45558443914057     
   19.162511794240885     
  -29.251719471928247     
   252.16940983291767     
   170.60589590678444     
   144.86472924824943     
   213.79333762066307     
  -46.299026077737160     
   88.149372282640925     
   1292.0226754919847     
  -182.45177841359182     
   31.842449351718827     
   203.19711223295585     
   46.379896719707268     
  -31.585505691912164     
   271.28564958971782     
  -86.814973323282530     
   58.750098289464660     
  -83.145019464044651     
  -36.969805465377085     
   9.2362516418888045     
  -68.745723931061832     
   99.005784176671938     
  -187.80359116079597     
  -77.780411349576312     
  -73.934606252146480     
   67.796522416796392     
   5.0900441063249193     
   25.141352401559267     
  -36.593091794673377     
   101.92767996947468     
  -21.358814653946492     
   212.94427475233326     
   21.771840550369181     
  -87.578641344452095     
   77.613108180567949     
  -71.229163917860120     
   31.311841358848785     
  -37.511126180483856     
   732.17184367391826     
  -243.26247479005633     
   33.529116685293339     
  -18.284105063646649     
   96.572120481812419     
   232.37513415550819     
   64.290597034646325     
  -13.221365853944823     
  -231.52137839037735     
   91.841486358509471     
   2.7530543301461723     
   5.7800629111525170     
  -9.2720043248968036     
   105.09302595216225     
   80.158359205656339     
  -26.230445018556708     
   308.46561377692609     
  -203.06589212410290     
   250.07993616504052     
   177.83428070114869     
  -9.9136065369726776     
  -14.607627693518296     
  -352.63354776800907     
   1.0982779248448755     
   17.949875087889200     
   52.054883953114981     
   79.475568437298151     
  -188.56509965947370     
  -135.81590881547123     
   307.39906738800840     
  -268.90512523113557     
   11.778027115361045     
   203.83104963445692     
  -161.26582959406082     
   35.413905745578809     
   17.104263314015924     
   36.368929124812119     
  -53.887782804091621     
  -317.34525162064892     
  -55.519033787381787     
   188.13121092932039     
   1.1173135054269565     
  -15.022457252094828     
  -221.13456289560747     
  -13.181930196280158     
   110.07303760546392     
  -53.516609645641381     
   175.42835599870682     
   84.402389689899024     
   43.776512320161835     
   11.299781623216564     
   178.81190754449577     
   261.58508774620719     
  -388.45299532637512     
   12.333043039077650     
   60.850019614019160     
   94.548627952142695     
   200.18087410973587     
  -32.499855591951871     
  -164.93797556281157     
  -527.09063248915697     
   118.29132039952928     
  -81.452521179710445     
   21.381034202491676     
   28.144909778913703     
  -23.489621517238447     
   88.417421454932480     
   86.439690854386228     
   30.021876014946479     
  -72.912677958182158     
   2.8717076939375068     
   84.668617095416806     
  -85.623242273339685     
  -37.493670811141321     
  -175.80529306855388     
  -27.421920713763903     
   79.062248961384398     
   310.82300992680251     
  -29.400642177373310     
   70.438060702090823     
   1.2542281172543668     
   50.193574852565213     
  -9.1483033487388372     
   130.28403846613165     
   302.19938032385716     
  -49.580411037317013     
   2.1997598690203648     
  -28.726561403970710     
  -2.5460577121599517     
   41.116254777840687     
  -45.623313815630333     
   50.404885150769609     
  -71.552718678826906     
   13.702330490181080     
   33.292690704196161     
  -111.09796197495488     
  -62.322066346692395     
  -24.317362316687642     
   315.26168066214956     
  -70.194981452714558     
  -28.107450791299154     
  -23.588019434199847     
  -121.77459812414814     
 -0.49945722233946088     
  -69.330911314043277     
   71.782527131770038     
  -134.19240675013197     
  -23.279079532601429     
  -32.620441782440793     
  -25.094233632852621     
  -15.166094132933344     
   10.035360587698541     
   124.56969370527024     
  -67.131588067683793     
   50.919433270127641     
   23.666998797088365     
   38.107085610701155     
   38.251077750723823     
  -18.946335487602614     
   136.44034910173502     
  -105.83269368189849     
  -101.37241148622410     
   39.501450206415981     
  -8.5527508532184854E-002
   75.900621554443745     
   62.295041004252468     
   15.840872297476842     
  -128.60851436220639     
   195.91571946252986     
  -17.623573163396046     
  -10.309047404248744     
  -16.670304032140532     
   22.564841356997256     
   277.13584443307985     
   248.19087099841062     
   152.12108079847167     
  -251.95792634955808     
  -117.45397865260837     
   64.836526809131385     
   16.980227475827160     
   129.37680558693651     
   54.083106947286389     
   8.8127293568831035     
   1.6732704783528198     
  -106.06258722950888     
  -39.379122178279069     
  -42.771196316277717     
   110.57873470035868     
   206.01296337066810     
  -24.312796427237974     
  -2.7952365207902701     
   60.273858966172618     
   18.216263303981592     
   28.035272796225538     
  -13.284956692990113     
  -48.389241819874769     
   271.43812286296628     
  -376.41702328974714     
  -37.737234353389965     
  -24.337736055322193     
   109.56799474269300     
  -71.323615957035017     
   185.40757421006626     
   19.115727330749088     
  -21.148439471406782     
  -108.62390860341387     
  -9.8235444086519816     
   68.374171126979263     
   19.996221807854251     
  -316.63073157115633     
   171.74396087303685     
  -139.37641240128917     
   2.2219761598665793     
  -257.37541315787479     
   67.785733845878084     
  -44.696373071047447     
   22.294236483533933     
  -55.273854785177804     
   92.695938330629431     
  -6.3645550850797665     
   168.72986568529564     
   50.220443064312022     
  -217.68804635780492     
   23.945856811184875     
  -508.77727813410337     
   25.284837571924733     
   118.46688991085806     
   159.77611919879780     
   38.288444858372941     
   59.985019891855195     
   65.022052306507106     
  0.18750880391955996     
  -24.921865798892902     
  -10.017029643007763     
   12.334366856922342     
   15.836709962492623     
  -40.234205422896579     
 -0.62746592518826638     
  -37.169959280392369     
  -321.91487526906724     
   37.690718771811341     
   12.820531326982037     
  -132.65313399831425     
   20.635439939058148     
  -36.634299159533875     
   66.063248704645929     
   126.58858009600630     
  -78.732089468027780     
   184.17268076125043     
  -65.717599897804362     
  -38.527283326621088     
   41.525404552920605     
  -118.61707545355809     
  -132.73050906617163     
  -218.92447479987220     
  -102.68234920266789     
   72.918889570138276     
  -92.664509231128292     
   70.681862793534066     
  -66.430054362121041     
   60.962553482995347     
  -263.15998124869776     
   110.90641765170203     
   443.21999145303164     
   137.66919310131192     
  -32.226829956261270     
   1.9977182559687086     
   11.253299009804431     
  -30.317108308626771     
  -30.968818359982460     
  -37.870738234545016     
  -124.19187585447922     
  -132.57833368013956     
   39.775720506510105     
  -2.7328912815166486     
  -133.08936811667405     
   163.51589296420019     
   55.930900065999843     
  -26.944309588025000     
  -132.55569264443432     
   31.448136599321188     
  -94.104217931257750     
   155.41577353052327     
  -25.135844387521807     
   49.419948230000820     
  -16.933033437668406     
   246.14697186759966     
   5.1851093648321216     
  -7.1069109180861476     
  -24.255336652094286     
  -103.71276216335569     
  -5.1529605312000042     
   196.56856922857324     
  -2.5831394174263345     
   31.301635670604472     
  -65.691902971520506     
  -212.45119045029918     
 -0.69611807323970543     
  -15.259328721348334     
   46.239654055836681     
  -12.807898561853399     
   61.121768243855975     
   52.301331897664532     
   12.077561094758126     
  -270.08017797105583     
  -21.877057908595702     
  -155.19324041265463     
  -63.711682862609813     
  -4.7116635596204590     
   83.283009588442809     
   21.735061042387752     
  -39.340088923362480     
   31.937967970614242     
  -73.330713780942204     
   6.7974932581883332     
  -19.521212916167947     
  -83.898509626518106     
  -200.41861878352466     
  -48.903580205483500     
  -3.9674698617144668     
   13.086714248721908     
  0.48504345636808577     
   8.8455583040698240     
  -86.836688659019217     
  -73.190795494640653     
  -61.797275399034838     
  -152.87232338884627     
   73.236108565059070     
  -72.253204855475232     
  -12.718951719194271     
  -83.141791398146282     
   96.922782863126727     
   10.400814274738792     
  -7.2934952275223290     
  -81.972642098486887     
  -3.8619437038733540     
  -20.551923687459428     
  -55.353375883736156     
  -145.74676074187840     
   91.286398798042299     
  -586.12012998994180     
  -11.201626720799000     
   9.9828366060745690     
   49.789124173730535     
  -56.447748538265252     
   258.79282477838660     
   5.6055355897266503     
  -87.345469509309979     
   37.560181333985099     
   150.66075840603099     
   11.655739052077628     
  -57.717740385758567     
  -202.64111291327285     
   38.449357953343352     
   2.7563340497323487     
  -232.55341501320586     
   433.79333820925126     
   54.648697270195370     
 -0.88247740017761633     
   18.635681617789487     
   352.73832768897699     
   161.79521483426672     
   74.294340340658437     
  -56.383348897701090     
  -65.201828315616240     
  -302.70743675653864     
   36.445206153697619     
  -128.68886966194071     
  -136.92646601036381     
  -89.979835710573539     
  -62.493561639868616     
  -188.25469530636050     
   70.614092334544452     
   86.988999991639602     
   28.659360351163144     
  -15.440860217217915     
  -58.411869175117566     
  -36.443402048010313     
   26.261824060528607     
   17.740306222186305     
  -105.18321923473410     
   54.251845051032845     
   47.762874892224531     
   67.637280629321197     
   6.9601307645203621     
  -22.772286449528508     
   60.615523493223513     
   278.97826329853700     
   322.19390505983165     
   260.16857551987306     
   87.467924953285234     
  -126.69335716131691     
  -68.226168101206994     
  -262.21250119968670     
  -282.11194328637851     
  -227.18644562408801     
  -5.0501895164023711     
   61.855727582092236     
   21.905575256027060     
  -116.96152822443213     
  -122.39855590319699     
   149.81939899110384     
   4.7520019354302399     
   35.034176380553419     
   131.23377952372394     
   52.682803548580580     
  -181.38853837812749     
  -33.454392097789665     
  -302.59517613987259     
   18.199696635783589     
  -101.30925718157036     
   16.303310453467692     
  -83.387198280422098     
   167.69720569534289     
   27.464617992747794     
   1.5140002231885537     
  -186.37130869570282     
   23.701494854555047     
   147.84787389607706     
   21.093217106546252     
  -13.372567405289143     
  -4.5786051438561461     
  -58.133319649723404     
  -102.82797183731373     
  -68.309531781036966     
   73.249203532915757     
  -70.319216752279218     
   63.259014760771564     
  -8.7722028932168907     
   213.98073898318643     
   23.301524713783056     
  -87.271840749258516     
  -34.565928498228672     
   118.59416406638319     
   49.456492380699842     
   44.912744378190887     
  -119.36939694891406     
   63.853798946421513     
  -60.761496574888227     
  -200.70795403588866     
   94.838552075352652     
   109.55209860400932     
  -136.61486277705126     
  -114.00618139857400     
  -5.4380954981659082     
  -5.5096369277370547     
  -49.281867235937035     
   70.686613386636935     
   54.725130852667569     
   48.965266287481469     
  -354.66049065064669     
  -90.418235487904525     
  -258.52585418295695     
  -502.54247657911026     
   55.952244859854659     
   73.410970876731383     
  -225.44648125946111     
  -32.057349722726570     
   136.09559983699859     
   3.4277839744758074     
   170.77077282011462     
   69.243490471889800     
   17.548622205163436     
  -18.944201891402166     
  -120.57771403405948     
   65.935271441245789     
  -243.04980614747467     
   6.7253400478287269     
   72.870864732821445     
   13.491615205269081     
  -106.75467985725544     
  -107.17573822825292     
  -12.500060296465852     
   10.851452745547084     
   251.64844597494124     
   112.32626675378918     
  -288.75199806987308     
   208.63456200577426     
   42.645959562801607     
   92.940984175029357     
  -43.418700133235390     
   189.24533908850069     
   99.094407179934635     
  -11.490176512855143     
   4.8084843829896169     
   77.940786176331059     
  -15.029616664131430     
   117.40097483764075     
   78.342180198418689     
  -394.13965789798073     
   110.57520835184597     
   90.757614793543638     
  -57.539066496900425     
   19.948814307242600     
  -9.3682787312562610     
  -300.44392674885023     
   239.75303438536309     
  -31.014858193163285     
   100.52147171102304     
   146.41751053281442     
   55.338953075191924     
  -127.17807347455600     
   54.670814561015348     
   30.965327774994119     
   159.67988212195391     
   57.751089909504664     
   41.685951495652581     
   342.17417060213575     
   307.61957104506490     
  -234.07851074165447     
   25.008343571852297     
   18.192557615376355     
   37.034927061165305     
   51.635329751030341     
  -16.190914558864122     
  -49.942605155261305     
  -165.85831605111062     
  -396.71859316638796     
  -39.311879824040027     
  -40.372833789687448     
  -54.721933843544221     
  -5.5616171110610733     
  -60.480539929250916     
   43.607613842117253     
   173.75087512017967     
  -53.205625063892548     
   28.234527605600874     
  -59.391802362365347     
   41.356130015318314     
  0.87768218383246976     
   31.877637612682403     
  -47.658389650860919     
  -158.08170214757118     
  -62.594696547621723     
  -38.696167312842604     
  -71.557801453536925     
   23.876041015715913     
  -35.633802510895613     
   9.6411285950494250     
  -216.24747757586431     
   16.457572206059584     
   29.253075286509297     
   17.954261681851648     
  -159.02614997937326     
  -403.64689805869358     
   26.394775171052942     
   85.518059123789428     
   54.318250042057635     
  -37.695159442317618     
  -246.86646206552527     
   222.22128700457318     
  -5.0655635870235098     
   15.299109533123225     
   55.406165972055284     
  -48.510053283984526     
  -91.334671191161377     
  -3.5000632755368142     
   42.690243462552580     
  -35.289214591264127     
  -26.126237297096296     
  -21.214810217906486     
  -86.038965539971315     
   38.125258591494671     
   5.1020370789003735     
  -111.43733452414038     
  -37.469025132617574     
  -158.41160899826539     
  -2.5316303325667344     
   6.4934313100603038     
   49.925670272092191     
   20.935020889895060     
  -201.94740869139042     
   361.20618609767808     
   57.277824694905760     
  -2.2898460718463598     
  -131.43607379344735     
  -72.175637418053668     
   124.67994325237069     
   35.926162726928965     
  -22.227437651542058     
   10.813056059535169     
  -130.61432755486720     
   26.319758574913738     
  -63.592298258173820     
   108.31579525077873     
   166.41142853101465     
   105.05870599999569     
   52.922135412325730     
  -255.70280121026281     
   153.39724629222286     
   204.83672878586361     
   13.783469732383212     
  -83.373980553669654     
  -190.16273996213832     
  -21.804954582301097     
   20.272502184376382     
  -190.10586310305794     
  -69.559855596639721     
   38.358367179524528     
  -253.54162052580870     
   10.081796741782403     
  -57.301592186136986     
   119.79029995911245     
   24.539414120918110     
   77.764324713130534     
  -3.0540632096427838     
   22.545453033113926     
  -7.0792324758129670     
  -9.7500539445380436     
   3.5926753173591091     
  -57.881190722295443     
   43.880844666309152     
   99.630519544772937     
  -427.55510435567953     
  -48.999364949141842     
   75.415110703616463     
  -296.19299831514354     
   20.401318044666187     
  -27.843576702059160     
  -18.506117625814106     
   7.2821840919212395     
   18.483902632921573     
   6.3610179923021288     
   111.74031328325357     
   16.233906453308791     
   97.304663906229266     
  -25.339130237629139     
   174.21162688625409     
  -56.769670327125475     
  -124.90858238217852     
  -100.44889488984165     
  -17.201658375274409     
  -50.188076933022053     
   280.58386043283213     
   54.081981620155851     
  -73.032477981186034     
  -37.245913572329052     
   21.696354437717432     
  -5.3669721342436238     
  -57.301964204935857     
  -58.773473834153478     
   116.69022784629442     
  -125.87912953575707     
   24.232335798951659     
   44.376404199354383     
  -51.516007880474625     
  -44.358690446940265     
  -142.61454432272981     
  -13.451906465232376     
  -267.60895978099285     
  -57.192635989871498     
   79.398714922580680     
  -36.678632734760669     
  -87.048827763646926     
   33.478868745178012     
  -469.54886948356960     
  -208.63697332515457     
  -78.553848798982017     
   50.615813126637583     
  -37.660359902599104     
  -268.90945256262137     
   7.9593781511269439     
  -1.6319010322208320     
   199.49583803208569     
  -59.628131539298792     
  -31.312359038040398     
   100.72186404737153     
   497.53679420955979     
   21.010952034403726     
   40.252780087044933     
  -31.075957772823152     
   29.310417071236301     
  -10.749297973538598     
   122.54527147981403     
   52.669666113304089     
  -18.778258557748543     
  -17.139243865408044     
   75.721120488525074     
   48.411015686007509     
   62.922615312464117     
  -48.392556274367202     
   117.87992424129493     
  -141.54366135607827     
   61.115263208265375     
   292.99333402139200     
  -35.535052621431340     
  -92.969323318160633     
   220.30275882156610     
   25.980900358073598     
   125.00726693752893     
   38.412132961572198     
  -66.551964302645999     
   45.874632891490606     
   207.22153808786763     
  -234.18980753827279     
 -0.97943990888886567     
  -277.73057834762136     
   148.66031416456011     
   263.47638059168952     
  -44.530986247096870     
   15.482312536500029     
  -57.279411712636744     
  -253.38173994186917     
   44.805318825524012     
  -220.96303681795430     
   66.390704077628811     
  -13.040425432453475     
  -229.14229147159392     
  -78.126531287621276     
   13.133385873084992     
  -62.394567932027641     
   30.200823763817393     
   38.752711891577626     
   74.204739409773978     
  -32.977015152870699     
   2.5627429801329105     
   188.02247365958607     
  -99.360211488687597     
  -37.283192843507450     
   314.61607039270240     
   39.229992153703712     
  -6.5389870589273187     
  -126.99948735232807     
   227.15536914908535     
   74.603564651161534     
  -35.922978609686972     
  -14.289358784792761     
  -9.2461834440988717     
  -114.99815981722583     
  -35.886007203295520     
  -23.696964785949511     
  -36.145359110307510     
   225.32619113182074     
  -88.670924757049477     
  -337.62001903273500     
  -25.415599095551894     
  -14.247332995259308     
   68.123139126490585     
  -20.384705059622668     
   130.43429924865293     
   82.079843790151301     
   126.35014898168127     
  -271.44649724355548     
  -28.982278581107199     
  -71.651167404503269     
   178.19242529544621     
  -48.231313685074817     
  -257.35686436314660     
   79.549666127582043     
  -9.7075350668189522     
  -57.321416236635201     
   48.584990860268540     
  -89.848301539060813     
   68.662016201832472     
  -61.829064879766712     
  -21.343972598434458     
   215.74796588039592     
  -103.97400891205828     
   13.351168326570152     
  -7.9861776020731012     
   187.77548902878425     
  -509.97525365290841     
   246.20016762642530     
  -64.913563781463452     
   50.766234876447179     
  -56.244896344524498     
   33.921831475843803     
  -34.975043225236149     
  -95.230898846281377     
   2.4346910132509954     
   55.615348913447988     
  -50.349494986706873     
   52.586155482372291     
   36.643040799359262     
   151.62203210459958     
  -337.96392085329791     
  -221.74750921653632     
   20.598118369992395     
   6.8279908263066602     
   82.012742070617719     
  -1.5027811514645291     
   83.238847830343502     
  -90.069572004627190     
   19.866069887997064     
  -57.257140176582880     
  -110.16748122706147     
   130.45081812910013     
  -16.131445615937817     
  -42.473912551902941     
   23.665628851514487     
   21.461139417351138     
   151.73461236820125     
   2.0613708144832641     
   98.779274027330487     
  -52.386315455622814     
   125.12328630446724     
   22.165098046527145     
   35.166448252350555     
   165.66112091471607     
   22.021142282223582     
  -116.29612688609592     
   131.12826615347524     
   15.031166884979701     
   25.136676926459771     
  -5.0280426094701740     
   2.1147495207693714     
   585.41523125032234     
  -74.740202888778882     
   70.754806445141597     
   83.674369182189480     
  -2.2552793568692113     
  -63.806662948314212     
   53.319610101912730     
  -34.491614776035874     
  -46.800248484875880     
   112.27725713230721     
  -7.2356777449203689     
   18.714618694688433     
   13.499200073510119     
   12.435233590001580     
   17.726468021526919     
   31.139247543607262     
   40.907721052850938     
   43.571001922502774     
  -20.249897742960059     
   70.383193519312385     
   1.7039704787747780     
   34.285079548862356     
   72.231999227420673     
   87.405852884765196     
  -77.176048794950219     
  -15.701342926237663     
   21.365884350028985     
  -15.013479036951662     
  -98.392610886124800     
   86.638598209017559     
   35.719940263402869     
   190.09812018731898     
   66.816543228630451     
   42.831412624644024     
  -149.67656404921476     
   110.81796599726674     
  -4.9102922559079563     
   15.796037791064430     
   250.01476420417910     
  -31.179391561828378     
   136.79209506660831     
  -36.212662435669820     
  -208.72154132242292     
  -36.924251810825083     
   82.097181441658691     
  -225.27164582599809     
   120.39242458063158     
  -53.713706047047971     
  -45.137433574507213     
  -30.996014294974778     
   13.206637830018872     
   45.417062648649797     
   36.309468249295264     
  -106.63634758690067     
   117.54694099369996     
  -69.010355500523687     
   112.99671006602151     
  -124.24257748172775     
   39.078022077451848     
  -475.04132133069976     
   99.188006310339418     
  -36.197359628476391     
   42.176150661307595     
  -13.731354790751025     
  -311.64259036854543     
   312.83112370094335     
  -124.18920392089844     
  -108.65955445225684     
   60.632038296433571     
  -178.02428587664158     
   65.717733263492036     
  -34.034203616462186     
   141.98545813364404     
   264.96149890105409     
  -27.408901641160856     
   44.651037747725333     
  0.29320242224667581     
   127.81731349376908     
   19.539892431216739     
  -20.994626996982785     
  -42.673548460001768     
   29.228936407775151     
   28.260687159368832     
  -62.099117509465927     
  -11.990004501155090     
  -43.407933252282717     
  -10.999470661518963     
  -71.469979536731302     
 -0.74269809044684387     
   85.765456959661435     
   67.809116155793575     
  -204.58837651679707     
   79.745481541503963     
  -108.61708195367764     
   91.144519234267321     
  -44.860632353085443     
   377.09787708197865     
  -93.073967974141169     
   4.6982313579564519     
   211.49799011681438     
   40.377516606489024     
  -124.17319633785209     
  -221.24268863193191     
   549.49920906745422     
  -41.657146987535185     
   46.510459153395288     
  -116.47622102059836     
   62.986273121761528     
   71.365803822688505     
  -43.465796126476548     
  -130.32540531231191     
   315.27936379133712     
  -16.832421351292577     
   2.6582754556380301     
   21.277017018836503     
  -171.86990214450623     
  -33.388455116425007     
  -38.574028074031347     
  -61.926317509769945     
   111.93099466478165     
  -24.655563613697321     
  -18.200399493263440     
   141.45798247967181     
   55.414820420149020     
  -11.083907922745798     
  -243.37414135582404     
  -96.364082806936437     
  -24.040298097686918     
  0.84365867464734112     
  -117.40744787602928     
  -38.683256391888499     
   6.0152331488587913     
   59.606828274218401     
  -112.56750062177316     
   34.291057306461340     
  -28.746892391557779     
  -6.4410353401314495     
  -56.478827633661687     
   51.773610975199531     
  -184.11101897221155     
   141.89395655412275     
   114.32434641876333     
  -18.409061445649176     
   59.737396614691306     
   43.097729775592754     
  -41.745699587218908     
   114.12992695055529     
   276.53181208715421     
  -106.79814263020573     
   127.70162219167338     
   25.847749082723350     
  -28.083618071028589     
  -160.20705819798491     
  -37.813820449349627     
  -48.500725203952221     
  -145.24704599158537     
  -24.713311525229969     
   78.625572414662628     
  -38.097196929558415     
   100.89996290447390     
   36.570636703700210     
  -49.300035287914575     
   49.312376414994603     
  -152.85918889333394     
  -29.610399535695741     
  -121.37710986943630     
  -83.099371060171421     
  -6.7770716900319403     
  -266.94606817988608     
   98.877379063418786     
   6.8812284119539484     
   49.724866784338822     
  -4.9953146073288357     
  -10.080875491040842     
  -30.945926792257634     
   87.478967564624980     
  -85.979463279411164     
   201.91347255103202     
  -3.7939405046588024     
  -35.685448546983437     
   182.80192382754538     
   24.461044194545423     
   244.42610612810685     
   17.749946721656816     
  -15.167096307170766     
   71.498692508155301     
  -23.869758996199476     
   31.996053394666902     
   367.63493506081358     
   457.06623015204360     
   92.957960750132003     
  -15.889839357180117     
   269.96346793902427     
 -0.33641089174927896     
  -215.08408753509261     
   165.61276372034604     
  -20.504628561314224     
  -165.29365534917775     
  -3.6703514790679765     
   34.641906292880073     
   26.130273755764595     
   64.447394432892395     
   169.86005066661443     
  -53.070469754736294     
  -333.53916107266764     
   188.35093479805118     
  -3.8585626764124603     
   55.854173590687672     
  -15.126849155002281     
   68.296910022111746     
   105.72732921281656     
  -49.703388181294329     
  -44.233206223699966     
   17.975138820980018     
   310.18167365610105     
   108.05993351091865     
  -4.8910085691261855     
   89.019990069263031     
  -3.2265913307424161     
   71.133624892991023     
   237.31189011632955     
   13.448807777576608     
   80.174607592155823     
   60.217646114065779     
  -104.62998514673714     
   16.932277454989205     
  -31.160606848383523     
 -0.17893361276403219     
   16.224448147828767     
  -36.344575977157881     
  -42.032804547371335     
  -88.427112680151083     
   16.109096607501272     
   71.980601911751890     
  -85.482323593132492     
   12.012711203031531     
   45.855029453654893     
  -56.183625174251944     
  -29.808190286776480     
  -40.013523671683025     
   50.299180771709786     
   125.52109878352428     
   34.376104337231411     
   117.04278954388708     
  -1.8849082710940979     
   185.13240402424387     
   175.44899265189844     
   220.37025866511183     
  -153.64707890620713     
  -14.425113947116795     
   111.96486981492173     
  -316.55870199789609     
   98.594882561122560     
   4.1916932960371138     
  -174.33489730239012     
  -166.84797821094119     
   30.350621357673432     
   60.747156619721508     
   20.888464142942183     
   388.00856505043782     
   224.74351778601780     
   37.300416280832266     
  -39.438985056690669     
   61.451637135598808     
   118.88871901443298     
   221.22949048975599     
   117.61166060302267     
   54.705300584932132     
  -83.811771542560564     
  -119.01814782771729     
   13.223407307674252     
  -108.92883433724012     
   14.580366283025695     
   101.18849827083885     
  -259.00132082953871     
   75.516526239851800     
   53.435020826430616     
   189.57026711017514     
  -177.59645448931192     
  -1.1290648289690579     
  -9.4504294581828141     
  -125.80931014601256     
   67.100201381311379     
  -65.312894652263623     
  -33.985495652008922     
  -74.240087984466015     
   6.7146812426294424     
  -110.30825138235238     
  -156.25351375865046     
   160.79393893307048     
   61.328208649087891     
  -76.259308684590806     
  -12.327903225595779     
   117.16970270618440     
  -90.498477002463019     
  -29.739471878722771     
  -23.622116893360772     
  -4.1627839907194755     
  -53.524612001432175     
   61.944889987111523     
  -24.812689046772078     
  -21.824055500797815     
   106.60379956052164     
  -49.480182025700941     
  -93.024536363666257     
   4.4980738008580818     
  -73.081238923822255     
  -102.98328960812535     
   2.2201852472269534     
  -33.545709271430226     
   25.239375912486473     
  -102.64485914274117     
   78.942563867603937     
 -0.72718029060891465     
  -99.379046904328717     
  -31.634245261073239     
  -149.35688096858038     
   46.915791853501283     
   228.78080454852164     
  -288.77769178444254     
   38.635837249754886     
  -35.316291268971739     
  -82.971460908931121     
  -17.490707440649032     
  -76.817889064189472     
  -38.427332971162471     
   20.496322605143835     
   1.7516449892883881     
  -344.07785169802258     
   121.07720650383203     
   353.12148941638162     
   43.011892036242699     
   35.902925498980380     
   49.120275607918110     
  -18.355395650821389     
   32.661124765073303     
  -18.788333130338135     
  -36.703896270727618     
   127.70429825642901     
   96.791753578933722     
   20.022714739520197     
   16.695985612266711     
  -23.341658564401712     
  -43.121656712937096     
  -166.23737184154879     
  -112.77477261004040     
   10.526176394183436     
  -7.7884608594730818     
  -254.83997173723242     
  -30.227319583907036     
   25.910414668407526     
  -142.87620100781484     
   42.081466774648419     
   5.8347266003359826     
   190.14291516575651     
   32.458775611473250     
   26.618323710584185     
   21.975352657616178     
   48.805565950688681     
  -26.570147966514192     
  -63.024636982734350     
  -114.98431147180250     
  -64.268872493569617     
   302.24920928718217     
   37.640020920100952     
  -45.607086480370562     
   2.4816133427365550     
   29.794038235862327     
  -51.777516901741677     
   60.228589532904735     
   104.28838223220650     
  -66.337164811580948     
   26.317883263235721     
   79.778488716396438     
   24.574573501816399     
   39.236800076547269     
   188.04624119395527     
  -24.019495515338562     
  -181.27978671604370     
   191.55337895215609     
   326.27663554678901     
   6.3189911171458668     
   92.125684368452312     
   36.527412607870083     
  -37.951620837613746     
  -146.08301762268420     
   191.82096364863131     
  -2.5364800550416162     
   34.694615674316914     
   39.554365065186659     
   141.21934712005859     
  -17.104359249155561     
   155.19066009350954     
   1.1159077521810723E-002
  -325.97907938911396     
  -73.392149153916137     
  -54.251600051983608     
   141.60957115361836     
  -88.391788844528492     
  -30.716206531721063     
   41.908071842153269     
   334.08798829936381     
   287.34242428526971     
  -46.370196230899566     
  -96.341819060871572     
   49.237593532121480     
   71.366871877911407     
   27.295157887642265     
   173.93203991517032     
   1.5231253905608728     
  -45.770009141815500     
   48.326429499510972     
   62.242035121310685     
  -57.078849813102146     
   50.844675180317999     
   164.01268570854378     
  -18.570919009029215     
  -25.026074671645919     
  -23.516121616448235     
  -386.29425794582403     
   21.037486697808880     
  -248.80321056696172     
   68.848339566536609     
   20.520826991742364     
   59.522541051872864     
   126.66854040131949     
  -54.548871551794115     
   14.718394794104672     
   2.8426364041725747     
   9.2752030240381398     
   109.48790140714273     
  -308.22181719460781     
   10.442462626464367     
   366.05596670826594     
  -25.149875694526312     
  -9.3962253550237591     
   96.742694214839830     
   97.912212395756342     
  -92.726058365648285     
   14.652599248546368     
  0.69616097396086629     
   86.484213256094122     
   50.728013151971510     
  -96.169008276126831     
  -213.24386570599080     
   28.979463376447089     
   25.101640256043229     
  -30.181772179604732     
   57.369537021744712     
  -26.379243853994112     
   37.755760699693610     
   45.315870812226265     
   15.421536229726641     
  -23.032821116035908     
  -26.447923931763533     
  -104.26642965956439     
   1.8476984638340364     
  -125.31000543995741     
   227.45328750977257     
  -44.284289628513349     
   130.61015175589841     
  -117.93357610436492     
   330.59173220946633     
  -43.228820696775678     
   33.271604078988581     
   6.2022468153645676     
   422.05554524706491     
  -254.84157256081951     
   281.71554593888499     
   45.729638667243144     
  -207.67254195728637     
  -98.744196558055719     
   17.815890716626512     
  -42.292753383268000     
  -22.542089584060630     
  -36.700011672351962     
   103.48801212372754     
  -121.69575513338073     
  0.49987619798305261     
  -27.570987768566226     
   54.673803466417922     
  -131.75782771259918     
  -55.229904652505034     
  -214.73338495794403     
  -28.105710797199837     
  -154.09614075222166     
  -267.23475753424924     
   23.447221009915502     
   24.420157407257349     
   38.502530743563447     
  -63.051829623044952     
   76.730419236058438     
  -40.323153006211044     
   9.3909503372575234     
  -75.226244493546645     
   76.113719944079349     
   42.142392716189313     
   10.488308127557815     
  -266.37148313991406     
   569.41408287089098     
  -14.878232503537840     
  -28.233443382173583     
   48.767388793471703     
   96.588757285953164     
   107.82531221171197     
   92.022836678624230     
  -66.090906817587197     
   69.332565749708749     
  -68.051758940074492     
   39.329306595885832     
  -63.688991765395713     
   23.106358377578566     
  -18.268732848324419     
  -48.825446522368850     
   66.779919191264511     
  -216.21187074825775     
  -31.611270304999024     
  -30.457426123077418     
  -64.048756013892870     
  -75.742219505638658     
   37.483531729760422     
   7.0528646389015410     
  -36.386774433207336     
 -0.74433736859354571     
   6.7358909442195944     
  -67.164652581688443     
  -5.7486427822573187     
  -2.4181756506887382     
  -48.979697341815623     
  -38.418620921376650     
   106.81228228046902     
   39.602502015018544     
   49.068779157071667     
   23.420213449761427     
  -51.796965101798179     
  -17.696082478731206     
   51.700865095618795     
  -54.554162629691838     
   94.155790963852979     
  -17.238162532392554     
   15.851952319573018     
   5.9567602655085832     
   15.110067948121648     
  -20.798141932183878     
   5.9112124569607856     
  -11.284507092463027     
   105.36808008064416     
  -136.33406349813981     
  -26.586401598039028     
   67.246162045739908     
  -3.2777397510749924     
   51.583224717907463     
   10.737371417641612     
   94.664885847643930     
   36.969761821487083     
  -36.363033293135018     
  -34.247960752662294     
   154.34940460573287     
   58.428819549630902     
  -19.274729725034355     
  -33.406451864653810     
  -88.094946859571735     
   385.98274477017009     
  -112.63076007780657     
   40.598654896033359     
   21.687651915605681     
   4.2359508884753803     
   38.060406181992079     
   70.811800455722206     
  -2.7349859645254067     
   84.909984392583524     
  -22.150390290144429     
   78.526115821855086     
  -19.357864745487412     
   38.446281707146994     
   49.127692990117012     
  -44.794749824577359     
  -13.929746901792148     
   30.247780278422159     
   14.766280118114882     
   13.599978538408955     
  -247.84758903464464     
  -84.879743681849689     
  -10.560261568443000     
   65.776870149565127     
  -24.037151036863758     
   95.578184417619696     
   71.851929194419426     
   21.049115450772415     
   44.802147352418771     
  -122.80214756251000     
  -341.56768906742354     
  -52.649943869129849     
   24.603314426255796     
  -50.026255069989709     
   17.700370997880029     
  -74.452134256337573     
   94.996722376532674     
  -23.978163462711834     
  -20.963798840307504     
   46.763368013532173     
   6.3015505669531793     
   112.02199806320077     
  -68.724082621428380     
   5.2492700856864198     
   92.679671200632683     
   29.404932807479376     
   87.258784499372382     
   20.050737652144939     
   21.189037852496980     
   52.853658194718193     
   4.6097815083594345     
  -136.10977728923709     
   5.4894303955355044     
  -84.580714904235904     
  -70.296855844851081     
   71.232141900320471     
  -17.279723857927948     
   103.20674911365415     
   135.05315830431780     
   17.515777400282911     
   16.631086275825687     
  -323.96776730319999     
   22.717663733904512     
  -50.060232788105807     
   7.4419308481095934     
   8.7561431550855744     
  -60.364464050716144     
  -49.500071387754133     
   61.649100260683504     
  -109.73681417399274     
   98.438104798474257     
   6.9256818779532718     
   117.13300400329327     
   35.936127336803139     
  -11.927980582983647     
   11.955275810769246     
   79.510108661794590     
  -7.1490133889953116     
  -72.042287661007009     
  -84.256092168702196     
   4.1498041342675762     
  -7.4059207691249567     
  -76.702621217738013     
   123.67487917383964     
  -159.77427773994597     
   46.199933065676383     
   33.919137738905576     
  -235.00787031837490     
   115.48904928944722     
   59.474413563562862     
   82.768921335770059     
   39.178992537246884     
   58.878694334384306     
   19.816647230991205     
  -322.72736454786872     
   3.3451779900276364     
   73.619994677466252     
   27.023042368132973     
  -58.832767659702313     
   191.80823699050976     
  -120.19500237164448     
  -263.43389836430856     
  -217.58265501417188     
  -81.971170750680415     
   12.810730900053537     
  -184.73587965231116     
   273.43605272758259     
   191.28034655317728     
   98.291162722590997     
   66.254324504199190     
  -308.77269986353139     
  -17.192203758609356     
  -11.552422252594532     
   102.10590301225791     
   32.285176489537697     
  -12.304570664058790     
  -66.345045097586265     
  -15.506941870229102     
  -21.167131481000421     
   6.7171063451606097     
  -17.205066027283308     
   226.06375958953308     
   86.523782221756719     
  -47.598034758666287     
   27.237736512572472     
   72.628979044817328     
  -411.84517493179237     
  -234.34290992305617     
   16.323914081484261     
   43.686943511974818     
  -91.981139196687877     
  -243.30135404070901     
 -0.53429383270867470     
  -47.278695192530684     
   77.999259887679074     
  -12.315739163830235     
   6.4538449400317077     
  -6.9742634478201930     
  -79.887508452035689     
   22.860378310164325     
   9.3106641963918939     
   14.106886521596779     
  -223.48196319354150     
   107.90811818906380     
 -0.42848045185137984     
  -19.263525119176414     
  -136.62286053641500     
  -193.59113221925364     
  -14.190154006246892     
   5.9505983277818419     
   44.141507267536426     
   260.57338835221395     
   188.58845897658887     
  -20.607641441587138     
   146.10541450627321     
  -160.92307592721275     
   1.5975491202313981     
  -47.181141149819432     
  -25.015675447728302     
  -305.02408510911692     
   13.436908363533810     
  -116.87769174559730     
  -91.278085949963909     
   81.464373884117620     
  -28.711281902834983     
  -93.006144737156461     
  -68.382380683669325     
   413.69474536620629     
   128.04407449124622     
   74.369999563297739     
   42.810230816395404     
  -16.247600687247434     
  -33.256620165809686     
  -20.870259672233033     
  -11.688450200683695     
   131.94941217262775     
   57.721029843594302     
  -12.327929640685859     
   144.64495212470018     
   55.850176457268610     
  -228.95658088477782     
   89.731881744366078     
  -71.923697948338273     
   186.38022983055055     
  -359.20182861320654     
   10.082565292549182     
  -5.2730463038545219     
  -18.846911510725100     
  -58.330112631164489     
   34.386748664276546     
  -41.200309081686157     
   33.826194082636590     
   637.41327832557715     
   103.31713192302527     
  -169.15422221080993     
  -2.7542708101499267     
  -98.628513367930779     
   132.79335077431909     
  -304.14743496884461     
   153.95011672794024     
  -191.89791849123338     
   63.092843863249087     
  -24.251813156819793     
  -12.629340923744557     
  -22.679022331733847     
   66.558117228081770     
   28.103613896979020     
   57.427773511248155     
  -24.664382860054797     
   129.57562821638098     
  -8.8408996580834476     
   48.400000667651604     
   522.71715942047001     
  -24.729637455781152     
   84.866150971983245     
   145.41451491871877     
  -3.7161615743323431     
   31.090790264574625     
   1.1156522890244078     
   25.504488965078380     
  -61.238988016335675     
   56.616385331456378     
   4.6520956235943549     
  -60.519178940015983     
  -56.534149684952624     
   133.54191903213098     
   24.954222098413595     
  -107.15674315699056     
  -29.368711551360462     
   17.500010815170814     
   217.51117469256835     
   13.288433279027210     
 -0.16435537330671160     
   61.192731929027097     
  -5.0123308065175065     
  -19.289166048085075     
   50.335691290778563     
   136.90906850323526     
   37.468264523239348     
  -4.8237893381603127     
   267.96762095930956     
  -47.333274260417475     
   53.399273875552403     
 -0.29801874840994014     
   88.862521762843329     
  -25.243544106163867     
   39.776107796730571     
  -67.578455780490160     
   119.34556995786623     
  -43.612187769284311     
  -229.71030396852225     
  -224.01436608621137     
   25.679983818800697     
  -58.446106832710662     
   202.47781167236619     
  -50.822434674756103     
   170.30412040288590     
   34.197073438472465     
   18.289672480021004     
   238.91835605791209     
   36.204989175135815     
  -196.68300679410274     
  -507.40268211496101     
  -75.126585338335886     
  -4.3554945356269297     
  -13.995089064705974     
   4.6125503755525967     
   52.873024584702627     
   40.392873618203829     
   51.372873021244182     
  -71.657636947403574     
   34.629967195178587     
   36.346533516268089     
  -142.99152742469661     
   261.74286141998897     
  -11.107996116088724     
   49.363653706318516     
   37.353080771015954     
  -87.663052944959702     
  -37.560780129216830     
   20.662219999757973     
   49.361768529440624     
   37.186207324900643     
  -60.706881243451285     
  -23.653447586835210     
  -106.40156140690219     
  -280.95781449189758     
  -81.658122392583039     
  -51.543086243166648     
   34.547774636053234     
  -46.656597412210914     
  -7.5200345098346189     
  -55.118230340022876     
  -55.565504629160557     
  -29.952599010781846     
   37.844423296961409     
  -322.76529379867168     
  -22.565918173832323     
   15.499541333246054     
   106.18267758772056     
  -25.318134682400320     
  -29.627744625183045     
   28.640053279536822     
  -36.916716177384714     
  -30.383262543412542     
  -15.407221097651956     
  -7.8785512467981773     
   366.40262463260962     
  -247.79142599816950     
   29.092959748477980     
  -232.35991606700605     
  -59.929037439403771     
   75.508700678911651     
  -198.30643515734323     
   103.92637601058958     
  -55.583858061389762     
  -27.409582712637217     
   48.383685765572729     
  -11.432276370445560     
  -9.9411813694174018     
   84.451249759425508     
   154.39429986240941     
   60.179079109511193     
   190.98995045223373     
   110.45290392916459     
  -42.406802556444561     
   222.35700404810757     
   78.547127147781580     
   136.02927611379869     
  -70.773007561707175     
  -37.731784004848890     
  -4.1574607198816986     
  -32.468903487891069     
   75.148165707641667     
   410.07798299545169     
  -11.280026794206391     
   59.299553483052506     
   3.8266248343058145     
   24.311861456381720     
  -386.79636862027354     
   82.406267050437535     
  -129.22347704214155     
   21.980962071271929     
   6.7572478600360517     
   9.8636924541979720     
  -204.97270457693608     
   83.270435639805768     
  -57.221880957286395     
  -33.075713643893799     
  -83.190820770574533     
  -45.657121440145872     
   43.345952417484369     
  -549.26650188250835     
  -27.261506351753830     
   21.816388900906119     
   171.49970760532972     
  -27.671351895569046     
   37.314861024477985     
  -53.330112744566279     
  -33.789560456136840     
  -28.644429504500746     
   21.514389738374106     
  -54.138651698897910     
  -40.132381276873964     
   239.82728833735206     
  -118.67542253124213     
  -285.31578348602562     
   331.49253487022639     
   164.44045915926037     
  -133.44426052118277     
  -75.493244151599711     
  -7.7429626237476885     
   2.2395447830509769     
  -172.00316168601779     
   18.482646151275585     
   76.916450413142314     
  -33.754540780031235     
  -280.85778135618631     
  -49.938565943551197     
   35.739854706701443     
   26.422557736219265     
   176.98522545865347     
   48.326545062556782     
   319.42134574448312     
   136.48488116750090     
   9.5365602147019679     
   149.74784767951911     
   85.398571088904049     
  -76.134259980399776     
  -32.585455969666249     
   16.686439429484871     
   10.601655603199678     
  -9.0398348699984545     
  -89.592658277673863     
  -1.5394970332940756     
   12.701446335338002     
   169.26718414932392     
  -408.53872425464010     
   18.223498776825984     
  -40.377575722392308     
  -67.941658607642552     
   148.41961863401960     
  -23.488825424655381     
   13.467687431391235     
   8.9885320039010175     
   13.027188589336463     
  -137.06230314498319     
   81.193317578082926     
  -171.60341387442196     
  -124.57623992544882     
  0.64009256741700149     
  -9.6440930967873530     
  -61.726863434242873     
  -83.414323446639429     
   1.9966356100548552     
  -291.02747272689243     
  -128.42841652037308     
  -141.79777154191601     
  -14.620953052938161     
  -37.805502031315939     
  -93.613047157358210     
  -85.556269602322843     
 -0.29788515121504955     
  -133.12681498863432     
   108.77293307679730     
  -149.84354671964064     
  -21.362832333534730     
   462.27742953520806     
   18.020543868277532     
  -12.360581875839960     
   122.76153259067507     
   105.40635612376374     
  -153.60110979007294     
  -95.948590568313506     
  -1343.3308343971316     
   32.993965881263023     
   266.20898235149144     
   246.12023734368009     
  -23.364486471161683     
  -22.833344552663373     
  -6.3534294942648435     
  -61.968716507744674     
  -45.515579799808179     
  -188.00916043049830     
  -90.044193884581674     
   35.331254984757010     
   23.840841615712094     
   118.41283886001736     
  -44.438558778830767     
   112.81503413925665     
   72.432754403940180     
   29.354221831519226     
   7.9690931917830836     
   26.419904329932219     
  -58.569518353577926     
   19.016330673736277     
   6.4926169882883675     
  -29.055471255880981     
   58.165381496592438     
  -66.590283416095502     
   5.6326251016918141     
  -31.940583352161646     
  -32.304751378637199     
   38.080106908662700     
   108.24698162716167     
  -151.83174843674172     
  -76.082682031957162     
   49.406131352535589     
   367.16553146783485     
  -104.45745798676853     
   69.588446522202446     
  -129.12769125246714     
  -163.38090325155693     
   1.3230760305532216     
   49.767154637979921     
   12.387019766364858     
   184.89159223696637     
   83.282364194839488     
  -14.345273538994684     
   22.808514581615860     
  -47.646412759686093     
  -42.542877974961478     
  -86.547693020010911     
   135.59112973054582     
  -37.270013919612815     
   11.458127861327867     
  -51.420083654995040     
   64.080250548516645     
  -22.966747240631062     
  -287.96295463971529     
  -57.734947902963377     
  -38.025491727908580     
  -24.157869937880839     
  -9.1886115537764148     
   51.644276436437053     
   117.95095474329824     
   34.712750754625105     
   48.762728381853769     
   48.768891118325861     
   78.978341554089226     
   11.001771257316658     
   12.860427478471149     
   27.769780451412981     
  -35.399865642440027     
  -118.87388382369240     
   4.6784396247957236     
   67.486627658665071     
  -48.028620008026962     
  -228.83487667360109     
  -440.70375767381495     
   235.26337196541576     
   57.120323916425612     
  -28.445597101469154     
   38.038753768063991     
  -161.95752583887318     
   90.647829648290340     
   27.420040400090869     
  -135.74618651672236     
  -5.1424146655397305     
  -111.50939660792800     
  -36.047819410420793     
  -54.584014553592432     
  -65.387383547768422     
   24.516208860139812     
   20.652083445000233     
  -161.83214936681912     
   26.652424905494108     
  -264.89687428822918     
  -20.074806383213186     
  -144.49608838826882     
   36.613785578476396     
   201.48751899582183     
   42.185471143112572     
   8.5672907600692056     
   20.709660145804648     
   45.471874953720686     
  -22.524034813232756     
   553.49164707889554     
   17.832891853740382     
   313.38899217909994     
   64.060340191474921     
  -24.829821417943506     
   87.113243549421924     
   199.22969465249591     
   34.718625725679473     
   51.722005727870958     
   82.431219407167561     
   131.69911906529359     
  -31.363104621638012     
   15.873177037408572     
  -72.298476755315804     
  -137.13139190126444     
   117.82001584232174     
  -24.985864655616631     
  -6.6387105519955787     
  -17.299125667245150     
   5.9734477834717712     
   102.44778509389499     
  -6.8919873743902569     
   30.662114709054752     
  -149.61679250678256     
  -34.173729165505989     
   80.961804267288016     
  -237.70352644516930     
  -57.902741363460834     
   1.5844291866041347     
  -289.64367592890966     
  -9.5311947195329747     
   7.4193605554593010     
   77.277062873950683     
  -99.900793043128431     
  -1.1873233353897659     
   141.50929302589310     
  -51.440598881331461     
  -48.942056380515382     
   24.245412389498409     
   86.872542000218687     
  -237.72272713820229     
  -63.978096792459915     
  -97.020722029547542     
   117.88595634539013     
  -53.523189657746038     
   102.48903387758853     
  -16.862855918633670     
   14.858490093208472     
  -93.934399632813594     
  -23.467369350326265     
   21.276670411953024     
  -149.96923567870181     
   6.2247299287822457     
  -50.822784989129325     
   171.96003866551419     
   271.03855221577601     
   196.31675631497541     
  -62.150017879252516     
  -1.9842985694302813     
   16.535518310341793     
   11.948243000420616     
   107.45274524463917     
   11.413270529216549     
  0.30940148399207756     
  -106.17349229024668     
  -345.15285367257928     
  -77.369060821413214     
  -107.39238764328564     
  -256.08769174260271     
  -4.0158172309133464     
   244.09628519683292     
  -51.664447568070209     
  -25.000792079361144     
   31.227354790936346     
   43.415317596369398     
  -29.576965192819547     
  -12.478447473382358     
   484.81703466519690     
  -473.00479034282131     
   46.816943064710777     
  -22.659681946453876     
   189.74567542694049     
   198.47968383167125     
  -273.53149799153573     
   459.59017270330526     
   3.5589342911163122     
  -119.67528973821591     
  -13.692015874799731     
  -82.196032700861053     
  -103.34098387614941     
  -89.865780090337026     
   92.226340005381005     
   119.27610590587274     
  -161.92785376605144     
  -19.382670419234621     
   2.7101965578536231     
  -74.437366889981078     
  -9.0692251344766284     
   37.074960520386796     
   586.88884537842284     
   22.393132395423908     
   3.9544549091070023     
   104.88550611887074     
  -472.94076520252509     
   630.94304093932010     
  -9.3253765190901277     
   94.832548517111462     
   6.7756815225510456     
   59.064070420448679     
   22.771401026110809     
   53.203928934833684     
   2.0595880689263479     
  -94.356726030189506     
   15.750988095020961     
   18.618633153303186     
  -12.765713996313650     
  -216.61731416737291     
   5.3540359078539073     
   12.772255343005895     
  -25.218957667211939     
  -70.405893409075489     
   264.96846593885078     
  -134.32203972587342     
   80.542269729758971     
   49.612226283389248     
   40.488087747735456     
  -92.078095466084548     
  -7.6233291650662194     
  -10.654235378993057     
   378.88435696478626     
  -212.68716768596963     
  -2.1397110348743733     
   23.248319000412828     
   152.14618536105479     
  -84.880866455711100     
   45.589932360761438     
  -23.564683492764523     
   113.31862087846534     
  -99.436095173574927     
  -27.483873667325248     
  -67.603802822942598     
   8.6848905855595380     
  -9.4857925689515881     
   151.30346372629160     
   20.521423549172653     
   69.286258078071270     
   75.662094871389854     
   16.672003941504268     
  -196.97836409522097     
   64.620327711364297     
  -5.1162673931163596     
  -23.069090135145988     
  -270.17861467540894     
  -91.397812296080971     
  -159.48441601469440     
   41.905644017835598     
   20.440072429504987     
   32.500613541830354     
   123.41253545068096     
   18.518737655791870     
   41.510192718637192     
  -98.341584915055762     
  -50.115787407200486     
  -178.01921242344713     
  -314.95471927114943     
   31.326363892333635     
  -21.962514046260118     
  -39.320567253614058     
  -145.40151644797169     
   225.50054591739553     
  -40.052582858202726     
  -51.561093857919786     
   83.292504858388369     
  -14.720305851914691     
   25.161760249020784     
  -40.950916571242416     
  -115.04141481211013     
  -46.800623750761368     
  -12.092644395119958     
  -73.507781845486946     
  -57.640742680404564     
  -211.55952016995002     
  -74.536486554779174     
  -23.301917176947370     
   87.766819395377112     
   92.990113381434767     
  -145.11005487611095     
   44.646525597259320     
  -1.7777026299224692     
   16.836474488414559     
  -254.48807639966435     
  -154.10249774077829     
  -119.41430622080557     
  -29.808234436977870     
  -71.265970323420589     
   120.44987365108676     
   71.523458834464691     
  -3.5947522598412309     
  -102.83354933430167     
  -347.71677859572947     
   7.4110609762576631     
   227.68038496289998     
   22.337742980203906     
   181.70064578860348     
  -8.2667586415911920     
  -27.299894863790840     
   57.793549814647960     
   160.81156611577853     
  -42.794526889800885     
  -51.876536784611531     
   41.819580919435751     
  -10.904960793838640     
   303.42970372745066     
  -27.273392729741172     
  -34.957151788115638     
  -43.295412109110771     
   151.65232529729803     
  -98.560509690833769     
   77.476130707125222     
  -32.891340794660906     
   169.47136459777178     
  -46.536008173630904     
  -41.034007185002096     
   212.43865748804063     
   216.80776285137472     
   33.541236925748080     
  -49.594012092221796     
   178.10094010891035     
   37.790522684906428     
  -27.274815741061865     
   159.03177300118509     
  -26.027452330584175     
  -17.515252702913678     
