         380   1.0000000000000000     
  -10.435936851135670     
   383.69375521493464     
   278.40855136306425     
   372.55892009352738     
   171.22608646960046     
  -66.063159095672063     
   3.1729298167470894     
   16.298824133868280     
   260.32924837075262     
  -102.93296406708603     
  -78.096204595840376     
  -141.54100356048656     
  -269.62307212108283     
  -165.33329783832764     
   169.62569157912759     
   52.707171831240508     
  -49.471664669888597     
  -57.913324019860973     
  -582.41441110262758     
   33.135454956078632     
  -278.76589294234589     
  -6.4217123214769138     
  -144.21663794391080     
  -178.71684319916037     
   12.545407547186880     
   807.57307827543764     
  -35.452259393768216     
   179.79778593681615     
   29.310602806323686     
  -59.939683444958028     
   613.60893899843779     
  -54.910382161705471     
   161.98337470194306     
  -1090.4542688805082     
   19.219174655619522     
   570.15396450059245     
   193.44552893717196     
  -208.11377448962142     
   88.049907850943157     
  -75.621812381740853     
  -33.040054486008252     
  -61.989829912760172     
  -7.7853694354329646     
   139.22568221272618     
   71.393988041808200     
  -343.54043674157128     
  -54.563460272366832     
   59.985090648391704     
  -14.623813441463135     
  -27.534580293270608     
  -40.628362754799568     
   214.57680845758131     
  -83.314858391489039     
  -92.347542537024083     
   61.555766423491264     
   42.777826704701312     
  -69.883878885910235     
   22.464726258759526     
  -21.800800637191116     
   1066.4670116468926     
   208.93981983217714     
   248.66724956050490     
   85.493934937948723     
  -4.9110096414015718     
   171.78004444729262     
   40.513359063816978     
  -16.974408224418426     
  -91.723465033007102     
  -52.444565996558218     
  -36.525925742029834     
   169.46783133661373     
   125.38852118006434     
   330.31705190562218     
  -498.30471997881881     
   59.101889535674978     
   362.75912179824911     
   86.410550111104044     
  -180.43812577248858     
  -28.887907334058426     
  -48.220452435539272     
   65.350992421481550     
  -371.77350512772858     
  -364.38734475447217     
   209.16755068843000     
  -80.153675107126759     
  -11.141833118098528     
  -497.34130468772429     
   9.7163588041718185     
  -101.22482666864488     
  -109.87818414577528     
  -196.02313550130305     
   230.50537243099799     
  -185.47836575359804     
   130.72231611625131     
   149.91416575340696     
   120.20708409714570     
  -106.49525958741853     
   91.614988696676647     
   5.3985998486079954     
  -61.875109502835592     
   228.84971314011347     
  -44.039135032394505     
  -271.29547508835049     
  -180.92562846988324     
   103.91037865956707     
  -2155.2487132776732     
  -76.321576891776488     
   88.569562271390382     
  -38.004019938564575     
   64.755106125915887     
  -107.27925064573949     
  -28.704426409348223     
  -112.25615138138087     
   56.683577705758083     
  -147.99749525326763     
   480.92637072241718     
  -47.786772445261654     
   19.649494988042367     
   1301.1529517779595     
   12.303331542398739     
  -169.10570556477467     
  -77.505561047276430     
  -50.487392095636551     
  -321.25090549812904     
  -85.116314639939858     
   99.716568027812627     
  -101.77999241813674     
  -303.12645844827938     
   14.006586158749952     
   38.479157607588213     
   35.725847605236140     
  -163.01195005259845     
   422.16492951871737     
  -365.64909726176495     
  -49.086774446684402     
   98.118603718780960     
  -116.44833382119748     
   80.179586689061708     
   57.102488980838046     
   90.918394597669874     
  -4.9992155459281955     
   109.33553322705173     
  -98.087820068726387     
   16.956809292601818     
  -222.69417716769010     
  0.28315833112316646     
  -282.35618482488388     
  -12.006596235753349     
  -91.371254175020439     
   93.873047535808936     
   192.31500926295303     
   24.504924446015615     
  -202.20504070471571     
   94.550598368659180     
  -52.388019265908568     
  -132.90145841769038     
   420.45062198462244     
   50.527180820117792     
   10.572150057530445     
   111.36973066928488     
   423.90214332554967     
  -83.086185709472701     
  -27.921083884842425     
   103.83791788792209     
  -518.15434245874678     
   375.04222423898551     
  -73.282729786187289     
   64.578861864641013     
   7.0031273989997480     
   996.14096068198501     
   97.766159848842776     
   37.689310533029307     
   181.17998827666204     
   19.486146758233318     
  -106.64732816199528     
  -778.23224145955305     
  0.82034693639000444     
   24.352741688918201     
  -12.755141757695149     
   32.758084981236479     
  -3.8404002023927171     
  -132.28451975093779     
   201.98957439126792     
  -122.90092488961511     
   172.98997090518259     
  -36.572325098598391     
  -273.92878611846686     
   319.60454889638311     
  -5.6683510170103233     
  -699.61512326844365     
   917.36296843930518     
   98.845539192090285     
  -75.639552924294506     
  -57.306627815621468     
   261.04290139248968     
   102.36215892243186     
   64.189359294164234     
   165.80500044723678     
   67.272438008047672     
   30.084854220054304     
   115.06506866112794     
   50.115399538707472     
  -40.395857176701277     
   168.39495572872389     
  -179.89199111394274     
  -389.14093733285983     
  -16.713062302934340     
  -215.21680763700476     
   52.206481232507677     
   36.327773788385336     
   82.383284021251526     
   44.667519585850535     
  -254.91220130039125     
   34.276805829312558     
   1481.9049542245632     
   241.92232748177611     
  -20.501777248589423     
   41.320903536695234     
  -28.376900858452981     
  -20.747537946616006     
  -93.781197370225044     
   262.45856767746142     
  -22.769523619764339     
   7.0774730336805014     
  -11.983349735389957     
   60.548408388168760     
  -127.97851235640246     
  -65.193192184122040     
  -40.135094443146528     
   137.47387924517164     
   267.38350790436709     
  -2.5926075179586121     
  -592.28963397851430     
   1.2995160507530206     
  -135.48903410826009     
   12.879654022499833     
  -13.877290955144007     
  -111.37267628781957     
  -92.955977036676757     
   91.275038019000590     
   23.454100602114789     
   78.431034734776404     
   115.07224799693051     
   149.78820660161048     
  -59.996938256775117     
  -12.800211623969250     
  -999.01378631356204     
  -215.04141752032473     
  -129.21251731416416     
   257.51934561165535     
  -138.58145456159642     
   236.13452471019315     
  -19.619508996956732     
   1233.1756210187657     
   206.70880846739723     
  -615.17305632164243     
  -27.085119121416088     
  -29.656687212421200     
  -4.6589929316342467     
   17.201178510047185     
  -19.547720544070870     
   175.79041855079774     
   7.3187799248298377     
  -96.239800423593209     
   36.473835429367057     
  -2.3007615536156885     
  0.69514597456295624     
   85.250012058254129     
  -117.87838442326247     
  -222.44293953511442     
   258.82144220350699     
  -113.55894376156347     
  -17.239905319071717     
   48.532087707212789     
   61.196758304926057     
   1.6978218314066709     
   648.02305129162403     
  -53.973225927872001     
  -19.675403555644600     
   60.167984323133119     
  -130.63377086473838     
   703.14150804596557     
  -94.764261368498879     
  -30.794538545403480     
   174.29252701695316     
   92.402095186940656     
  0.57900816558837453     
   58.448742870180354     
  -148.22174240040246     
  -79.472818442967764     
   17.146813584428052     
   46.871665949064827     
   638.62121943740453     
  -40.120442272833252     
  -74.202985880670866     
   113.12276633630145     
   70.470283795831918     
  -15.554958300845296     
   21.031895460569078     
 -0.68798613405921083     
   9.2020935840545857     
  -48.337927888216086     
  -208.38724947545165     
   81.749577679370404     
  -9.2370218575256757     
   114.86192718751917     
  -614.60263200958798     
   243.08991753236745     
   112.97010125944850     
   12.625451370773080     
  -98.134927627032653     
  -242.40676655029986     
  -224.20897727539744     
  -233.23616853862134     
  -488.49384548488700     
   201.18158749678165     
   35.558963651704126     
   64.105185623482043     
   14.346729943765004     
   69.995631565783157     
   24.826105899089526     
  -220.16321394331499     
   43.545253939438531     
  -50.978191065047795     
  -1762.2599538582863     
   168.55346010695195     
  -30.423582873287501     
   109.18319691122326     
   8.2423579687796185     
  -130.94695840611800     
   64.598533819038039     
  -171.55113807210333     
  -70.502937934128099     
  -33.126137756810685     
  -82.629079811509413     
   71.111639776654997     
  -69.736846342818950     
  -15.197062035177098     
   1926.8708792814450     
  -135.20482620859062     
  -2.0142458079046217     
   53.061743138500809     
   127.83523168947836     
   148.83985408660894     
   402.11790978040926     
  -288.34866719220491     
  -201.51570475104623     
   15.000131195492569     
   17.522962629479938     
  -353.13314182149611     
  -113.41808986759492     
   134.22158038810400     
  -96.101616355447007     
  -21.383466576699892     
   42.658546168915173     
   28.246088135982738     
   86.583487044926798     
  -41.415963098153938     
  -55.247564808661920     
  -54.150475969924585     
  -147.63643021494633     
   16.875874072368255     
  -510.73777971897545     
  -222.08358123251566     
   1.6930905096954905     
  -8.1706854820344805     
  -888.79990850269724     
   16.488039683433243     
 -0.15232197810159565     
  -364.33061495076498     
   521.85020888476208     
   108.85190919961690     
   12.306847936746770     
  -777.79885405423670     
  -225.87507412133343     
   63.058347727279454     
  -16.038302232689411     
   387.45474589920593     
   84.402837217266011     
  -627.64903486198455     
