        1250  1.000000000000000E-002
   36.9268574424319     
  -14.8007767872784     
  -12.8135374400627     
   9.37574607386150     
   185.257799163460     
  -71.1739829651351     
   28.6276812832370     
  -117.204986587922     
  -8.21499400584604     
  -59.8011590691215     
  -183.942587693904     
  -17.2155249081396     
  -20.5425653442265     
  -57.0666957332375     
  -51.2198896224875     
  -131.703913408689     
   23.7225038474759     
   2.26630963382458     
   26.0666481614610     
  -156.986470613974     
  -16.9002701705017     
   44.3784322926264     
   107.293059484626     
  -8.57872013064729     
  -6.06113969016506     
  -119.500068471279     
  -66.2307992992959     
  -75.2160172759150     
  -97.2912294128975     
   10.2121761623171     
  -20.7611131010288     
   51.9451158856080     
  -32.3484648857102     
   81.5233460550877     
   11.0689294698068     
   88.2435428414368     
  -117.871818506106     
   96.9586482200341     
   55.8190915845307     
   14.0830269961167     
   23.5557934365702     
 -0.337055129584039     
  -6.32245419095468     
   294.064408579852     
   26.4249304701646     
   3.66543399375497     
   19.9325999284513     
  -2.39090574278213     
   106.272258990799     
  -12.7346404624464     
  -167.531914690006     
   72.4599533002542     
  -44.1356176545868     
  -56.7793485165093     
  -144.614899041062     
  -5.13921670575605     
  -2.74222014538487     
  -32.0944689946153     
   8.10293929225077     
  -24.1849223264177     
   14.6932731246809     
  -34.9646055686520     
  -228.078032074424     
   8.31088242468376     
   9.08895155138874     
  -64.9272660250179     
  -45.2703143294493     
  -128.989667472305     
   13.5809621557527     
  -7.91243025939372     
   19.9928408959608     
   147.159424245532     
   9.58230556596158     
  -76.2879670137625     
  -32.3789291532893     
   16.7046243932375     
   71.4292617595093     
   30.4622722331575     
  -43.4203730417056     
  -38.5810112319912     
  -36.3028063976354     
   3.77831809859301     
   13.7059467231532     
   11.3395480108846     
   326.808518027505     
  -108.061992002146     
   205.904909253130     
  -8.95087940881179     
   243.331338127449     
   37.4335132667702     
  -132.380233483874     
   48.5316304163012     
  -239.238245506460     
   10.6062903686915     
  -82.5824039014451     
   15.9559479087670     
 -0.849746389029381     
  -67.0781720661041     
  -4.24017064428397     
   26.1490562286981     
   41.7959181848585     
   145.184194292403     
   14.6709776098983     
  -75.2516815425796     
   170.135635890102     
  -4.78642971689674     
  -148.246365692965     
   14.7356518518665     
  -391.183651294501     
   7.71329817186766     
   111.122847477922     
  -56.7452047364204     
   205.798053769556     
   8.46774986040754     
   16.2379761098989     
   58.2215745599157     
  -155.516023325018     
   11.8435704031437     
  -187.597829410754     
  -14.8783815073631     
  -135.649086151912     
   65.3474858895866     
  -185.943687944427     
  -33.0445573000496     
   79.7055561503091     
  -136.192292119326     
   23.2174743195756     
   3.32837630058436     
   36.5106539936822     
  -96.9987026156850     
   41.2940804512333     
   84.8459867304228     
  -12.5339352009012     
   38.0102370230843     
   29.6981404643673     
   105.196932289095     
   30.1518169301652     
  -51.9694125749567     
   35.8928903957135     
   180.957381739919     
   118.284286318374     
  -32.0268806110539     
   59.7742658956930     
  -4.32642071716673     
  -37.1296183241814     
  -12.0166466432546     
   32.5150509284200     
  -2690.75439742357     
   16.6553100649441     
   157.580858072561     
  -332.849519601569     
  -60.4041894983445     
   50.9372373866611     
  -18.5742613614248     
  -1.28882363011539     
  -172.411285826757     
  -47.4284841642530     
  0.153227354914204     
   328.037253341199     
   132.962659466201     
   60.3351237027563     
   37.9764093766910     
  -32.3899801581826     
  -38.8602819821523     
   30.6205672297975     
   111.341770294040     
  -220.487297655824     
  -213.759322335114     
  -48.3605942770305     
   107.109945874739     
  -37.0092245770709     
   80.4095865577876     
   125.294959835396     
  -9.49657344001987     
   76.3078571683110     
  -121.777389232262     
   19.1127449600803     
  -17.0982300658358     
   44.6996410623876     
  -78.3837813051194     
  -64.0204960127964     
   17.9289425541796     
   7.45740958843221     
   4.73999556946102     
  -17.3596871036130     
   94.2133214654461     
   18.5876157300703     
   227.682327724591     
   106.209702140889     
   39.1148405475283     
   96.8644879757794     
   2.68251192953223     
   148.367444484422     
  -57.7183980117657     
  -19.5354960225314     
  -79.8079972511412     
  -1.30517511652917     
  -323.110557122670     
   13.0080900231039     
  -47.4820501263892     
  -185.428323312286     
  -52.5542109812907     
   154.709935146570     
  -12.8866117407744     
  -125.899450783799     
   106.383327459365     
  -3.15263529566604     
  -28.7774252014167     
   73.3095978520336     
  -21.2469993335581     
   105.248762225380     
   97.6955744799299     
   23.7665215323432     
  -115.932761563905     
   66.3306774878400     
  -360.496268997437     
  -293.668235832833     
   50.7646463198481     
  -28.9987439496779     
   277.675623180877     
  0.659931447314442     
   27.4245596032963     
  -63.3749855267537     
   20.6966413629147     
  -146.324077163097     
  -10.6241174478331     
  -17.1554945955134     
  -66.6065542287495     
   26.9972163884030     
   33.7868473963994     
  -28.6525597503102     
  -24.0113396237273     
   40.1405946288691     
  -23.2801701957308     
   26.2385181136251     
   15.6565019145266     
  -5.70450049426052     
  -21.4969179272960     
   40.6475487627696     
   9.71394664113065     
   7.92036755068545     
  -21.3880621398354     
  -15.7468257138102     
  -351.479412452699     
   67.4891412638611     
  -35.8113173438690     
  -14.2499347137952     
  -29.6680802898618     
  -141.400970415211     
   21.7502233295807     
   121.082173487370     
   167.315272982965     
  -87.3101163251588     
  -101.955488363060     
   26.3510699882370     
  -19.6466856439073     
   13.7580411376997     
  -102.668708596516     
  -87.1911673885538     
   573.323246746845     
   131.563645442147     
  -17.3716719614213     
  -45.8628851748852     
   4.35745125169813     
   6.11012774531518     
  -202.005533105200     
   129.681840634211     
  -20.2305050948770     
  -259.004447191319     
  -12.8451384786673     
   52.0923498347069     
  -135.476506188462     
   26.8147102624299     
   7.48652742544731     
  -28.5339529248016     
   40.1022880841652     
   49.0405049603909     
   523.464685006742     
  -7.33051765466764     
  -23.0412213959400     
   53.2421142467846     
  -76.6415595061095     
  -13.4525712026328     
   33.6828285811163     
  -27.6917293681853     
   151.364536495765     
  -5.69061549460766     
   79.7601694682894     
   39.0565324620516     
  -473.175434537757     
  -73.8667927384843     
   12.2066973964137     
   51.2258189859836     
  -40.9439182582132     
  -9.49108367823027     
   131.940297731191     
  -17.3866775517670     
   4.76569380238260     
  -5.61207444903502     
  -41.1650586752679     
   72.3213121932907     
   18.7382973761282     
   22.8333758329021     
   122.880239423521     
   4.92475896582285     
   43.9863549498181     
  -30.9653423793709     
  -75.9278786209452     
  -89.8196526778570     
   158.153663740104     
  -42.2418524746924     
   11.3632076622666     
   86.3693777984965     
   42.0423807052367     
   427.771402777983     
   121.031156921236     
  -35.5689073987573     
   11.1836616302343     
  -237.310626906946     
   217.784301983841     
   7.27870032186058     
   94.1973250257524     
  -47.7040084117835     
   129.767322134880     
  -87.1161472530647     
   18.2731352467437     
   8.22053939164592     
  -58.0079075326305     
  -49.1159108488646     
  -77.3752282180947     
  -93.6358088222613     
   153.124960316196     
  0.541327912038123     
  -20.9639337519769     
   155.277559770878     
   7.36332765478692     
   5.95693522956784     
   34.2317595482903     
   565.187135667919     
  -9.63872001573012     
  -2.38632287379952     
  -189.095110894943     
   23.2739582499613     
   38.9103108012569     
  -16.8907311943408     
  -22.6815063931982     
  -16.0484358327402     
   236.796116227918     
  -55.1063192434608     
  -63.2929626280264     
   38.9826700795786     
  -117.834971941062     
  -15.4306137162365     
  -58.9928929800321     
  -15.5196592692808     
   56.5518726207329     
   23.1667751702072     
   8.77612797680831     
  -3.90974190384000     
   31.3631529952652     
  -82.7709433410293     
   113.370319224651     
   120.406071493367     
   210.033122176035     
  -225.415344166620     
   4.42886608883179     
   33.7720222436100     
  -14.5151115740475     
  -173.425596498150     
   23.3711731275543     
  -225.790448252499     
   19.3675499876317     
   28.1084745375691     
   8.15139049646841     
  -30.3055744284169     
   69.2685231375017     
   47.6570143315235     
  -66.8490583009479     
  -166.413985474609     
   25.6676536559410     
   42.9732453465629     
  -52.3424748117891     
  -27.4367052488004     
  -1.32684764015691     
   312.112766540021     
  -198.195052097531     
   11.8221081684580     
  -9.08169817795133     
   18.6179991278663     
   39.9872707172185     
  -109.354766903517     
   317.219210837707     
  -41.0920169200938     
  -12.1167301986756     
   146.335507551195     
  -251.991574909528     
   41.6963412503505     
   96.7057873599126     
  -8.97478054960007     
  -264.404927677071     
   81.3681444608923     
  -10.9745565254854     
   36.0632796424259     
   15.2260661257677     
  -34.3431593923568     
   35.0404238318165     
  -144.894113813145     
   21.8014562195586     
   55.8208617617838     
  -136.665816261903     
   143.283456412080     
  -43.1114430481871     
  -6.13264921561743     
   3.85267468521232     
  -7.90827381868048     
  -30.3575997679127     
  -43.1771063392971     
   130.909179672243     
  -85.8455997652471     
   24.2770417951782     
 -0.394649527187375     
  -36.6752507413539     
  -37.7211573070143     
  -1.10846048510233     
  -78.4124302725668     
  -25.5049031241605     
   175.648333808983     
  -23.2483650417884     
  -83.1950614859348     
  -331.216583286692     
  -17.6378595326167     
  -63.7896054622433     
  -16.9614240452440     
   9.78348129527515     
   8.75991532622583     
  -122.277401804654     
   221.457928737144     
   148.109000917621     
   55.6142593862287     
  -12.5952077446423     
   65.6643939621710     
  -59.2930529646894     
   52.2719750312752     
  -22.7099318959501     
  -58.8491091887668     
   57.9346523016433     
   59.2916892001566     
   7.45795008023142     
  -504.303098227227     
   8.78881472942318     
  -40.4883706977922     
   23.5572555929032     
  -76.3244554290391     
  -34.7646826889431     
  -9.74761724838066     
  -16.4879156623946     
   51.3861303621247     
 -0.311408464219578     
  -33.7206909766336     
   182.722138294503     
   21.1372371997233     
   6.47805778592819     
  -71.9866888979505     
  -36.8571331105183     
  -404.248740239198     
  -81.4174626937249     
  -10.3768922036703     
   20.9504144029969     
  -27.6125293430871     
   133.091590655539     
   100.441826320683     
  -284.543817215123     
   22.9503703873495     
  -75.0608373591637     
  -92.1796236987078     
  -38.3605730596613     
   21.6344132497042     
  -79.4331470417806     
   88.0235966246599     
  -178.744336278980     
   78.6189450279862     
  -15.0380116801274     
  -158.836958826152     
  -23.7216685293748     
  -15.6145487712728     
   59.9942846529090     
  -82.4293385633431     
   49.7978999465923     
   71.1695138105622     
   72.0783268784588     
  -112.242113773915     
  -5.17088802806756     
  -12.7329499057768     
   14.7141061069402     
   72.2725635172827     
  -49.4816345716442     
   91.5707770370222     
  -130.819237098640     
   45.2872157570445     
   127.081987915731     
   38.0129960344803     
  -25.4918165604268     
  -350.094276082139     
   21.9668714773463     
   48.3821714659978     
  -15.8067621003573     
  -137.229522226763     
   37.2350962110906     
   17.3744798240308     
  -23.6918989977977     
  -32.1623321325435     
   5.15482742818413     
  -53.2716924290247     
   25.5896947221452     
  -305.059183469847     
  -68.4502625524844     
  -76.4754377604702     
  -114.936701079963     
   27.2827302455663     
   24.1620798282744     
   26.0555682188169     
  -44.6981080298146     
   85.9926894948490     
  -55.2074558622581     
   78.9027951590044     
  -61.4080228088416     
   3.16475866731093     
  -4.96875189562012     
  -10.3721917102757     
  -5.70843093145359     
  -19.2909378053832     
   37.9099402384578     
   145.854605889404     
   53.1046815107721     
  -34.2621654227296     
   302.781351112655     
  -7.38430410694714     
  -71.7783963010238     
   10.9760547725308     
   74.0270560196615     
  -30.0202419473367     
  -4.12842685999972     
   9.74407296203534     
  -7.43202374045709     
  -83.0635865389082     
  -22.5078229240816     
   45.3544933707068     
   15.9265642134846     
   60.2510228790047     
   1.50479226213076     
   1.56862852883582     
   16.2894147879553     
   65.5340958581488     
  -54.4839334128765     
  -77.4473402700549     
   21.0575363161164     
  -32.5701053940600     
  -48.3262424587495     
  -38.9445724689366     
   105.517905545221     
   164.282016197072     
  -518.266517130274     
   19.7512591916423     
   36.2302438955409     
  -32.8927755214779     
   110.249817932622     
  -78.1814811191505     
  -6.74887675037904     
   122.776089502266     
  -104.895263969849     
  -17.3799576336340     
   8.45907999623881     
  -19.7429327885268     
  -3.31850181557974     
  -235.687471438377     
  -9.43250799743386     
  -122.732387439380     
   14.7405403799595     
  -17.7952214753781     
  -59.7978639945164     
   4.25640750890194     
 -0.467847299310580     
   18.9210347686601     
  -83.9301725585269     
   134.619311585846     
   135.534187966266     
  -29.6129595851123     
  -586.552550267552     
   81.6273534660502     
  -28.4469341897764     
   111.440455253060     
   136.061560529381     
  -32.5235027844656     
   18.1294052963352     
   57.8386027553310     
  -174.543757535406     
  -167.428872232288     
   4.17615354394978     
   23.6053009917869     
  -61.8706643573659     
  -1.90940105162610     
   70.0603743890349     
  -50.2310117426115     
   298.833210654192     
   136.257165106316     
  -34.7051814999944     
  -25.4809054803617     
  -17.9991687387076     
  -27.1412318714888     
  -52.6031840187962     
   26.9360703593649     
  -43.3489195080870     
   78.3776551854209     
   58.9703134575141     
   14.8223427771285     
   20.5723263864472     
  -88.6351615172663     
  -98.3589209611277     
   422.848151306068     
   56.3148118572588     
   32.2498908993944     
   98.6097048178399     
   2.54102939778826     
  -44.1638614882384     
  -1.49486799769055     
  -1.98755278692049     
  -9.71857640788416     
  -35.7881356412372     
  -21.8919295265248     
  -10.7505867890997     
   8.78407391329541     
   118.562224132495     
   14.3278486596359     
   3.22193797116768     
  -220.855507656956     
   125.487429391294     
   92.2335505705738     
   86.6594529532553     
  -109.995442014354     
   51.1894726195949     
  -66.9072320085077     
   175.016104149284     
   86.1176593021365     
  -34.3263356765390     
  -37.0885646061134     
  -12.5681410988509     
   3.48223932265654     
  -142.431561504633     
  -26.7041641048089     
  -36.8830776345110     
  -64.2704770518495     
   18.7040010178038     
   42.2878625841445     
  -50.9737108958369     
  -13.1680554090385     
   25.0165469946908     
   27.6031052741214     
   128.594838925236     
   287.612854368275     
  -13.1529146891069     
   10.3380463677904     
   38.3499014500236     
  -38.7580706651809     
   17.4819746458854     
  -95.0858487306693     
  -28.6018840467636     
   37.8828168626446     
  -160.417566538663     
  -13.4480094555786     
  -114.607785980647     
   3.43280888540265     
  -12.5695632756110     
   14.8023997942783     
   64.6367622166846     
  -17.5970970186841     
   8.06963859096425     
  -11.9435492626272     
  -22.8624325696429     
   40.5824299626826     
  -43.0949904180780     
  -51.5030342929816     
   41.7767939204509     
  -75.0822182708679     
  -3.70554241188347     
   22.7114320357052     
  -1.03946151700653     
   42.3521580554762     
  0.360752953547897     
  -72.2028054661906     
   18.5725714174079     
   424.755219885568     
   346.726755571198     
  -7.64315395081018     
   29.1818541526032     
   9.71624995546014     
  -39.0339264290833     
  -3.88339890541124     
  -71.7603982966934     
  -31.7259307713829     
  -88.6817285095888     
  -27.2199040006789     
   43.2937720405391     
  -169.134074817769     
  -13.7984042753187     
  -40.2024531881097     
   53.1267906694419     
  -4.19482366845114     
  -64.2730348854391     
   6.04617955612728     
   17.1697384342813     
  -60.3753595672064     
   27.2188220021236     
  -16.6666219559723     
   95.7948314908431     
   113.569003049790     
   9.17298619828339     
  -114.331390242573     
   22.3474281437763     
   86.5676175183061     
   122.758498131391     
   74.8846662921665     
   28.0726088568111     
  -58.6971323627400     
   303.569149768904     
  -74.4675833850253     
  -69.5858435943427     
   163.479363001710     
  -18.7774269153242     
  -166.336475174587     
  -204.265027000887     
   69.0678778819213     
  -25.0125950790251     
   120.256299064050     
  -11.3992558444604     
  -8.41243808731531     
  -19.0403624648319     
  -14.8975501692087     
  -18.7164382324292     
   9.05711230517653     
  -28.8979224959403     
   31.8864176105687     
   54.8427290750527     
   56.7181416305506     
  -8.43641171059250     
   21.8545186847585     
  -34.0682377530378     
   34.6049841051489     
  -11.1503330698062     
   12.3384022507056     
   81.6787306258843     
  -6.04861224894205     
   148.355949465233     
  -23.7831879533593     
   45.6568845715854     
   124.602339129865     
   92.4448251941930     
  -15.4389711778979     
   35.4761904576186     
   10.8396611386892     
  -84.2323173087345     
  -11.7967982735627     
  -5.13245415928859     
   259.562924520479     
  -7.04477635823338     
  -36.9607062706132     
  -86.5799614468104     
   36.5107765009283     
  -65.0283726174736     
  -174.376616314167     
  -104.033624816449     
   53.2067397697790     
   91.7773381602470     
  -3.93933193188498     
  -206.806544718619     
  -32.8479236488274     
   51.1616276632803     
   61.0642581418517     
   96.5185352437423     
   66.4254486555672     
  -28.7363700830559     
  -72.6847112450192     
  -90.0855395346879     
  -9.35874205986474     
   7.52696357713818     
   10.4758373028118     
  -64.7284529138955     
   25.2444647887959     
  -93.2905212965635     
  -77.0372326617384     
   38.7521024999578     
  -66.9500826166938     
  -36.8424604409179     
   77.6638911327335     
   19.2218875608995     
   102.625190231067     
   52.2377265886157     
   24.9421934038583     
   16.8232418052566     
  -80.5080928792840     
  -60.6567606265284     
   20.9300206171614     
   15.4798185055115     
   5.82674885416467     
  -25.9302768164527     
  -57.3514951828089     
   169.985720911475     
   28.8049837259880     
  -73.0370578848874     
   27.3901994176437     
  -84.7406763584915     
   41.5538027452611     
  -260.156749947898     
  -41.6076913146107     
   90.8508176304577     
   108.396438779861     
   2.73243836644706     
  -88.0307544414069     
  -10.5274419513427     
  -8.00427233797137     
  -181.322746757304     
   10.8236393186018     
  -24.5801905602628     
  -28.4054564601182     
   111.175123137597     
   2.22353930554952     
   13.7310703160892     
   145.789766528610     
   36.8634925113038     
  -176.544536402314     
   43.7620593198831     
  -12.6955498030040     
  -53.6861830188852     
  -124.698208160377     
   35.2235457185392     
   39.1644062081873     
  -24.5858883160231     
   21.1435025519444     
   53.4217963413219     
   38.0976119542052     
  -2.61498589950922     
  -217.438615598390     
   340.960885915409     
   67.7825850654083     
   52.4239475006286     
   292.220496751533     
   16.5445449352575     
  -18.9926348679392     
  -63.0091424803164     
  -7.90630444897436     
  -31.9420308516157     
  -29.2221243306768     
   153.149452077644     
   9.42564864572683     
  -67.4758855752290     
  -56.9886956592488     
  -202.321163730648     
  -160.388338544795     
  -24.9258515688076     
   24.1621511967793     
   149.526255495256     
   14.1709765261484     
  -26.1346806720249     
  -73.6528720897806     
   49.1652356336938     
   27.7379947053340     
   2.54042440497747     
   51.5416187504286     
  -23.1016412966979     
  -54.2839661362057     
  -93.5504821892352     
   47.9495973538642     
   166.580267185156     
  -42.9612664168318     
  -24.4550535276896     
  -307.917601774969     
   4.33420919940792     
   21.7932337000628     
   158.957749521832     
  -9.21024339033047     
   18.9199116824326     
   30.2044392935638     
  -147.800561805630     
   37.9545127518815     
  -60.5406238420713     
  -101.990140705034     
  -23.2538957660763     
  -148.381494206553     
  -220.282150707398     
   190.564800672921     
  -61.7574235846075     
   52.7779386172330     
   28.6945975369127     
   21.3873902413933     
  -166.174016859688     
  -24.6285102175625     
  -30.7039574533764     
   43.0737610367766     
  -104.616962135710     
   229.090755562365     
  -17.4297237519179     
   22.1519097151475     
  -78.1688696367465     
  -2.06362104030970     
   46.9012140901416     
   29.6252876616871     
  -200.693757358549     
  -7.55066736918090     
   3.65263695850475     
   1.98100069761244     
   47.7772665391654     
   32.1597939534545     
  -6.64152838103803     
  -119.494998456235     
  -42.2277778260590     
   21.7887823724327     
  -10.1309687531189     
   11.1836465385622     
  -58.5460185663164     
  -134.212318985592     
   19.3318506214599     
   101.306935751747     
   16.0565355712001     
   7.05051522355182     
  -16.4731831398157     
   5.18463411701725     
   2.45820558361601     
  -90.0183355851933     
   547.902066790913     
   22.4531383241943     
  -17.9450980671040     
 -0.670889013772252     
   59.2663586681749     
  -7.14330083244068     
  -128.634298449462     
  -6.86620778943824     
   29.6300217109692     
  -46.3630528615980     
   12.4829376333118     
  -11.2689127900341     
   106.088552168241     
   53.9877072064570     
   5.93454314509585     
   481.150546885893     
   166.515706708399     
  -27.7528210083736     
   27.0614353975662     
  0.649592626174235     
 -0.472296324763866     
   315.374163865816     
   35.1424573042993     
   52.0481026113707     
  -90.3448024577363     
  -17.6360313455631     
   135.406818166905     
  -23.2934078313343     
   21.0189694584203     
   21.2134371880456     
  -15.5878268243393     
   6.94292838542202     
  -18.2924825805432     
  -5.87918401464020     
   30.8468341036500     
   45.8147413759964     
  -68.7072597743482     
   37.6141266015064     
  -24.6806352706763     
   33.3020651970667     
   33.0895848329347     
   58.1034199376347     
  -4.32357900094986     
  -10.9259238427364     
  -5.77631781636209     
   59.6533538229737     
   5.89705696267700     
   37.6620985623238     
   65.6989378133310     
   37.9811149870963     
  -33.4140056561701     
   29.5494836997455     
  -80.4766913784703     
   24.3861384177548     
   33.2506298952157     
  -126.988821919713     
   61.6881358206413     
  -27.7465625946238     
   70.3865561112993     
   72.7546955368896     
   22.2253316832912     
   16.2483791633834     
   18.1478931161316     
  -38.7006922608517     
   8.46288633682152     
  -34.9719233755323     
   29.3064934777724     
  -144.809190091830     
   29.0616556046613     
  -77.3994529991902     
  -31.6058601739491     
  -24.3084029623278     
  -29.9288391897509     
  -48.3812125105640     
  -34.9997926204049     
   70.5153225157287     
  -145.947665481351     
  -51.8082389198078     
  -174.130824201171     
   160.901081184349     
  -76.2608942747219     
   274.465937012294     
  -99.1950373294682     
   101.422435928808     
  -27.8025376897383     
  -101.008057816287     
  -43.9552163297203     
   22.2960312172558     
  -18.5928420955268     
  -1.38826405725821     
   42.0198516070228     
  -49.4641745629121     
  -24.7402536540960     
  -48.4289252865249     
   24.8415285171414     
   143.804619550525     
   41.2469530579308     
   85.4476032887057     
  -270.756697242461     
  -80.6553370308792     
  -17.2150216040803     
  -396.522703605190     
   21.9556456809116     
   33.4870657697704     
   96.0242575404415     
  -125.775722118055     
   5.22312748421894     
  -53.7782663004494     
   121.024679840540     
   52.0427256422199     
   103.061623223200     
  -12.4371821425974     
   50.9721752633195     
   23.0130336072473     
   134.603100453600     
  -145.601080432282     
   295.925678692332     
  -173.499144025432     
  -271.988640757466     
  -5.26472089527858     
  -59.4017468321273     
  -69.6575791940891     
   114.628912688376     
   332.228835511340     
  0.749037328658044     
   69.0688711577928     
   162.620801847738     
   75.8878282603485     
  -39.5606390283301     
   57.2993885350749     
   34.7131312121424     
   14.4602281187828     
  -312.026824019334     
   68.3586505206276     
   145.772540463241     
   196.420444035013     
  -104.318961099150     
   33.1936811155377     
   7.10196996456428     
   70.7476331455287     
   34.0108586582530     
  -20.2908323033619     
   159.737901736306     
   28.9336117532913     
   19.9528806508557     
  -49.5273849331494     
  -125.407934929003     
  -5.88836492826832     
   124.225108540785     
   46.4547529784375     
   97.4604733492034     
  -14.0628748289454     
   73.3419146083677     
   68.3209572451343     
   51.3909320393474     
   4.34267817021097     
   108.325152187530     
   80.4145827357567     
   20.6250044019144     
   93.2683015033542     
   20.4929089617773     
   182.073415839689     
  -42.1057738300051     
   135.650977706532     
  -11.9457802586719     
  -11.6924345577091     
   103.336816132648     
  -61.2839427446198     
  -278.318645694090     
   62.9440262268169     
  -75.9964272347665     
   77.9427300813696     
   151.006549154596     
  -49.6133484472385     
   9.72693906101824     
   43.8138194614231     
   21.3789863436027     
  -74.2248575937101     
   3015.42482332724     
  -102.831039976387     
  -57.2156769660436     
   37.9855514711997     
  -55.0867730702988     
   424.704695107617     
   117.412959737829     
  -63.9137710856414     
   6.07532695868095     
  -377.856272722169     
   146.414305586142     
   100.551657365427     
  6.366837394974098E-002
   76.4330080436088     
  -47.9190454413725     
   37.1477194870428     
   3.06978050528721     
  -7.86057959701296     
  -9.59268723611217     
  -56.9702785100613     
   303.949530238187     
   162.657947794311     
   36.7730572200185     
   7.53436266721174     
   70.8427407558586     
   48.4906933182187     
  -225.942807258307     
  -21.8863402981135     
  -145.868537908741     
   54.6342031968786     
  -52.2708193883061     
   20.6567506392744     
  -197.821985483841     
  -39.9430417652753     
   17.5350191885509     
   7.44675335872551     
  -1.40660235151440     
   169.600561234128     
  -138.111586164886     
  -144.456453230352     
   80.9079963139800     
  -212.578261220309     
   99.1905858241350     
   32.8354682094124     
   52.0465219332737     
   44.2134545149177     
 -0.185605619789215     
   277.115788207532     
  -14.1643187336849     
   15.9770183090020     
  -75.2801314877126     
  -300.520989894793     
  -4.83766028183092     
   131.702822639452     
   130.080018611442     
  -28.7864961355834     
   40.0618742765498     
  -100.689619341324     
   12.9942323582873     
   10.7699193706836     
  -59.4024722580148     
  -48.1820894931401     
   14.9830335534441     
   51.0990153667795     
   14.3622897439893     
   201.285553838153     
   52.9435516400118     
   38.8782039610096     
   127.502956199245     
   57.4273183828829     
   102.664446851295     
   70.2474125844928     
  -173.615563485700     
  -7.96651746743359     
  -110.467231093585     
  -194.179373502600     
   169.155325412376     
   61.5245269565597     
  -130.725803762181     
   126.072228621651     
   13.0539955014134     
  -132.250719311643     
  -86.4047861270008     
  -15.3509656637445     
   40.7767867461737     
   20.3501855418283     
   6.12419833151724     
   1.03190587877268     
  -63.6711171325636     
  -257.926442310128     
  -21.7763199611706     
  -146.840855176445     
   317.123150578982     
   40.5915266111043     
  -131.021925131410     
   120.490261589329     
  -8.00520046200011     
  -37.2990463500321     
  -105.837476369609     
   6.39870205831609     
  -62.2180878984013     
   2.30593629415703     
   14.5991565128077     
   16.5000439249363     
   18.0464717795762     
   191.370416383754     
  -174.600530818031     
  -93.5650351901364     
   89.6145626836749     
   9.24585084120073     
   181.599942620832     
  -105.954645014108     
   15.9886717674913     
   5.39704265035380     
   223.991879337361     
  -81.4758477987141     
  -241.847118710618     
  -1.20578979301064     
  -27.2180640170412     
   6.75288095853892     
   33.0241994388976     
  -202.843935876199     
  -66.2657697141309     
  -52.4829503810614     
  -138.632363981725     
  -148.781930944634     
  -79.2810415328928     
  -48.1854183458171     
   36.3119782541887     
   78.2155363817029     
  -6.92033555585440     
  -35.6050836629115     
  -1.35156971659537     
   35.8373229032112     
  -21.5903244307328     
   29.7680408886420     
  -55.6599643615690     
   38.0482443198224     
  -121.628667478932     
   2.50985110398229     
   22.4003127893650     
   18.1461109765928     
  -246.402451069142     
   12.4930297811649     
  -480.271584097402     
